0.6377636194229126
-0.1585744917392731
0.5116346478462219
-0.1850152611732483
-0.2809758484363556
0.4349286258220673
-1.5286259651184082
1.1644973754882812
1.2851059436798096
-0.2927818000316620
2.6457712650299072
0.5352424383163452
1.0510337352752686
-2.3806729316711426
0.0541778951883316
1.3253097534179688
-0.7891318798065186
-0.0853866338729858
-2.1744692325592041
-1.0270985364913940
0.3364952802658081
-0.3533486723899841
-0.8065334558486938
0.1487827599048615
-0.8242888450622559
0.7744817733764648
-0.4514198899269104
-0.9272303581237793
0.5091230869293213
0.4982686042785645
1.3241206407546997
1.0675152540206909
-0.2534137070178986
0.8403062820434570
0.5930510163307190
-0.7403624057769775
-0.0951127931475639
-1.6721333265304565
0.0989419966936111
-0.2712993323802948
0.1747124940156937
-0.4929814934730530
-0.7365489006042480
2.0268738269805908
0.2608909010887146
-1.4838227033615112
-0.8258383870124817
1.0235686302185059
0.9118974208831787
0.3653219342231750
-0.0097335893660784
0.2958368360996246
-0.7299755811691284
0.9678111672401428
0.6818503141403198
-0.2314951121807098
0.3015851676464081
0.0940912514925003
0.0167970806360245
-0.8324487209320068
-0.4421416819095612
-0.1628232151269913
0.1564523875713348
0.7994732856750488
1.4620132446289062
0.4680956304073334
-0.2298825532197952
-0.6514739990234375
-1.5623091459274292
0.0319200642406940
0.1231364384293556
0.9606503844261169
0.2159270048141479
-1.1143152713775635
1.3232656717300415
-1.8923797607421875
0.0107833258807659
0.2755079865455627
-0.4902710914611816
-0.2913496196269989
-2.8161485195159912
-0.1556334346532822
-2.7507987022399902
0.2364034503698349
-1.4368613958358765
0.8751919269561768
-0.4346795082092285
-0.9389391541481018
0.3108415603637695
-0.1034072712063789
-0.0072666690684855
0.9069029092788696
1.5826083421707153
-0.4080786108970642
0.7947314977645874
-1.9843276739120483
0.2298472821712494
0.8540293574333191
0.1792002618312836
-0.1963748484849930
-1.0410968065261841
-0.2475122660398483
1.3965945243835449
1.6489099264144897
-0.7863397598266602
-1.9756232500076294
0.4970927238464355
0.4938660562038422
0.4568008780479431
-0.0211134124547243
-0.6666212677955627
0.7158440351486206
-0.5450322628021240
-0.2008043229579926
0.1881027668714523
-2.4307596683502197
0.2919560968875885
-0.1285478472709656
-1.5031045675277710
0.1655075848102570
-0.1290747374296188
0.8706468939781189
0.0742871537804604
0.5924475193023682
0.3390460610389709
-0.8361685276031494
-0.5511987805366516
1.7460135221481323
