-1.8816734552383423
1.3318614959716797
1.7700304985046387
-1.4204275608062744
-1.3713166713714600
0.4077133834362030
-0.6942617893218994
0.5767260193824768
0.3911238610744476
-0.5630416870117188
0.1733838021755219
-3.5164844989776611
0.4081490635871887
-1.1748548746109009
0.6021010279655457
1.2786563634872437
0.3085394799709320
-0.5585998892784119
-0.1538441479206085
0.5578552484512329
-0.3289047181606293
-0.4098649621009827
2.4160690307617188
1.4944261312484741
1.3256151676177979
-2.0801031589508057
-0.2057830393314362
0.3346804082393646
2.9244830608367920
-0.8929960727691650
-0.3881243169307709
-0.4034640789031982
0.1541153937578201
1.5637053251266479
0.5894001722335815
0.4414865672588348
-0.7537998557090759
0.7776494622230530
-0.1607232540845871
1.0646038055419922
0.9231847524642944
-0.3659957051277161
-2.0620522499084473
0.7382652759552002
-1.4100866317749023
0.3914142549037933
1.2358053922653198
0.3816979527473450
-0.3104569911956787
1.1508820056915283
0.0033379129599780
-1.0877507925033569
-1.8418347835540771
-1.3209780454635620
0.9480060935020447
0.1722934544086456
-1.0962852239608765
-1.5590294599533081
-1.5990388393402100
1.3082958459854126
-1.9641120433807373
-0.1881256252527237
0.5382109284400940
1.6554071903228760
-0.2940019965171814
-2.5334031581878662
-1.0702282190322876
-0.4289851486682892
-1.0042669773101807
0.5026633739471436
0.0168489571660757
-0.5704525709152222
0.6387600898742676
1.3226695060729980
-0.8452316522598267
-0.1082046255469322
-1.1357898712158203
1.6019346714019775
-0.0823510289192200
-1.9869673252105713
-0.1802628934383392
2.6259667873382568
-0.7830811738967896
-1.6505593061447144
-0.2025012820959091
1.8685837984085083
-1.0418424606323242
0.2351035028696060
-1.9600157737731934
0.4176317751407623
0.1886378824710846
0.4936816692352295
1.5719949007034302
-1.0457944869995117
4.5382242202758789
-0.2401290088891983
1.1968058347702026
-1.4693151712417603
-0.1334007680416107
-1.3059130907058716
0.7939558625221252
-0.1443302482366562
-2.1072328090667725
-0.2432734519243240
-1.7988935708999634
-0.6828027963638306
0.1374567598104477
-1.4753050804138184
-0.2421556115150452
2.3752522468566895
-0.6751634478569031
0.2739723622798920
0.0076056784018874
1.0236190557479858
0.0021721564698964
-2.0056526660919189
1.6743382215499878
-1.5261901617050171
-1.8341271877288818
-0.0164233166724443
-0.1296847015619278
-0.0008653741097078
0.7900307178497314
-0.1549697667360306
-0.4789352118968964
0.0993077009916306
0.4486978054046631
0.9161154627799988
