-2.2833051681518555
-0.7587363123893738
0.2116909027099609
0.2367677837610245
0.2265625447034836
0.0834440514445305
0.0758279412984848
-0.3982824087142944
0.0755803212523460
-2.1251461505889893
-0.3139328956604004
-0.1919014006853104
0.9467998147010803
1.0974439382553101
0.5810451507568359
0.2977243661880493
-0.3006711602210999
0.0306642595678568
0.3353522419929504
-0.6299659609794617
-0.5050188302993774
0.4223506152629852
0.1238790899515152
0.8146719336509705
0.2671787440776825
0.6227250099182129
1.1477771997451782
0.4190540015697479
0.1739369183778763
-0.3431273698806763
0.3483362793922424
0.4069125950336456
-0.3468627631664276
0.9972751736640930
1.0065499544143677
-0.0950631871819496
1.1030838489532471
-0.9638543128967285
0.0786744803190231
-0.0414676740765572
-0.0969970300793648
0.0094956662505865
0.5761557817459106
0.5565913319587708
0.4328616857528687
0.4772954285144806
0.1886135339736938
0.0673371180891991
0.2897714674472809
-0.7520200610160828
-0.2342569828033447
1.0292189121246338
-0.0901231989264488
0.5236485004425049
0.6711833477020264
0.3797016441822052
-0.0361972302198410
0.0256508700549603
0.0865618586540222
-0.2875550389289856
-0.1581675112247467
0.7666448950767517
0.5588213801383972
0.9338939785957336
0.3736504614353180
1.1416038274765015
-0.1435077488422394
0.2124910056591034
0.3164944052696228
0.0262560397386551
0.0142333498224616
0.7192195057868958
1.0194592475891113
0.8263233304023743
0.3680916428565979
0.4175805747509003
0.9284752607345581
0.4950038194656372
0.0155331222340465
0.3184528052806854
-0.9496897459030151
0.8123686313629150
0.0191872641444206
0.5934755206108093
0.5208710432052612
-0.1504831165075302
0.0591097027063370
0.2396071553230286
-0.8721629381179810
-1.0263868570327759
-2.3842473030090332
-1.3832576274871826
-1.3995704650878906
-1.6818143129348755
-1.8498560190200806
-3.3396682739257812
-2.1800339221954346
-1.6975156068801880
-2.3156492710113525
-1.2970600128173828
