1.2058489322662354 1.4251269102096558 -1.3182948827743530 0.4867170155048370 -0.2413097620010376 0.6077069640159607 -1.7458800077438354 2.0114600658416748 1.2248232364654541 -1.3318357467651367 -0.9664624929428101 1.1582173109054565 -0.6133249998092651 -0.1123002991080284 -0.0260246824473143 1.1401722431182861 -0.3773905634880066 0.2975912392139435 -1.2353111505508423 -2.1196477413177490 2.3179140090942383 1.6307532787322998 1.2157181501388550 -1.9982930421829224 0.4391905069351196 0.1105024591088295 0.7970881462097168 -1.3292499780654907 0.2198066562414169 1.0635204315185547 0.7585198283195496 0.5972891449928284 0.7542203664779663 0.5248823165893555 1.9607906341552734 1.3203525543212891 1.3216134309768677 -2.1018209457397461 -3.0554335117340088 0.9586858749389648 -1.1637872457504272 1.5160053968429565 -1.6972105503082275 2.0904989242553711 1.5550607442855835 -1.6263819932937622 1.2936296463012695 -1.5184850692749023 1.0643382072448730 0.6622253656387329 0.0784317627549171 1.1831085681915283 1.2331407070159912 1.0186688899993896 1.4530811309814453 0.2065729498863220 0.7092723846435547 0.3329582214355469 1.1998109817504883 -0.4781341254711151 -0.1254946440458298 0.6483391523361206 0.0852179750800133 1.0548509359359741 0.7619925141334534 -0.2782346010208130 2.0571703910827637 0.0363382734358311 0.9364480376243591 0.4457421600818634 -0.4237435460090637 -0.7229303717613220 -1.0602983236312866 -0.0939335227012634 -0.0715419873595238 -1.2377753257751465 1.3433452844619751 -1.9227327108383179 0.0153135797008872 0.2766991257667542 0.7145131826400757 -0.7459459900856018 0.5506652593612671 2.5470995903015137 -0.2441413700580597 1.2909045219421387 -2.0443902015686035 1.7744125127792358 2.7292084693908691 -2.0955064296722412 0.5270038247108459 0.1027649939060211 0.9128695726394653 -0.0455076694488525 0.3769529759883881 -0.2666989862918854 2.0281238555908203 -1.7671293020248413 -0.0671736821532249 0.3323076367378235 -0.1605163812637329 1.1978901624679565 1.3532298803329468 -0.6294072866439819 -0.5132280588150024 -0.5932375192642212 1.3996894359588623 1.0339812040328979 -0.6574559211730957 -0.0409964732825756 -1.3433747291564941 -1.3386744260787964 -0.0713855549693108 0.5314019322395325 0.1682659089565277 0.1705514490604401 -0.5717498064041138 1.1066148281097412 -0.8813062906265259 1.4072717428207397 0.7622785568237305 -0.5777976512908936 -0.8323801755905151 0.4439330697059631 -0.5055204033851624 -1.1847815513610840 -1.2202410697937012 -0.9474384784698486
-1.5796803236007690 -0.9785556793212891 -0.6944945454597473 -2.0970540046691895 -0.8972987532615662 0.4834022223949432 -0.5485193729400635 -0.0240469388663769 -0.4104622602462769 -1.2164072990417480 -0.3259505331516266 -1.0673189163208008 0.3098141849040985 1.1161185503005981 0.7963951826095581 0.8800401687622070 0.5590667724609375 1.3628925085067749 1.5302187204360962 -0.2804233133792877 1.4635083675384521 0.5740682482719421 0.9344870448112488 -0.3368856310844421 -0.2189626395702362 0.5349063277244568 0.0394151210784912 -0.0654465779662132 1.1129486560821533 0.0720984861254692 1.2451958656311035 -0.1984302550554276 -0.5668938755989075 0.2022729665040970 -0.4443754851818085 -0.5832071304321289 -0.3296822607517242 2.1103279590606689 0.0648693069815636 -0.6676813960075378 1.1870864629745483 0.0531532503664494 2.4001410007476807 -1.2492160797119141 1.6985757350921631 2.1015467643737793 0.4202426373958588 0.2425165772438049 0.3095019161701202 1.2098485231399536 -1.0090373754501343 -0.9030688405036926 0.0514657422900200 -0.4680917263031006 0.6142389178276062 -1.1764777898788452 1.8215974569320679 -1.7958580255508423 -0.3101896047592163 -2.1340043544769287 1.1735810041427612 0.1895271092653275 -0.5496662855148315 0.3679316639900208 -0.3474074304103851 -0.3053613007068634 -0.9033825397491455 -1.0121470689773560 0.6431641578674316 1.9311691522598267 -1.4664165973663330 -0.1281509548425674 1.2683475017547607 1.1971495151519775 -0.8198121190071106 -2.3453843593597412 -2.0737733840942383 -0.1947364658117294 -1.3079602718353271 -1.2126114368438721 -1.2818543910980225 -0.8968308568000793 0.2291824519634247 1.1306749582290649 0.2856642901897430 -0.4879736900329590 0.7947781085968018 0.2231990396976471 -0.6740708351135254 1.0204089879989624 -1.8785740137100220 1.0517405271530151 -0.8656744956970215 0.2550393939018250 0.2567816972732544 -0.0898516550660133 1.6363869905471802 1.7390279769897461 0.7193766832351685 -0.2784206271171570 -0.6081024408340454 2.2005746364593506 -0.1863544732332230 -1.2952088117599487 -0.7253098487854004 0.2441316992044449 0.5414072871208191 0.7279843091964722 1.1082998514175415 -1.2195399999618530 -2.8248136043548584 -0.5552676916122437 0.8571854829788208 -0.2354698777198792 0.0841035097837448 -1.1827255487442017 -0.1509981155395508 2.2848870754241943 -1.5972090959548950 0.5269772410392761 0.4348682463169098 -0.3311805427074432 -0.2208878993988037 -0.9818208217620850 1.1779919862747192 -0.9139618873596191 -1.2298866510391235 0.3598823547363281
0.5483766198158264 0.9378289580345154 -0.9354057312011719 -1.1118557453155518 1.4044793844223022 0.9514707326889038 -0.1962441056966782 -0.7631218433380127 -0.3765395283699036 -0.8255956172943115 -0.1585773378610611 1.0132917165756226 -2.1149566173553467 1.6248319149017334 0.1752895712852478 0.2296428382396698 -0.0219471715390682 1.5700008869171143 -0.7019140720367432 0.4606707692146301 0.7554724812507629 -1.2607069015502930 0.6844550371170044 -0.6947859525680542 -0.7534537315368652 1.7930899858474731 0.0165433678776026 -0.6538383960723877 -0.6470937728881836 0.8547367453575134 0.7629101276397705 -0.2788557708263397 0.1014610677957535 -0.8382140994071960 -0.1973463594913483 -1.3502469062805176 1.9974455833435059 1.5669127702713013 1.1507954597473145 0.3165233433246613 -2.0689358711242676 0.2150555998086929 0.0302267856895924 -0.0882857441902161 0.3262137174606323 0.2944537103176117 -1.7233833074569702 1.5047358274459839 0.5885038375854492 -0.8804712891578674 1.7124733924865723 0.7544519305229187 -0.5004336237907410 0.5426142811775208 0.6321418285369873 -0.0850023478269577 0.3787731230258942 0.6164113283157349 0.0139494789764285 -0.2370058298110962 -1.7866115570068359 0.2304514944553375 1.2094186544418335 -0.4722155928611755 1.2359960079193115 0.7865564227104187 1.3069653511047363 2.1515345573425293 -0.4576236605644226 -1.1194937229156494 1.3371722698211670 0.2998664379119873 1.0037323236465454 0.3667192161083221 -0.3187253773212433 -0.0167268235236406 -0.1689755469560623 0.5815904736518860 0.5892662405967712 0.3320409059524536 0.3091598153114319 -0.7105522751808167 -0.2882726192474365 0.9145274162292480 0.2854749560356140 0.2489513754844666 -0.9004688262939453 1.2602677345275879 1.5865511894226074 -0.7698055505752563 0.5833964347839355 0.9243572950363159 0.5844584107398987 0.7035411000251770 -0.0852649658918381 0.6009517908096313 -1.0606472492218018 1.1209195852279663 0.5761882066726685 -0.4252576828002930 0.0012421380961314 -0.0869510844349861 -0.7159098386764526 -0.2179870009422302 1.2497601509094238 0.5189031958580017 -0.1493216753005981 0.8815174698829651 -0.8152328133583069 -0.1803094148635864 0.3781059384346008 -0.7741114497184753 -0.6342950463294983 0.4092046618461609 0.0060580242425203 1.0206060409545898 1.3740198612213135 -0.6560052633285522 0.7616463899612427 0.4293318092823029 -0.1345429271459579 -0.1286256462335587 1.7545089721679688 0.4847022891044617 0.2881761193275452 -1.4017225503921509 -0.4825026392936707 0.4625648856163025
0.6052099466323853 -0.2531089484691620 0.4484424293041229 0.1527442634105682 -1.2705249786376953 2.5588979721069336 -0.4876234233379364 1.1970124244689941 -0.6969933509826660 0.3150900304317474 0.3704381883144379 -0.5426666140556335 -0.8065412044525146 -0.9462743401527405 -0.8431409597396851 1.0546286106109619 0.0180118195712566 -1.3083400726318359 -0.0120638897642493 1.1255557537078857 0.1298535168170929 -1.1263564825057983 2.2546224594116211 0.0608389526605606 -1.4164736270904541 0.1928190886974335 0.3768902420997620 0.3017162382602692 -0.3451288640499115 -0.0685851648449898 -0.3806922733783722 -0.8944963216781616 0.1162442415952682 1.4277319908142090 -0.1228038668632507 -0.4195138514041901 1.5019674301147461 -0.9518916606903076 1.0848065614700317 -0.2960483729839325 0.3208732604980469 1.5987714529037476 -0.2521227300167084 -1.3796998262405396 -1.3145411014556885 -1.4652931690216064 -0.7721241116523743 0.9281726479530334 1.2697125673294067 0.2652209401130676 0.3077149987220764 -0.9395925998687744 -0.2521134912967682 0.2398605197668076 1.7635681629180908 0.1975279301404953 -0.4073795080184937 0.1899375021457672 1.3256882429122925 0.4044196009635925 -1.0978183746337891 0.6033473610877991 -0.2316165119409561 -0.3579094409942627 0.0012673495803028 0.1935493946075439 0.1676557958126068 0.5903692841529846 1.0840511322021484 -0.1358669549226761 1.2423933744430542 0.5428056120872498 -1.3920264244079590 1.9036842584609985 -0.4341092705726624 1.0303359031677246 -0.5485904216766357 0.7220154404640198 -0.1966148018836975 2.5700123310089111 0.3388573229312897 0.2925916612148285 0.0356428585946560 0.6575319170951843 0.2678623199462891 0.6874853968620300 0.2495039552450180 0.1200172826647758 0.0865204185247421 -0.7237407565116882 -1.0689070224761963 0.2248427420854568 -0.1578802913427353 -0.8920406103134155 1.1034181118011475 0.2200676202774048 -0.9365294575691223 0.7066159844398499 -0.1658890098333359 -0.1861736178398132 0.5028578042984009 0.0332475751638412 0.8712125420570374 0.4859283864498138 -0.1710034757852554 -1.0907981395721436 -0.4646277129650116 -0.4128647148609161 -0.3613826930522919 0.7990536689758301 0.1008939743041992 0.1926185935735703 0.4177661538124084 0.1871181726455688 -1.7236810922622681 0.7824519276618958 0.1182379499077797 -0.5348265767097473 1.5780639648437500 2.2487742900848389 -1.8594343662261963 0.0554804019629955 0.7169277071952820 -0.6071994304656982 -1.4656661748886108 -0.3181980848312378 -0.1037169098854065 0.5142056941986084
0.4947164058685303 0.6763222813606262 0.0170818176120520 0.6852822899818420 -1.0231218338012695 -0.9568577408790588 2.6761660575866699 1.5133622884750366 -0.9757008552551270 -0.7110691666603088 -0.1764287948608398 1.1716390848159790 -0.7323184013366699 1.2864654064178467 1.1147633790969849 0.2284678965806961 -1.4493634700775146 -1.2570166587829590 -0.1064238920807838 -0.8068201541900635 -0.5600690841674805 0.3534837961196899 1.1952131986618042 0.8643865585327148 -0.7960086464881897 -0.4343250691890717 -0.0220915321260691 -0.5454361438751221 -1.1058281660079956 1.4231069087982178 0.4498344361782074 0.8184226751327515 -1.4821120500564575 -1.0145870447158813 0.2824214398860931 -0.2755363583564758 2.0051608085632324 1.3288055658340454 -0.6264101266860962 -1.0349295139312744 -0.6800812482833862 0.8965719342231750 1.2981879711151123 0.8492649793624878 -1.7761342525482178 -0.2496920973062515 0.9773095846176147 0.1789447516202927 -1.0244823694229126 -0.6495919823646545 -0.6950508952140808 -1.3258029222488403 -0.1264925897121429 1.0073051452636719 -1.1129666566848755 -1.1686631441116333 -0.4351528584957123 -1.6746737957000732 0.2438711822032928 0.0363010540604591 0.0702733397483826 -1.0632616281509399 0.4201143980026245 -1.8119207620620728 -0.3271917104721069 1.1876620054244995 -1.0484843254089355 -0.0881070867180824 -0.0291409306228161 -0.7674264311790466 1.7775511741638184 0.6731025576591492 -0.1195346787571907 1.5304906368255615 -0.0592547431588173 -0.6468257904052734 -0.7451028823852539 0.6514003872871399 -1.5555478334426880 1.8211644887924194 -1.1891319751739502 0.1927234679460526 3.1499149799346924 -0.2754474878311157 1.4276103973388672 -0.6441447734832764 0.2187463939189911 1.1996544599533081 -2.5895454883575439 -0.8355918526649475 -0.6316643357276917 0.7884095311164856 0.5813329219818115 2.0190639495849609 -1.0004519224166870 -0.3822720348834991 -1.9507237672805786 1.4949307441711426 1.1514199972152710 -0.3685347735881805 -1.9151027202606201 -0.1538359969854355 1.0599225759506226 0.6361337900161743 0.5727881789207458 -0.7816783189773560 0.3394223451614380 0.4097974896430969 0.3821236789226532 -0.3252936601638794 1.4295041561126709 0.5480177998542786 -1.4680638313293457 0.1845883429050446 -1.2040469646453857 -2.5275459289550781 -0.0721730738878250 -0.5207496285438538 -0.1097585111856461 -0.0163714531809092 2.8251829147338867 0.5399356484413147 -0.1527286618947983 0.9182027578353882 0.2653945088386536 0.0841526910662651 -0.2308586984872818 0.6718960404396057
-0.0277728550136089 -1.1167442798614502 3.2008194923400879 -0.3234750032424927 0.6852601170539856 -0.4476728439331055 0.4166585505008698 -0.4292354881763458 0.1250635385513306 0.5755220055580139 -1.2675513029098511 -0.4537552297115326 -0.3140670061111450 -0.4137881398200989 -0.4612813889980316 0.5938998460769653 -1.2217144966125488 0.9728966951370239 -0.2521000802516937 1.1254993677139282 0.2218389809131622 0.6962545514106750 -0.8122355341911316 1.0433906316757202 -0.1592690646648407 -0.1330966204404831 -0.3671185076236725 -0.4001443088054657 -0.3048342168331146 0.7025889158248901 0.1759251207113266 0.0672412514686584 1.1213232278823853 0.3084516525268555 -1.4275385141372681 -0.5698130726814270 1.0601285696029663 -0.5300872325897217 2.0132503509521484 0.1017329394817352 0.9136743545532227 1.6433073282241821 0.8197818994522095 2.2064080238342285 -0.0825150310993195 -1.1065071821212769 -2.4130220413208008 0.2270536869764328 0.6098131537437439 0.5401104092597961 0.6899043321609497 -1.2406466007232666 -1.6212584972381592 0.9080094695091248 0.1447162330150604 1.1144518852233887 -2.0515246391296387 0.8004592657089233 0.3452374339103699 -0.1739206612110138 -0.6258062124252319 -0.4110907912254333 -0.5984684824943542 1.7125172615051270 -0.3256603777408600 -0.6337692141532898 1.7260932922363281 -1.6795862913131714 1.8219727277755737 -0.3340645730495453 -0.7138981223106384 -1.8681137561798096 -0.1287146508693695 -0.8260317444801331 -1.7073484659194946 2.0282239913940430 -0.6575231552124023 -0.4883820712566376 0.0890567079186440 0.2899172604084015 -1.3953492641448975 0.3343796133995056 -1.7870782613754272 -1.1424723863601685 0.8190494179725647 -0.0971056222915649 -0.3000863790512085 1.5404802560806274 -0.4527819752693176 -0.2553768754005432 -2.4333994388580322 -0.0755904391407967 -0.7486993670463562 0.8138075470924377 -0.3211722970008850 -0.8802668452262878 -0.6527619361877441 -2.1024439334869385 0.0734860897064209 1.5494711399078369 -0.7808398008346558 -0.2790493667125702 1.3742318153381348 -0.9204191565513611 -0.7686492800712585 -0.1930145472288132 1.1605263948440552 -0.0916490256786346 -0.5628380775451660 0.5902126431465149 1.0634382963180542 -0.5947081446647644 1.1555249691009521 -1.7381699085235596 0.6654520630836487 1.8049663305282593 -0.8759665489196777 -0.2508174479007721 -1.4256442785263062 -0.7399331927299500 1.3856483697891235 -0.4057210087776184 0.6428519487380981 -0.1041372045874596 1.8229203224182129 -0.0997023433446884 0.8256111741065979 0.4971692562103271
0.9313941001892090 -0.8518421053886414 -0.3723154664039612 0.1601732969284058 -0.3671312034130096 2.0264599323272705 1.0018949508666992 -0.9035149812698364 -0.1148155778646469 0.9702488183975220 -0.1554454416036606 1.6158872842788696 -0.6205201148986816 -1.4636669158935547 -1.3705768585205078 0.1684813946485519 1.0169780254364014 -0.8074185252189636 0.6762623190879822 -0.6592258214950562 0.6183311343193054 -1.2107013463973999 -2.2042295932769775 -1.2361240386962891 0.4586613476276398 0.8377056121826172 0.4014245569705963 0.3815489113330841 -0.7632746100425720 1.1990915536880493 0.2832796275615692 -0.3818317949771881 0.4959151446819305 0.8644018173217773 -0.8336718678474426 -0.1132379770278931 -0.9101561307907104 0.4207110404968262 -0.4201812446117401 -0.0138631667941809 -0.6140536665916443 0.7427559494972229 0.1719441860914230 -0.7976393103599548 0.5354763269424438 -1.3227778673171997 -1.5479891300201416 -1.3585867881774902 -1.7406018972396851 -0.2698934376239777 -0.0219019688665867 -0.9302690029144287 0.0095570422708988 1.0932915210723877 -1.0101326704025269 1.9296808242797852 1.0417742729187012 -0.8261461257934570 -0.6268682479858398 1.2177215814590454 0.2043620198965073 0.2355757653713226 1.2807102203369141 0.2305133640766144 0.5101004838943481 0.8023275732994080 1.9822596311569214 -0.2537905275821686 -0.0535508207976818 -1.4442712068557739 -0.6326977014541626 0.7612611055374146 -0.6835586428642273 0.7640151381492615 2.4958498477935791 -0.7971995472908020 -0.8513847589492798 -0.8544070720672607 -0.5554186701774597 -0.0841328725218773 -1.1464778184890747 0.6777221560478210 -1.1274807453155518 0.5843021869659424 -1.0455032587051392 -0.4482962191104889 0.3520632386207581 -0.5379890799522400 -0.7863304018974304 0.1398602873086929 3.6556203365325928 0.3532830476760864 0.0635895505547523 -1.5597388744354248 -0.5246135592460632 -1.5609449148178101 1.4811776876449585 0.1596519351005554 -0.7756475806236267 0.1347700953483582 -0.0033900688868016 0.2254123538732529 -0.3016164898872375 0.0237642861902714 -0.1126389801502228 -1.3895866870880127 0.9521310329437256 1.4974977970123291 -0.5416460633277893 0.9946404695510864 -1.1528915166854858 -1.6802936792373657 0.3819054365158081 1.1144154071807861 -0.2419809699058533 -0.5981878638267517 0.2831547558307648 0.4457981586456299 0.1498863846063614 0.1116367280483246 0.3041548430919647 0.7086358666419983 -2.5308809280395508 0.5156868100166321 1.0453155040740967 -0.9976598024368286 1.3449853658676147 0.4730955362319946
-1.3973698616027832 0.0165702942758799 1.6556308269500732 0.4701778292655945 -0.0188878327608109 -0.0326144993305206 0.5716835260391235 -1.4741487503051758 -1.0726701021194458 0.1784907579421997 -0.3397327363491058 0.0955823287367821 0.7040401101112366 1.2100971937179565 -0.4183573424816132 0.2175576835870743 -0.8016623258590698 0.8410247564315796 -1.0012408494949341 -1.0066698789596558 -0.1706178039312363 0.5870582461357117 -2.3635911941528320 -0.5045009255409241 1.9054623842239380 0.2489231228828430 -0.4126603901386261 -0.0865830257534981 -1.7613415718078613 0.7790454626083374 1.1829653978347778 1.7256609201431274 -0.0081412084400654 -1.5098311901092529 -0.5496224164962769 -1.3502353429794312 -0.3944153785705566 -0.2285712659358978 0.1936265230178833 -0.2017332613468170 -1.4246565103530884 1.0289894342422485 -0.0981109961867332 -0.1552641093730927 -0.7558985948562622 0.9807000756263733 0.4523231387138367 -0.7572944164276123 -0.0833755731582642 0.3920640647411346 -1.8078941106796265 1.3900809288024902 0.3679512143135071 -0.0833123624324799 1.4657146930694580 -0.6381773948669434 0.6012746691703796 2.1032733917236328 1.0855209827423096 0.4422916769981384 -0.9788470268249512 1.5759813785552979 -0.0848663523793221 -0.1536754518747330 -0.3140889704227448 -0.9850471019744873 0.7842819690704346 0.3551282286643982 1.8829963207244873 2.7792980670928955 1.4074839353561401 0.2839799225330353 1.6976500749588013 -1.8725501298904419 -0.8459478020668030 -0.7472512125968933 -0.8334736227989197 0.5611702203750610 -0.0025288560427725 -0.0364368148148060 0.1118746250867844 -1.5802809000015259 -1.0589786767959595 -0.0993423759937286 0.9707818627357483 0.4603352248668671 1.6304749250411987 0.7882548570632935 0.7573797702789307 -0.7066742181777954 0.4927988052368164 -0.5653147697448730 0.1676265299320221 -1.1086384057998657 0.5898860692977905 -0.4710344374179840 -1.1319345235824585 -2.1086328029632568 0.4048534035682678 1.2365621328353882 0.1289173364639282 -2.6039481163024902 0.0113969417288899 -0.1822641789913177 0.7415332794189453 0.8409165143966675 0.7142189741134644 -0.5121061801910400 0.9330351352691650 -1.2546001672744751 -1.4950939416885376 -0.7403904199600220 0.2027800679206848 -0.0835158973932266 -0.0265158694237471 -0.4277892112731934 -0.1340856254100800 -0.3001548051834106 0.3357094228267670 0.5274048447608948 0.3665381371974945 -2.5498552322387695 -0.2322186231613159 0.2220203876495361 0.3752832710742950 -0.8824852108955383 -1.5732660293579102 -0.1755750030279160
-0.5694308876991272 -0.1274068206548691 0.5929418802261353 -0.0010425007203594 -0.3572711646556854 -1.9291678667068481 0.4190956056118011 1.1536407470703125 -0.0014168202178553 -0.0936524644494057 -2.8661766052246094 0.6007106304168701 0.6510656476020813 0.7095898985862732 0.3547435700893402 -0.8316261768341064 0.0479865632951260 0.5679169297218323 1.2409698963165283 -0.4401450753211975 -1.2324867248535156 -1.0637385845184326 -0.0387078486382961 0.1402824074029922 -0.8406324982643127 0.0759744793176651 -1.0683310031890869 0.0539926476776600 -0.0443708524107933 0.2634598016738892 0.9965425729751587 -1.3929228782653809 0.9421842098236084 1.5248720645904541 -0.2309395223855972 0.1469037681818008 0.0277530159801245 -1.0654972791671753 -0.4825280904769897 -0.6808622479438782 0.5098804831504822 0.4266464412212372 -0.0230336766690016 0.3432296216487885 -1.0474407672882080 -1.7839914560317993 0.0409281626343727 -2.1808333396911621 -0.7458181977272034 1.5760651826858521 -0.4418498277664185 -0.0068021873012185 -0.2466536611318588 -1.5481767654418945 -0.3024298250675201 -0.6418364644050598 0.7201104760169983 -1.6969739198684692 -0.8295549154281616 -0.3587624132633209 -0.0393706969916821 1.6878777742385864 0.0832056924700737 0.8807726502418518 1.2245044708251953 -1.2106888294219971 0.2300918102264404 -0.7104899883270264 -0.9187999963760376 1.9293739795684814 2.9492409229278564 -1.3025333881378174 -0.0848910659551620 -0.0734962001442909 -0.2377057969570160 -1.8247395753860474 -0.6738779544830322 -0.2126383185386658 0.4319903552532196 -0.8235131502151489 -0.5172269344329834 -0.7838864326477051 -0.0872631669044495 0.8641309142112732 0.2247655838727951 0.8874660730361938 -0.7090271115303040 -0.4348676204681396 -0.4668809175491333 -0.7549257874488831 0.2499198764562607 0.6934370994567871 0.5686099529266357 1.2375392913818359 1.0483164787292480 -1.6855975389480591 -0.0155544131994247 0.2929795980453491 -0.8468095064163208 0.2299036383628845 -1.5940366983413696 0.6669485569000244 -1.3717137575149536 -1.4500080347061157 0.4984910786151886 -2.4384608268737793 -0.6881644129753113 -0.1443222314119339 0.1777828931808472 1.5670365095138550 0.5246939063072205 0.7048163414001465 0.4391512870788574 0.0328392051160336 -1.0486134290695190 0.1993649154901505 0.3529508709907532 -0.6114166378974915 -0.4129616022109985 -0.6291193962097168 0.0191498715430498 -1.8289926052093506 -0.8592833876609802 0.3233125507831573 0.1297129839658737 -0.2225962430238724 0.4712040722370148 -1.4636751413345337
0.0968506857752800 0.2929467856884003 0.2638966441154480 0.6570428609848022 0.1891520172357559 -1.1029469966888428 -0.2832518815994263 0.0770620033144951 0.5154741406440735 -0.2492163032293320 0.9270960092544556 -1.5105849504470825 0.9603565931320190 -0.2953196465969086 0.2135473340749741 -0.4848160743713379 -1.6312605142593384 0.7926785945892334 0.4758251905441284 1.2513583898544312 2.5253398418426514 0.0009902594611049 0.4554313421249390 2.1498260498046875 -0.0906982794404030 -0.9105623960494995 -1.2070494890213013 1.5116552114486694 -0.7130792737007141 1.9359287023544312 -0.0401610098779202 0.7390094399452209 0.3338210284709930 -0.3698149919509888 -1.3457908630371094 0.5101173520088196 -0.2125330269336700 -1.0709819793701172 -0.5981658697128296 -0.7434836030006409 -0.5997985601425171 -0.1615356355905533 0.6075459718704224 -1.6263388395309448 -0.6571747064590454 1.3387433290481567 0.2855307161808014 0.4325810372829437 -1.5761339664459229 -1.2222458124160767 -0.1947182267904282 -0.6217213869094849 0.6128779649734497 0.9802890419960022 1.2767202854156494 1.7139270305633545 0.0063571808859706 -1.5190539360046387 0.5805677771568298 0.6742991209030151 -0.1829555034637451 0.7068873047828674 -0.1144023984670639 -0.2096832692623138 -1.2247618436813354 -1.0311393737792969 0.6591667532920837 -1.0685861110687256 -0.1747948080301285 0.5338988900184631 -1.2721245288848877 0.9017606973648071 -0.9550464749336243 -1.0598492622375488 -0.1569877266883850 1.0105314254760742 -0.8443092703819275 0.7852047681808472 1.3937021493911743 -0.1285211592912674 1.7452976703643799 0.7133332490921021 -0.4579905867576599 0.0911030098795891 0.8323985338211060 -0.8387005329132080 -1.5352880954742432 1.1719318628311157 1.6009014844894409 -0.5441191792488098 -0.7921364307403564 -0.5572025775909424 0.6893104910850525 0.2543493807315826 -0.6620035767555237 -0.1965784281492233 0.5942838788032532 0.2493541091680527 -1.1060906648635864 -0.5935878753662109 0.1074423640966415 2.1641762256622314 -0.5128625035285950 -0.2161691486835480 0.4271088838577271 -0.3907393217086792 -0.9286411404609680 -0.5072796344757080 -0.4435041844844818 -1.0443043708801270 -0.8307246565818787 0.7377271056175232 0.6892800331115723 -1.5221064090728760 0.7966930270195007 0.2433413118124008 0.5620810985565186 -1.1750128269195557 0.2798820137977600 -1.2352429628372192 -0.2475119829177856 -1.1973923444747925 0.7790271043777466 -0.2077440470457077 -0.5322448611259460 0.2528466880321503 0.2872403264045715 -0.4993311166763306
-0.1419829279184341 0.3865455687046051 0.2028252482414246 -0.7002884149551392 1.2968645095825195 -0.0425900295376778 1.1131727695465088 0.4932571947574615 0.4146012365818024 -0.7347861528396606 0.0175140202045441 -0.0185826197266579 -0.3185370564460754 -0.4115812778472900 2.1418137550354004 0.0135900145396590 0.9049813151359558 -0.6020048856735229 0.9817723035812378 -0.4000197052955627 0.1036156490445137 -0.2299069762229919 -0.4405992329120636 -0.5875271558761597 -0.5129225254058838 -0.8803450465202332 1.3250641822814941 0.5491998791694641 1.4870676994323730 1.6433502435684204 -0.3344606757164001 -0.4948595166206360 -2.1802177429199219 0.3555576801300049 1.5496600866317749 -0.7044515013694763 0.9981641173362732 0.6749404668807983 -0.0967428088188171 0.1550033241510391 -0.3025429546833038 0.2216363698244095 -0.9007940292358398 -1.5804432630538940 0.2508850693702698 -0.0362073183059692 0.3518843352794647 -1.1245323419570923 -0.3944442868232727 -1.0253416299819946 -1.0706968307495117 -0.4704887270927429 1.0076978206634521 0.8308552503585815 -1.5551385879516602 -0.7455869913101196 -1.0732655525207520 -1.0056385993957520 -0.6150367259979248 0.7716413736343384 -0.6457073688507080 0.8163550496101379 0.6668397784233093 0.5283054709434509 -0.9648255109786987 0.6750169992446899 -1.0266630649566650 0.6891270875930786 -0.8655530214309692 0.4983222782611847 -0.4659940004348755 -0.8132995367050171 0.4209338426589966 0.3562977313995361 -1.6390742063522339 0.3213987052440643 0.2610218226909637 0.0462139062583447 0.2200136482715607 -0.1623675227165222 -1.7370636463165283 0.2344417273998260 -0.3345828950405121 0.7702949047088623 -0.9244230389595032 0.8640012741088867 -0.8096586465835571 -0.6579101085662842 0.5236295461654663 -0.7387836575508118 0.2752155661582947 -0.7940742373466492 0.2265549153089523 -0.4123503267765045 0.0002946055028588 -2.0197811126708984 -0.2741661965847015 0.3731059432029724 -0.6537026762962341 -1.0477823019027710 -0.7156439423561096 -0.0246670190244913 0.1268223822116852 0.0617668405175209 0.7447365522384644 0.4608258903026581 0.2700274586677551 0.9606822133064270 -0.8415630459785461 0.2396716922521591 0.0909625515341759 -0.4992820918560028 0.0090011889114976 0.5401483774185181 1.0529974699020386 0.6215115785598755 0.1923088729381561 -2.4882850646972656 -0.6100829243659973 0.3104584515094757 -0.7936540246009827 0.6696910858154297 0.3967467248439789 0.4358782768249512 -0.7842271924018860 1.3245073556900024 -0.0764216333627701 1.2571057081222534
-1.9377754926681519 0.7225723266601562 0.0334420651197433 0.7955866456031799 1.2128039598464966 1.5920374393463135 -0.2972772717475891 0.3813585042953491 -0.1361762881278992 -0.0339262075722218 0.6379411220550537 0.5089902281761169 0.3806128203868866 0.6843292713165283 1.0446501970291138 0.0359204113483429 -0.9576306343078613 -0.8299325108528137 -0.3721533119678497 -0.1736290305852890 0.1171562224626541 0.0276004783809185 -0.3924996256828308 0.0367411486804485 1.3756855726242065 -0.2483718544244766 0.2698135077953339 -0.9339010715484619 0.0490634590387344 -0.7157360315322876 0.5220467448234558 0.2374504059553146 -1.2971076965332031 1.4747072458267212 0.1409876346588135 -0.5162810087203979 0.3804138600826263 0.0111756138503551 -0.5849754810333252 -0.5348849892616272 -0.0684070661664009 0.3911951184272766 0.4234581887722015 -0.7796808481216431 -0.4873464703559875 0.3828064799308777 -1.2025443315505981 0.9338842630386353 -0.9596235752105713 0.2018175721168518 -0.1976610273122787 0.7222002744674683 -0.9635372161865234 -0.2210394144058228 -0.1310870945453644 -0.7851261496543884 0.0907875373959541 -0.0235919691622257 0.3292980790138245 0.3033212721347809 1.2248200178146362 -1.5312595367431641 -2.0774548053741455 -0.1838417053222656 1.1783647537231445 0.9705170989036560 0.3784899413585663 0.4211924970149994 0.8836008906364441 -0.3982035219669342 0.7408545613288879 2.3086824417114258 0.0758019313216209 -0.4102829992771149 1.4693037271499634 -0.1409305036067963 -0.1273934245109558 0.2309430986642838 -1.6583403348922729 -0.1220199018716812 -0.7724484205245972 -1.9381216764450073 -0.0827383100986481 -0.4257213473320007 0.4773659110069275 -0.4681816399097443 0.0220207571983337 -1.0572321414947510 -2.1532173156738281 -0.2506883740425110 -1.3798630237579346 -0.3333354294300079 0.7066655158996582 0.1633264571428299 1.5622171163558960 1.3634208440780640 0.4368124008178711 -0.7944758534431458 -2.8829338550567627 0.1882478892803192 -0.5154172778129578 -0.5417636036872864 -1.1712751388549805 -0.7233380079269409 -0.8836427927017212 -0.3027652204036713 -0.3806455433368683 -0.8650255799293518 0.3789104521274567 -0.8355204463005066 -1.5402363538742065 0.2832537889480591 -0.6984319090843201 -0.7781888842582703 1.4555913209915161 0.0108233904466033 0.2585273087024689 1.5587369203567505 0.4738377332687378 -0.3580519556999207 -0.6619158983230591 0.2602569758892059 -0.3337609171867371 1.6109281778335571 -0.8494201302528381 1.0213782787322998 0.4878328442573547 0.6191672682762146
0.0094921868294477 0.6717063188552856 0.6881796121597290 -0.4026842117309570 -0.6248447299003601 -0.2279484868049622 0.1462840735912323 -0.4157836735248566 -1.3053758144378662 0.3252587914466858 0.8434205055236816 0.3381480574607849 -0.8256301879882812 -1.0467674732208252 -0.4521923065185547 0.1349639743566513 1.2027468681335449 1.9283266067504883 -0.3616244494915009 0.7296138405799866 -1.2877336740493774 -1.2004855871200562 -1.5968012809753418 0.0168326534330845 0.4188122749328613 0.6101352572441101 -0.1699041724205017 0.4200467765331268 -1.2198817729949951 -1.2043436765670776 0.4145730137825012 0.0294870305806398 -0.9651593565940857 1.2421170473098755 0.6390118598937988 -2.1553175449371338 0.4945138096809387 0.2376629561185837 1.0245171785354614 0.5428985357284546 -0.7992777824401855 1.1097898483276367 -1.2873400449752808 0.5577067136764526 0.3609345555305481 -1.1810015439987183 1.8992360830307007 0.5104812979698181 0.1439652293920517 0.4492277801036835 1.6084467172622681 -1.3152264356613159 0.8481630682945251 -0.9870170354843140 -0.1692921519279480 0.1488602757453918 0.2417354881763458 1.5797137022018433 -0.2539211213588715 -0.7669056653976440 0.3798324465751648 0.0882355943322182 2.1167924404144287 -1.1020772457122803 0.1944969594478607 0.7523009181022644 0.7440978884696960 -1.3729571104049683 0.6523232460021973 0.0126064866781235 1.4343545436859131 3.0711843967437744 -0.3426683247089386 1.9364900588989258 0.5665436983108521 -0.3637346327304840 -1.2164587974548340 2.1076765060424805 -0.2850705981254578 1.3643409013748169 0.4025050997734070 1.0883442163467407 -2.8557617664337158 0.3864102661609650 -2.7792122364044189 0.7727414965629578 0.7170192599296570 1.1115590333938599 -1.0398489236831665 -0.9810909628868103 -0.6463635563850403 0.1216062456369400 0.5640010237693787 1.0360957384109497 0.3024030625820160 -1.1836891174316406 -0.7676187753677368 -0.3961255252361298 -1.2046765089035034 1.2162867784500122 -1.5061222314834595 -0.0808031558990479 0.5183942914009094 -0.3101800084114075 -1.4939799308776855 -0.5990045666694641 1.1395916938781738 0.8476197719573975 1.0127755403518677 0.9318799376487732 -1.2508735656738281 0.1577425450086594 -0.6775275468826294 -0.8504146337509155 1.5702127218246460 -0.8730458021163940 0.3217408657073975 -0.8484895229339600 -0.1568030565977097 0.0270548779517412 -0.3024935722351074 0.8033983111381531 -1.4695187807083130 -0.1889342367649078 1.7482329607009888 0.7578207254409790 0.5927224159240723 -0.8535416722297668
-1.2766786813735962 -0.3704791069030762 0.8434070348739624 -0.1332904398441315 0.5196040868759155 1.6843395233154297 0.7954986691474915 -0.2218706756830215 0.3016009330749512 -0.0416506007313728 0.1501055806875229 1.4317495822906494 1.1479510068893433 -0.7183939814567566 -0.1593405902385712 -1.2562143802642822 -1.8100091218948364 0.4360609054565430 -1.0946123600006104 -0.3630945980548859 -0.2012631446123123 2.1467862129211426 0.2022951096296310 0.4345120787620544 -0.1406346261501312 -1.2137169837951660 1.4239113330841064 -0.5078845024108887 -1.0333771705627441 0.5269116163253784 -0.1106550693511963 1.2915668487548828 -0.0774462148547173 0.5314069986343384 -0.5873706936836243 -0.4785032272338867 -0.7374451160430908 -1.1193042993545532 0.0692957192659378 -1.5305287837982178 0.4406094849109650 0.9610744118690491 -1.0911715030670166 -0.6862813234329224 0.6032756567001343 -0.5392727851867676 -0.9391123056411743 -0.4996969997882843 -0.5518777370452881 -0.8591901659965515 0.8237818479537964 -0.4679892659187317 -0.4320811033248901 1.4769995212554932 -0.0516825467348099 0.6192464828491211 0.5321333408355713 -1.6211993694305420 0.2178206741809845 -1.0211843252182007 1.0177408456802368 0.2623570263385773 -0.0157507043331861 -0.6469773650169373 -0.9561269283294678 -0.9089078307151794 0.8818285465240479 -0.6266273260116577 -1.2694932222366333 -0.4968411326408386 -0.3121682703495026 -1.7498052120208740 -0.3380873203277588 -0.6305274367332458 1.7744122743606567 -0.1010345816612244 -0.4413124620914459 -1.0626268386840820 -0.4647223949432373 1.4900251626968384 -0.6986289620399475 -0.7669669985771179 0.4822734296321869 0.1438300013542175 -1.4263931512832642 -0.3667139112949371 -0.4608152508735657 0.8183746933937073 -1.4870343208312988 -0.8601672649383545 1.4802089929580688 -0.0113819185644388 0.9371312260627747 -0.5038103461265564 -0.7918245792388916 -1.0429733991622925 0.7736076712608337 -3.1103565692901611 1.2134397029876709 0.6902879476547241 0.9944479465484619 -0.8556144237518311 -0.2913729250431061 -1.1810694932937622 0.0869136005640030 1.0169082880020142 -0.3434815704822540 1.9578984975814819 0.0545025728642941 -1.3042093515396118 -0.9756354689598083 0.9445049762725830 0.0620996728539467 -1.3429598808288574 -0.4384403228759766 0.7471431493759155 -1.5859209299087524 -0.1747718751430511 1.4105561971664429 0.7542461156845093 0.0520526692271233 0.7397964596748352 -1.2859011888504028 0.3225252926349640 -0.5019181966781616 -1.6151883602142334 1.0318207740783691 -0.8978657126426697
0.4419012665748596 -1.2267446517944336 0.9500247240066528 0.6923407316207886 -0.2787836492061615 -0.7625315785408020 0.6210359334945679 -1.8113290071487427 0.7367646098136902 0.9178278446197510 -0.0100294472649693 0.6607267856597900 -0.0551379919052124 -1.4453103542327881 -0.1466860026121140 -0.7741266489028931 -0.2899726331233978 -0.3416866064071655 -1.0426529645919800 -0.3502835631370544 0.5069774389266968 -1.1066211462020874 1.0249389410018921 -1.1549316644668579 1.5821239948272705 0.4651989936828613 0.1439721733331680 0.9827892780303955 -0.0817584097385406 -0.8131493926048279 -0.6550963521003723 0.9867815971374512 0.7438291311264038 0.7072371244430542 2.1822752952575684 0.0691277161240578 -0.0429289862513542 -0.4392494559288025 0.7679530978202820 -1.2667213678359985 0.6328596472740173 -0.9997735023498535 1.4391455650329590 -0.1080415993928909 -0.3114380538463593 -1.0066226720809937 1.1463742256164551 -0.7245067358016968 -0.3319898545742035 -0.3602205216884613 0.5638824701309204 -2.3185913562774658 -0.5671662092208862 0.8681504130363464 -0.0726963281631470 -0.1480884552001953 -0.4910935759544373 -0.1862001568078995 0.6831521987915039 -0.9868987798690796 0.1375359594821930 -0.0284379161894321 0.5872806906700134 0.7723093628883362 0.5850843191146851 1.6268982887268066 -0.6341043114662170 -0.3188252747058868 1.0688185691833496 0.2874242961406708 -1.1119890213012695 -0.9653795361518860 0.4120533168315887 1.2500199079513550 -1.5677802562713623 -0.3969680666923523 0.5033061504364014 -1.1778863668441772 0.3666118681430817 0.2070923298597336 0.6095898747444153 -1.1546576023101807 0.7029632329940796 -1.1511800289154053 0.2128542810678482 1.3872985839843750 0.5167801976203918 -0.8745796084403992 1.3671641349792480 0.5733655095100403 -0.6247994899749756 -1.2858244180679321 0.7199320197105408 0.6314052343368530 0.5425614118576050 1.2029579877853394 -0.7511261701583862 -0.2561710178852081 -0.9422019124031067 0.8285095095634460 0.3096493184566498 1.3699954748153687 0.1765442639589310 0.3890701532363892 -0.7279571890830994 0.8281021714210510 -0.3156112134456635 1.7379724979400635 -0.6564658284187317 -1.8240547180175781 -0.3193369805812836 -0.0134116727858782 -0.7528403401374817 -0.3905063271522522 -1.0928143262863159 2.2601511478424072 -1.9844504594802856 -0.8986627459526062 0.3816259801387787 -0.9499978423118591 -0.8672932386398315 1.3177037239074707 -0.6967792510986328 0.0772570893168449 0.0535112321376801 -1.4361065626144409 0.3086331486701965 -0.7977968454360962
2.3925845623016357 -0.0834328085184097 0.7007367014884949 -1.1797243356704712 -0.3248020410537720 1.5601857900619507 -0.1242512241005898 -1.5247920751571655 1.4084440469741821 -0.6775190234184265 0.3856351673603058 -1.1691329479217529 -0.2002910375595093 0.7163831591606140 -0.3078129589557648 0.4946837127208710 1.6841435432434082 1.1471928358078003 -0.1393429636955261 0.3319647610187531 0.8886045217514038 0.8327363729476929 0.8461218476295471 -0.0813102945685387 -0.1415471285581589 1.7417399883270264 -0.1175682246685028 0.5426316261291504 0.2609874010086060 -1.2640873193740845 -0.4236250817775726 -0.3391717076301575 -0.4277944266796112 -0.4032095074653625 -0.4640569984912872 -1.0923717021942139 -1.4234671592712402 -0.3311346769332886 -1.5018041133880615 0.1219637542963028 -0.0040931547991931 -0.1787080019712448 1.0265737771987915 -0.4976690709590912 -1.1667444705963135 -1.1312885284423828 1.1005728244781494 0.4824311435222626 -0.8589223027229309 1.6403787136077881 -0.9287286996841431 0.2099740058183670 0.2590597271919250 1.1361049413681030 -0.0987368449568748 -0.8001552224159241 0.0434401072561741 -0.5155181288719177 -1.0844283103942871 0.3962385356426239 0.7507656812667847 1.6008222103118896 1.1127521991729736 -1.8483263254165649 0.2846123278141022 0.5947294235229492 -0.4590857028961182 1.9787256717681885 0.8157129883766174 -0.1188010349869728 0.7711886167526245 -0.4724908471107483 -0.9903457164764404 0.4494285285472870 2.2650883197784424 0.6936970353126526 -2.1229045391082764 -1.6009950637817383 -1.3160394430160522 0.1555403023958206 0.8432065248489380 1.7948812246322632 -0.8000738024711609 0.8443890810012817 -0.6266783475875854 -2.5904905796051025 0.5596377849578857 1.1344312429428101 0.5950015187263489 -0.8451672196388245 0.3470705151557922 -0.0659340098500252 0.2707227766513824 -0.4181061983108521 -0.5021481513977051 0.0725012719631195 -0.7831031084060669 -0.4659478068351746 0.8733940124511719 1.2348533868789673 0.8932831287384033 0.4880240261554718 -0.5468730330467224 -1.0202357769012451 -0.9999637603759766 0.2372159659862518 0.4007175564765930 -0.2277015447616577 -0.5782323479652405 0.3599571883678436 0.1436825245618820 -0.8221946954727173 0.5237562656402588 -0.8223885297775269 1.4399546384811401 -0.6148908138275146 1.7932133674621582 1.0857219696044922 -1.9353111982345581 0.5536785721778870 1.0031518936157227 -0.6318270564079285 0.8109878301620483 0.8665301203727722 -0.9321818351745605 0.7873788475990295 -1.2505809068679810 -1.1633418798446655
-2.9146401882171631 -0.2942898869514465 0.2849703729152679 0.1378821283578873 -1.7111810445785522 0.0959196239709854 -1.1479511260986328 -0.3282297551631927 1.5707100629806519 -0.5526274442672729 -0.9400924444198608 -0.4472987055778503 0.5856695771217346 -0.5535231828689575 -0.3601658046245575 1.5030400753021240 0.0263657439500093 0.6072785258293152 -2.1909623146057129 -0.4020108580589294 -1.4602476358413696 -1.5554229021072388 -0.7936378717422485 0.6077916622161865 0.3648075461387634 1.2046595811843872 0.9758164882659912 0.1251930743455887 1.3507642745971680 -0.9391389489173889 0.0475613847374916 0.7297235727310181 1.2334110736846924 -0.0501233227550983 -0.8453925251960754 -1.1461943387985229 1.1025356054306030 0.3766506314277649 -0.0926362797617912 1.0756607055664062 0.1185713186860085 0.1808020472526550 -0.4428730309009552 -0.2459682375192642 -1.6991813182830811 0.0268695112317801 0.6322259306907654 -0.0286045540124178 1.1344867944717407 -0.9922974109649658 -0.3543898165225983 0.3568531870841980 0.3927494883537292 0.5623186826705933 -0.3939284384250641 -0.3515032231807709 0.8435094356536865 0.4035248160362244 1.5648939609527588 -0.2100043594837189 1.6874029636383057 0.7467008829116821 0.0177357438951731 -0.0280026104301214 0.1217883080244064 -0.0994706377387047 0.2957823574542999 -0.4315731227397919 1.7429368495941162 -1.0807486772537231 -0.4941757023334503 -1.0079759359359741 1.8448085784912109 -2.3954896926879883 0.6898955106735229 0.0613693557679653 -0.8142785429954529 0.9300813674926758 1.2784768342971802 -1.1586579084396362 -1.3109802007675171 -0.9224619865417480 -0.1016081422567368 2.2800467014312744 0.0453949533402920 -0.3207606077194214 0.1357748210430145 1.2052273750305176 0.4261316657066345 -1.2062240839004517 -1.2286349534988403 -0.2299385070800781 -0.2064579129219055 -0.5842950940132141 0.6442422270774841 -0.2060318887233734 -0.3546578586101532 -0.3922160267829895 -0.8979240655899048 0.2819538414478302 1.3402284383773804 -0.7961291074752808 -0.2803691923618317 0.6723338365554810 0.6167168021202087 -1.6943893432617188 0.4282157719135284 0.1423340290784836 -0.5895819067955017 -1.4072511196136475 0.7364863753318787 0.7283172011375427 -0.5490146875381470 -0.6132581830024719 0.1693738847970963 2.1334044933319092 -0.1778914928436279 -0.1244277358055115 -0.9597576856613159 0.9773578643798828 -0.9198028445243835 -1.1588733196258545 -0.4124221205711365 -0.6778966188430786 -0.2719188928604126 -0.3916339576244354 1.0491102933883667 -1.2319401502609253
-0.7715070247650146 0.9605898857116699 0.1648816615343094 0.2650779187679291 -0.7729822993278503 0.6464201807975769 1.4998990297317505 -1.0112042427062988 -0.9775999188423157 0.2382900267839432 0.9437234401702881 0.3000222146511078 -1.1212257146835327 1.3953565359115601 0.8064947724342346 -0.1212846189737320 -2.9422287940979004 -0.2148848176002502 -1.7577635049819946 -1.4465237855911255 -0.2429085373878479 -0.3140424191951752 2.1388168334960938 0.1647278964519501 0.1874589920043945 0.7294600009918213 0.6196688413619995 -1.0130355358123779 -1.2537444829940796 1.0532690286636353 0.2272582352161407 -1.0955771207809448 0.4840204417705536 0.3853320181369781 0.7366722226142883 -1.2326411008834839 -0.1964367777109146 -0.3362142145633698 -0.4106392860412598 -0.9059441685676575 -0.3437131047248840 0.2206989079713821 -0.8296261429786682 -0.7187680006027222 -0.6584373712539673 -0.6201572418212891 -1.0353109836578369 -0.6347637772560120 0.1861581951379776 -0.1680039912462234 -0.3799546062946320 0.0420767515897751 0.0888770222663879 -1.9319523572921753 0.6097764968872070 0.2516080737113953 -1.1287499666213989 -0.7276142835617065 -0.0067105786874890 0.2085913568735123 -1.0175907611846924 -0.9816851019859314 0.6614889502525330 -0.1140189021825790 -2.1062214374542236 -0.4704055488109589 1.0849040746688843 0.6829110980033875 -0.4359000027179718 -0.1200845465064049 0.8260711431503296 -0.0037842998281121 -2.2072181701660156 -0.1154784858226776 -1.7049379348754883 -0.5277328491210938 -0.5291177630424500 1.6913249492645264 1.8633612394332886 -2.3071429729461670 0.4543661475181580 -0.9815784692764282 -1.6156562566757202 -0.9535821676254272 0.4998677074909210 0.0359373316168785 1.7113084793090820 0.6256819963455200 -0.2984193861484528 -0.3663969337940216 1.5234463214874268 -0.2021111994981766 -0.6619039177894592 -0.1925099343061447 0.6283953189849854 1.5280032157897949 -1.0819698572158813 0.1881713569164276 -0.3507618606090546 0.0681511238217354 1.1250615119934082 -0.7334914803504944 -0.0472400188446045 -1.1610143184661865 0.0864228010177612 2.1856904029846191 -0.0477529726922512 -1.4284037351608276 -0.1171163469552994 0.0684622153639793 -1.4495621919631958 1.1915787458419800 -0.1357623636722565 -0.1768260449171066 -0.9827161431312561 -0.0646036937832832 0.2103015184402466 1.3682613372802734 -0.9443283081054688 -0.9470303058624268 0.7711720466613770 0.8231890797615051 -1.5732793807983398 0.7923327088356018 1.1300622224807739 -0.8227044343948364 0.0212543290108442 -0.6431413292884827
1.9654697179794312 0.3298938274383545 -2.3679289817810059 0.4803497791290283 1.2977882623672485 -0.5466866493225098 -0.9642611145973206 -0.2433097511529922 2.0920264720916748 -0.7507233619689941 -0.7139596343040466 0.1764687150716782 0.0600317865610123 0.8041910529136658 -0.6639250516891479 0.0177487228065729 -0.2139649987220764 0.4777404367923737 -0.4388822019100189 -0.6671170592308044 -0.3116259872913361 0.5708354115486145 0.5420392751693726 0.7130541205406189 0.1061796620488167 1.4701504707336426 1.3818552494049072 0.6418301463127136 -0.0092929024249315 1.7212704420089722 -2.0982534885406494 -0.5113654732704163 -0.8361307978630066 0.0432669743895531 0.0298599191009998 0.2482728809118271 -0.2984872460365295 0.5604906082153320 0.9381403923034668 0.7391445040702820 1.7974505424499512 0.8623026609420776 2.1255011558532715 -0.0628871321678162 0.6674572825431824 0.9125781059265137 0.9005001187324524 0.0524317175149918 2.3327627182006836 0.8125151395797729 1.2126703262329102 -0.0960675179958344 -1.3695458173751831 1.7992405891418457 -0.0060512651689351 1.9179269075393677 0.7408571839332581 1.0784219503402710 -0.0323806554079056 1.0950262546539307 -0.7886173725128174 0.0036481074057519 -0.8208681941032410 2.1943089962005615 0.0153238670900464 -1.0649776458740234 -0.2248880416154861 0.2668651640415192 -0.1533990949392319 1.8624558448791504 -0.2028531730175018 0.0952709913253784 0.5229029655456543 -0.9998073577880859 0.2606595754623413 1.0416781902313232 -0.0947821959853172 -0.4747785329818726 -0.1265653967857361 1.1540600061416626 -0.6432316899299622 -1.0498182773590088 -0.2957367599010468 -0.3089859485626221 -0.2263972163200378 -1.9812815189361572 -0.1417956650257111 0.9323512315750122 -1.5037707090377808 0.3952236771583557 -1.1812435388565063 -0.1318070441484451 -0.9030585289001465 -1.0008732080459595 -1.0256981849670410 -0.5447385907173157 0.2371502816677094 -2.1109509468078613 -0.9186400175094604 0.6145976185798645 -0.5780715346336365 0.3008946478366852 -0.6498593091964722 -0.2211190760135651 -0.2418351769447327 1.1522012948989868 -0.7299790382385254 0.1003150120377541 0.7103185057640076 -0.6564409136772156 0.2147189974784851 -0.9744092226028442 0.1501293480396271 0.5354251265525818 0.2318858206272125 -0.8178112506866455 0.0485168173909187 1.5113985538482666 -0.2438932061195374 2.1151547431945801 -0.4515994787216187 -0.7278223633766174 -0.8536802530288696 -0.2606414854526520 -0.0185803100466728 -0.0193286333233118 -2.9317758083343506 0.7476621866226196
0.1734373867511749 2.0946438312530518 -0.9958778023719788 0.9347475767135620 -0.7102573513984680 -0.1075986996293068 1.3151319026947021 0.0202715378254652 -0.3227535486221313 0.0649456083774567 0.9022708535194397 0.5212952494621277 -0.9309712648391724 0.4013168811798096 0.4548367261886597 -1.3479378223419189 2.4333064556121826 -0.9716849327087402 -0.4742896556854248 1.1411062479019165 0.4749314785003662 -0.0868150591850281 -1.9495937824249268 1.2035174369812012 0.6037802100181580 -1.0559464693069458 0.0431844852864742 -0.7203370928764343 0.0726561173796654 1.1528502702713013 -1.8275144100189209 0.5420941114425659 1.6295011043548584 -1.0236866474151611 0.2001915872097015 0.8819347023963928 0.3096213936805725 -0.2754878699779510 0.4485953152179718 -0.7739343047142029 0.1104629114270210 -0.4090405702590942 0.9674619436264038 0.4209054112434387 0.3601838946342468 0.6101782321929932 -0.5576268434524536 1.1148732900619507 -0.4384916424751282 -0.0599774904549122 -0.5750148892402649 -2.1056456565856934 0.0149558521807194 -0.3280612230300903 1.2562328577041626 1.4717177152633667 1.2036974430084229 2.0976107120513916 0.4849604070186615 1.2005352973937988 0.4064114689826965 -1.0204038619995117 -0.2816244959831238 -0.4276241362094879 0.1804720908403397 0.0893047824501991 0.8933188319206238 1.2934111356735229 0.4925912618637085 -0.3665820658206940 -0.3880720734596252 0.8224427700042725 -0.8388619422912598 -1.8775038719177246 0.3081027865409851 1.0613586902618408 -0.0186508353799582 2.5288901329040527 -0.4685574173927307 -2.5757555961608887 1.9944670200347900 -1.2582114934921265 -1.3764525651931763 -0.5831706523895264 -0.8651990294456482 -0.0200337022542953 0.2620911002159119 0.0435234270989895 1.0812823772430420 -1.1033455133438110 0.9402146339416504 1.1971274614334106 1.5632203817367554 0.1683212071657181 -0.1037224829196930 0.8366281390190125 -0.7385025620460510 0.3606891930103302 -0.0697304382920265 0.1196895390748978 -1.9519101381301880 0.0531097836792469 0.4893445968627930 -0.6855604648590088 1.0022007226943970 -0.4729658365249634 0.9499346017837524 -0.6967610120773315 -0.2763599455356598 1.1788729429244995 0.5660760402679443 0.9236187934875488 0.3632273972034454 0.4170742928981781 -2.3043296337127686 0.5740563273429871 -0.1972809284925461 0.2316782623529434 -1.5533828735351562 -0.0280973445624113 -0.9984592795372009 0.2942330241203308 0.1133677437901497 -0.2350657582283020 -0.0818055197596550 1.4804843664169312 -0.5360585451126099 0.9525501728057861
-0.4159439206123352 1.9426326751708984 0.2911339402198792 0.3823089599609375 -1.4586625099182129 0.5659852623939514 -0.4880654513835907 -1.5517314672470093 -0.1936855912208557 -0.3204515278339386 0.2991223037242889 -0.9036337137222290 -0.1153847575187683 -0.4398226737976074 -0.0645043849945068 -1.5233167409896851 0.3482649028301239 -1.9891742467880249 -0.6837998032569885 -0.4851398169994354 0.5975521206855774 1.0591681003570557 0.3455735743045807 -2.2887368202209473 0.1070054993033409 1.4365063905715942 -0.0663311108946800 0.1819356530904770 -1.1048965454101562 0.1055130138993263 -0.8622886538505554 -0.8046197295188904 -0.7875399589538574 0.1365063935518265 -0.0655644536018372 0.6811307072639465 1.6506801843643188 -0.6796693801879883 -0.4028225243091583 1.2361761331558228 -0.3189538717269897 2.0040223598480225 0.4517690241336823 -0.8118426203727722 -0.3168519437313080 0.6642183661460876 -0.6277511715888977 0.2203950136899948 -0.7312794923782349 0.4560407400131226 -0.6457798480987549 -1.9615457057952881 0.6847500801086426 0.5782032012939453 0.5472291111946106 0.9689276218414307 -1.7376677989959717 -1.2123237848281860 -0.4895042479038239 -1.1663531064987183 -1.2302111387252808 1.3350424766540527 0.4427020549774170 -0.5385622382164001 0.2917080819606781 -0.1452160179615021 -0.7305225133895874 -1.1918641328811646 0.5648387670516968 -1.6404929161071777 -1.0527924299240112 -0.3686080276966095 -1.6795538663864136 -1.9166743755340576 0.0857998207211494 -0.3803222477436066 0.5498319864273071 -1.1611881256103516 0.6744729876518250 0.6483952403068542 0.7693136334419250 -1.8354356288909912 -0.8034453392028809 0.1513312011957169 0.8554710149765015 1.2131375074386597 0.0416791923344135 -0.0076314285397530 0.9049224853515625 -0.0320023559033871 0.9595181941986084 -1.2057001590728760 0.0143866725265980 1.1330820322036743 1.9819095134735107 0.4156435728073120 0.1221553608775139 -0.6868038177490234 -1.5536737442016602 -0.9412028789520264 0.5699049830436707 1.7540646791458130 0.3745502829551697 -1.0518718957901001 -1.0245966911315918 -0.7350384593009949 -0.3406457304954529 0.8743081092834473 1.1287177801132202 -1.3534967899322510 -0.0984845533967018 0.0873846262693405 1.2595590353012085 0.9040463566780090 0.5597007870674133 -0.2419627010822296 -1.3438295125961304 0.4581021368503571 0.7143675088882446 0.6007434725761414 0.5038202404975891 -0.3783958554267883 -2.9185400009155273 1.5434424877166748 -0.9558628201484680 -0.5195686221122742 -0.3234488964080811 -1.6465778350830078
-1.0164562463760376 -1.2790563106536865 -0.1374580711126328 0.5002452135086060 -1.2451395988464355 0.5819046497344971 0.2524104714393616 1.3787144422531128 -0.9237071275711060 -0.4343813061714172 -1.2489477396011353 0.5744851827621460 -0.9824881553649902 1.0663256645202637 1.9900771379470825 0.1173912212252617 0.2208433002233505 -1.9050995111465454 0.9092775583267212 -0.5998453497886658 0.2967107295989990 1.3673563003540039 0.4413866996765137 -0.2289662510156631 1.1066162586212158 1.1469637155532837 1.4107115268707275 -0.0702618882060051 0.4527650177478790 1.8101887702941895 1.2274527549743652 -1.6082304716110229 0.5649817585945129 0.7768861651420593 -1.0171940326690674 0.7832892537117004 0.7830832004547119 0.4833354353904724 -0.2005212306976318 -1.5315352678298950 -0.1998868137598038 1.5715502500534058 -0.7320997714996338 1.2769056558609009 -2.0402991771697998 -1.4208794832229614 -0.4546599686145782 -0.3596993982791901 -0.6005840897560120 -0.7717339396476746 0.2239175885915756 -0.8747758269309998 -0.3314189016819000 1.0915862321853638 1.1497238874435425 0.2757986485958099 0.7434104084968567 0.4525170028209686 0.0833346396684647 -0.8148114085197449 2.1725304126739502 1.2211720943450928 0.1589502543210983 -0.9762699604034424 0.0654994398355484 0.5129582881927490 -0.9930534362792969 -1.0714899301528931 -0.4000358581542969 -0.4538368284702301 -2.1920435428619385 0.4244158864021301 0.6245792508125305 1.1659160852432251 -0.1638595908880234 -0.0040482385084033 -0.1970989704132080 -0.5949507355690002 0.3644036650657654 0.4503804445266724 0.5215797424316406 0.0398577898740768 -1.0437157154083252 -1.0487313270568848 -0.6729645133018494 -0.8564268350601196 1.1525081396102905 -0.1116749793291092 0.8056902885437012 1.9799387454986572 -0.8678123950958252 -1.1979604959487915 -0.3835949301719666 1.1721242666244507 -0.4145278036594391 -0.2489524334669113 0.0850570350885391 -2.7318155765533447 -0.9433409571647644 -0.7390966415405273 0.5155769586563110 -0.8006861209869385 -0.6833617091178894 -0.8807922005653381 1.2824203968048096 0.2931553423404694 1.6022161245346069 -1.3583941459655762 0.9577354788780212 0.2264695465564728 -1.8595526218414307 1.6898030042648315 1.0637083053588867 1.9534422159194946 0.6854679584503174 -0.0309067815542221 0.8343416452407837 -0.5899714827537537 -0.4593577384948730 -0.1140696033835411 -1.0894041061401367 0.1713950484991074 0.0986070632934570 -0.3882226943969727 0.6025030016899109 -0.3477804660797119 1.0107797384262085 0.0302285850048065
-0.7086374759674072 -1.2193343639373779 0.1329597681760788 0.5737345218658447 1.6746389865875244 -1.3506649732589722 0.3719322085380554 -0.1096082851290703 0.8045634627342224 2.1086401939392090 2.1006736755371094 0.2534523010253906 0.0083228657022119 -1.1584028005599976 2.4990763664245605 0.3374744951725006 -0.8464068770408630 2.4057624340057373 -0.2957797348499298 -0.2203164696693420 2.5385291576385498 -0.8288288712501526 0.0153450630605221 0.6715759634971619 -0.1382645368576050 -0.9715747237205505 -0.3592349886894226 0.3886353969573975 -1.1975296735763550 1.4798401594161987 0.4689725339412689 -0.5267924070358276 0.8794775605201721 1.8564828634262085 0.5968945026397705 0.7406579852104187 2.2534809112548828 -0.7982944250106812 -0.0341045297682285 -0.2999831736087799 1.5477553606033325 0.6680781245231628 1.1154092550277710 -0.6928933858871460 -0.5579669475555420 0.0197928473353386 -0.1127396821975708 0.4632070660591125 0.4006632864475250 0.2798354327678680 0.9594976902008057 0.7874451279640198 0.6029425859451294 -0.4880033135414124 0.6610321402549744 1.2082508802413940 -0.0008538925903849 1.6277679204940796 0.9353036284446716 1.2364929914474487 1.0870628356933594 -2.0352997779846191 -0.9743477106094360 1.3444896936416626 1.0701687335968018 0.6639498472213745 -0.1824870705604553 2.0991468429565430 1.1249306201934814 -0.7474820017814636 0.6375913023948669 -1.1137785911560059 -0.5350676178932190 1.1480543613433838 0.4514924585819244 0.5593246221542358 -1.8536068201065063 -0.1991315335035324 1.0853108167648315 1.2653380632400513 -0.7095294594764709 0.3272435665130615 -0.1063973009586334 0.4869015514850616 -1.0930465459823608 1.0540243387222290 1.4104614257812500 0.4259548485279083 0.5626897215843201 -0.4950798451900482 -0.2192170470952988 0.2637066543102264 0.3383786976337433 -1.4276976585388184 -0.6150164008140564 -1.0894110202789307 -1.4772452116012573 -1.9852976799011230 -0.5577250123023987 0.6201515197753906 -0.2039850950241089 -0.1671767085790634 0.8375949263572693 -0.5569270253181458 -1.0199397802352905 0.1482348740100861 0.8169101476669312 -0.6961697340011597 0.6741622090339661 1.1774013042449951 -1.4999656677246094 -0.7871326208114624 0.6178815960884094 -0.1209953278303146 -1.1673510074615479 0.9070237874984741 1.0551786422729492 0.2724145948886871 -0.2102925330400467 -1.9585520029067993 2.1016373634338379 0.4293443560600281 0.9959098696708679 0.5702159404754639 -1.2010030746459961 -0.0446153543889523 0.2918598055839539 0.7023840546607971
-0.9194658398628235 0.7720574140548706 1.4643776416778564 -0.9395180344581604 -0.2995979785919189 2.0003566741943359 0.9707822203636169 0.9534872174263000 -1.4876879453659058 -0.3398307859897614 -0.1293643265962601 0.1770997196435928 -0.7439809441566467 1.6161882877349854 -0.4028221368789673 1.9807451963424683 0.9724768996238708 -1.2910223007202148 0.9029917716979980 0.5966061353683472 0.3544385731220245 -0.2133050858974457 0.3666769266128540 -1.0231257677078247 0.7774925827980042 -2.0972144603729248 -0.1754232347011566 1.0398522615432739 -0.5952731370925903 0.4303522408008575 -0.7489419579505920 0.9267257452011108 -0.3036006391048431 1.5532917976379395 -1.7350164651870728 -0.3853262364864349 1.5099532604217529 1.0553932189941406 -1.4363355636596680 -0.2538074254989624 0.6064950823783875 -1.8542293310165405 -0.0661128014326096 0.6810328960418701 1.6978816986083984 -0.0512095801532269 -1.1603440046310425 -0.2986856997013092 -0.1928214877843857 0.3311616778373718 -0.1630215793848038 0.1390653252601624 -0.7888535857200623 0.0109180640429258 0.0332301557064056 -1.4756240844726562 1.1244657039642334 -0.1251515299081802 1.2670778036117554 -1.3495978116989136 0.9511058926582336 0.2616830170154572 0.7318000793457031 -0.4826498627662659 0.2968842983245850 0.8795350193977356 0.5225179791450500 1.7979103326797485 0.4453620612621307 0.8186962008476257 -0.2677302062511444 -0.3084736764431000 -2.4452505111694336 0.9158284664154053 -0.8951721191406250 -0.4024432301521301 0.3080519735813141 0.5159622430801392 -0.5047554373741150 -1.1072068214416504 -1.0427075624465942 0.4944026768207550 -0.2292834222316742 -0.9818971157073975 0.5170422196388245 1.0366560220718384 1.1158674955368042 1.4854328632354736 -0.3598402738571167 0.9205782413482666 -0.7230139374732971 -0.8494912385940552 -0.7225941419601440 -0.5344460010528564 -0.0300719048827887 0.4243086874485016 -0.8401159048080444 0.5696915984153748 0.8862430453300476 0.1355668008327484 0.4724339544773102 0.7138695716857910 -0.3434317708015442 0.0033011960331351 0.3880698978900909 1.2777462005615234 -1.1537793874740601 0.1931851506233215 2.1611709594726562 -0.2832812964916229 -1.0124040842056274 -0.0484764017164707 0.0954288244247437 0.0153893930837512 0.0677303373813629 -0.5467485189437866 -0.0018518579890952 -1.1287900209426880 0.1416330188512802 -0.0002637206926011 0.5849226117134094 -1.2666412591934204 -2.0844836235046387 0.6210327148437500 0.4086318016052246 0.3797928094863892 -0.2071919292211533 0.6050376892089844
-1.5874807834625244 0.6671820282936096 0.6427414417266846 -0.8577769994735718 -0.0831961110234261 0.2106762677431107 -0.4018939137458801 0.7897468805313110 0.5912762284278870 -0.3245627284049988 1.2762267589569092 -1.0380506515502930 1.3274435997009277 0.7482262849807739 -0.4162382483482361 -1.0317137241363525 -0.7566085457801819 -1.4315299987792969 1.6753658056259155 0.6082083582878113 -0.1596048027276993 -0.0793739929795265 1.9931000471115112 -0.6726036667823792 -0.2302293926477432 0.2134684175252914 0.1386662423610687 0.2187134325504303 -0.0813735276460648 0.3602994680404663 -1.7285350561141968 0.1371661722660065 1.5493232011795044 0.1987410634756088 0.5579226613044739 -0.4248762726783752 0.1202968209981918 0.0944312885403633 -0.1673368811607361 0.1883888989686966 1.4084242582321167 0.4860275089740753 -0.3949731290340424 -0.3729291558265686 0.5497748255729675 0.3599034845829010 -1.5344897508621216 0.3948646187782288 -3.0175397396087646 0.4153974950313568 -0.5468780398368835 -1.4794536828994751 1.1926347017288208 1.1226325035095215 -0.0079401573166251 1.0963840484619141 -1.1136959791183472 -0.6542894840240479 -0.9411609172821045 -1.7052673101425171 1.4090559482574463 -0.0582203380763531 0.3348289728164673 0.2753105759620667 0.2034504264593124 1.7943415641784668 0.9519147872924805 0.7755444645881653 0.6610854864120483 -0.2490174621343613 0.4909730553627014 1.7258996963500977 2.2260966300964355 -0.5793649554252625 -0.0514430515468121 1.0975607633590698 -0.1182231977581978 1.4945229291915894 -1.2415035963058472 0.7855307459831238 -0.0367947034537792 -1.2354977130889893 2.2800071239471436 0.4555789232254028 0.5507882833480835 2.0297148227691650 1.3753625154495239 0.4602196514606476 -0.6885450482368469 -1.5593578815460205 -0.9799953103065491 1.0913056135177612 -1.3677817583084106 -0.0111011788249016 0.7789540886878967 0.6887833476066589 -0.6550500988960266 2.0342731475830078 2.8261544704437256 0.2318560928106308 -0.5582157969474792 0.2808727025985718 -1.2524787187576294 0.8307748436927795 0.2498255670070648 0.1082275137305260 -0.8040788769721985 -0.5441265702247620 -0.3428132534027100 0.8229801058769226 0.1283252835273743 -0.1103762239217758 -0.8757120966911316 -0.8186795711517334 1.9182263612747192 -1.5996555089950562 0.3838910460472107 0.4698800444602966 -1.0795867443084717 -0.4825844764709473 -1.1280964612960815 0.3385339677333832 0.8136442899703979 -0.4158042967319489 -1.1856082677841187 0.7405517101287842 -0.0462009273469448 -1.5515335798263550
0.6390035152435303 -1.2247872352600098 0.6715024709701538 -1.7379487752914429 -0.4751744568347931 -0.9877983927726746 -0.2936930060386658 0.1247482374310493 -0.6185188293457031 -1.1952588558197021 -1.8970855474472046 0.3812035322189331 -0.3708755075931549 1.1092200279235840 -1.8653523921966553 1.1247932910919189 1.0898962020874023 -0.7023297548294067 0.5422250628471375 -0.1126088723540306 0.7316652536392212 0.7330563664436340 0.2644561231136322 -0.3827973902225494 -1.9136936664581299 -0.9196834564208984 -0.4590855538845062 -0.8309359550476074 0.1691750884056091 0.4622740447521210 -0.3232314586639404 -0.0111910933628678 -1.1343290805816650 1.1181007623672485 0.1454947441816330 0.5350323915481567 0.0445436164736748 -0.6646874547004700 0.9551997184753418 -0.1431595236063004 0.8244855999946594 0.2024020105600357 0.2453328818082809 -0.2529341280460358 -1.5678570270538330 2.7566316127777100 0.5434836149215698 -0.1387461274862289 0.4471214711666107 1.6855416297912598 0.4221255481243134 -1.8034929037094116 0.9514407515525818 0.5452907681465149 0.3661744296550751 -0.6460324525833130 -1.5989577770233154 -0.1770891100168228 -0.2973636984825134 1.7886867523193359 -1.2926914691925049 -1.7457803487777710 0.5982061624526978 0.3919491767883301 -1.2635989189147949 -0.2654248476028442 0.6378562450408936 -0.4554105699062347 0.5738101005554199 0.7732312679290771 0.4108101725578308 -1.8982954025268555 -0.8609997630119324 -0.2660180330276489 0.9836469888687134 0.5173168182373047 0.1769255101680756 0.8815946578979492 0.5008333921432495 1.6422657966613770 -1.4657995700836182 1.4151731729507446 1.6678762435913086 1.1445556879043579 -0.1871921569108963 0.3076837956905365 0.3915941417217255 0.3757259249687195 0.6436942219734192 0.8932256102561951 1.1058483123779297 0.1337238252162933 0.9814484715461731 -0.2010072469711304 0.3624262213706970 -0.2796622514724731 0.0699450299143791 -0.9727540612220764 -0.1245535463094711 0.5295673608779907 -0.9069679975509644 -1.1272776126861572 1.0000866651535034 -0.3767274320125580 0.8478072285652161 0.4214761555194855 0.2050651162862778 0.2033623307943344 0.6088666915893555 -0.2908516824245453 -0.2852049171924591 -0.5849494934082031 1.0930087566375732 -0.8716706633567810 -0.7745072841644287 -0.5169419646263123 -1.0242910385131836 2.6145110130310059 0.2963784337043762 2.3638978004455566 -2.2178113460540771 0.1948365271091461 0.7722857594490051 -0.2460266500711441 -0.8291447162628174 -0.0049794921651483 -0.5217787027359009 -0.7794939875602722
1.7039394378662109 0.9275275468826294 0.3533561825752258 0.2842527031898499 -0.4373492896556854 2.5316483974456787 0.3105416893959045 -1.4775724411010742 1.0795843601226807 1.9871391057968140 -1.0610789060592651 -0.6656360030174255 0.6974159479141235 -0.6828660964965820 0.8766279220581055 -0.9849457144737244 -2.3489272594451904 -0.2577497959136963 -0.6357217431068420 -1.0622718334197998 -1.0156763792037964 -0.0587406978011131 0.3863689005374908 1.8174114227294922 1.3689126968383789 0.6100360155105591 1.5865908861160278 -1.4306175708770752 1.9312922954559326 0.3861697018146515 -1.9501163959503174 -0.6441606879234314 -1.2060699462890625 -0.3129143714904785 -0.8256828784942627 -1.0206556320190430 0.2077302336692810 -1.2435030937194824 0.9053266048431396 0.6188251972198486 -1.8161981105804443 -0.9566171765327454 0.3220809698104858 0.5265303254127502 -0.5918926596641541 -1.0952632427215576 0.2004371881484985 -1.2579383850097656 -1.1939177513122559 1.1356700658798218 -0.0616078339517117 -0.2550138235092163 0.0576443783938885 1.1598203182220459 -1.2208497524261475 0.7058849930763245 -1.9720710515975952 -1.2892577648162842 -0.0644344538450241 0.3059390187263489 0.1103468760848045 0.0416880808770657 1.3835203647613525 -0.2555372118949890 -0.1736562252044678 0.0776100307703018 0.8068329095840454 -0.0278530083596706 1.4454247951507568 -0.2233028262853622 0.1804170161485672 0.0804733633995056 0.5524284839630127 0.4245402812957764 0.1054477021098137 0.7247868180274963 -0.9940158724784851 -0.2013288438320160 1.0605306625366211 -1.0613855123519897 -1.4134391546249390 0.2009200900793076 0.7695165872573853 1.0822112560272217 -1.2953433990478516 0.1684591174125671 -0.5645859241485596 0.1224563494324684 0.7789656519889832 -0.4439589381217957 0.4781770706176758 1.0596821308135986 -2.2859401702880859 0.7913696169853210 0.7733470201492310 1.1230717897415161 -1.8293278217315674 1.4394068717956543 -0.9599175453186035 0.2236900031566620 -0.0186778940260410 -3.7950201034545898 -0.8695434331893921 -1.0998716354370117 1.1199837923049927 -1.7165135145187378 0.7994487881660461 -0.2676699757575989 -1.1208175420761108 0.7078354358673096 -1.2720899581909180 -0.8814063668251038 -0.5471275448799133 0.4312261939048767 0.6227674484252930 0.6056877970695496 0.2632183134555817 0.4655805528163910 -0.4862042963504791 -0.4012319445610046 -2.1685318946838379 -0.3613603115081787 -0.4155735373497009 -0.3083432018756866 0.0700796172022820 0.5940781235694885 -1.0235308408737183 0.3264490067958832
-0.2493856996297836 -0.1635331660509109 -0.7389751672744751 1.4380413293838501 -1.5024689435958862 1.2604415416717529 0.9604388475418091 0.0063392883166671 -1.9321339130401611 -0.0401845946907997 0.6002163290977478 0.2198391854763031 0.6545392274856567 -0.2586470544338226 1.0738474130630493 -0.9164606928825378 -1.0823671817779541 1.3764234781265259 -1.2763547897338867 -0.0724223479628563 0.2045762538909912 -0.3302436769008636 -0.0016385945491493 -0.4607487320899963 0.7889646887779236 0.1398670673370361 0.4499419629573822 1.1504720449447632 0.3682324886322021 0.7774074673652649 1.7638550996780396 -0.9458045959472656 -1.1768038272857666 2.6601657867431641 0.7057542204856873 0.0409484989941120 -0.8729327321052551 -0.4333990812301636 -1.7368117570877075 -0.0367283262312412 -0.5142731070518494 1.4668539762496948 -0.1845869719982147 -0.3799102306365967 -1.2500240802764893 0.5027663707733154 -0.3731236755847931 0.4548208713531494 1.2452499866485596 0.5032973289489746 2.7843172550201416 -1.0895661115646362 -1.9689732789993286 -0.5040202736854553 1.0162250995635986 0.0307641252875328 0.7059295177459717 0.2667528390884399 0.1563117653131485 0.3330902159214020 -1.6555465459823608 0.6707326173782349 0.9347747564315796 -1.0699174404144287 1.0014879703521729 -0.5132775306701660 0.3532572984695435 -1.2354291677474976 -0.3295331299304962 0.9763945341110229 -0.4736034870147705 1.1920511722564697 -0.6297239661216736 0.4665645360946655 -0.0449638701975346 1.8236113786697388 -0.0532675348222256 -0.2769033014774323 0.8116715550422668 0.4212948381900787 -0.6245798468589783 0.6915853023529053 -0.3147656619548798 0.8565669059753418 0.0000613615629845 -0.0123509475961328 0.1105083674192429 -0.8953640460968018 -0.3959897160530090 -0.9577350616455078 -0.3380263149738312 -1.0498077869415283 1.1299498081207275 1.4714146852493286 0.0120364855974913 1.6439313888549805 0.5172144174575806 0.7363424301147461 -0.7184408307075500 1.1861630678176880 0.6203775405883789 -0.6742041707038879 0.3700237274169922 0.7828921675682068 0.6217198371887207 1.7765079736709595 -0.8675709962844849 0.2093378603458405 0.2345749437808990 2.0281019210815430 0.3164993524551392 -0.7109791040420532 -0.8840742707252502 -0.8280825614929199 -0.8921016454696655 -0.4633083045482635 0.4027865231037140 0.1483377516269684 1.2134469747543335 -0.7038354277610779 1.0105248689651489 -0.3000717163085938 -0.5739892125129700 -0.1299725919961929 -0.2734721601009369 1.6225136518478394 -1.6657638549804688 -0.0455583445727825
1.5859317779541016 1.0980337858200073 0.4931290447711945 0.4949565529823303 0.7271920442581177 -0.7905261516571045 -0.4544223248958588 -0.8939669728279114 0.5389629006385803 0.9607248306274414 0.2561646401882172 -0.8525706529617310 0.4085881412029266 1.0545740127563477 0.7425732016563416 -0.5875021219253540 -0.0085385581478477 -0.1345098018646240 -0.3392984867095947 -0.5714948177337646 -1.1133956909179688 1.6269232034683228 -0.2276483625173569 0.3532048463821411 -1.0918602943420410 1.6801978349685669 0.4023101329803467 1.1701896190643311 0.8308939933776855 0.1147618517279625 1.8432799577713013 -1.5571405887603760 0.9915426373481750 0.5862831473350525 0.0396898314356804 -0.2123544216156006 1.6403638124465942 -0.1980799883604050 -0.3698287010192871 -0.2573509216308594 -0.8616312742233276 -0.4281553030014038 -1.5953694581985474 2.4800758361816406 0.8567991256713867 0.8271573185920715 0.5593359470367432 -0.5267105698585510 -1.4912897348403931 0.6944985985755920 -1.2534432411193848 -0.4265058636665344 -0.1117127835750580 -1.0797811746597290 0.6554607152938843 0.9493852853775024 -0.0798111185431480 0.2600703537464142 0.8994936943054199 2.1783149242401123 -0.7308250069618225 -0.5537913441658020 1.0993798971176147 -0.0693397149443626 0.0683194622397423 -0.9848403334617615 -0.0327092707157135 -0.0561949014663696 0.4704671800136566 0.8832641243934631 0.4859794974327087 -0.1516939997673035 -0.1156880035996437 -1.6777434349060059 1.2273406982421875 0.4557776451110840 0.4750355184078217 -0.2957013845443726 0.0169101525098085 0.2946287393569946 -1.3875966072082520 0.4123329520225525 0.0177404023706913 -0.6968287229537964 0.3574546873569489 0.9411190152168274 1.7472414970397949 -0.5420465469360352 -1.2904665470123291 -1.3737103939056396 0.8187001943588257 -0.9285776019096375 -1.7789145708084106 0.4075885713100433 0.4161882698535919 0.1130301654338837 0.0221097152680159 0.1251538097858429 0.7744997143745422 -0.5818032622337341 0.5148766040802002 -1.1708638668060303 -0.8389157056808472 -0.3439349234104156 0.0911511257290840 -1.6068590879440308 0.9707174897193909 0.3265506923198700 -0.1905538588762283 0.1628631800413132 1.4624625444412231 1.5482139587402344 -0.0722647160291672 -1.0457305908203125 -0.5726044178009033 -1.4562604427337646 1.0369760990142822 1.4023983478546143 -0.2053932100534439 0.0507040396332741 -1.0729969739913940 -0.7862943410873413 0.9714251756668091 -0.9986919164657593 0.3344696462154388 -1.3173687458038330 -0.2016058415174484 1.2456372976303101
-0.7597790360450745 0.9593216776847839 -0.1106838807463646 -0.0641292333602905 0.2385045140981674 1.1629703044891357 -0.3937767744064331 0.0311297979205847 -0.0306435935199261 -1.3805500268936157 -0.6380044221878052 0.6334051489830017 0.5880712270736694 -1.3395314216613770 1.0175682306289673 -0.6808633208274841 0.8785852789878845 -0.1058841273188591 1.1921412944793701 -0.0643997862935066 1.1223505735397339 1.3942730426788330 -0.7441935539245605 0.0870539173483849 0.9580701589584351 -0.3583496809005737 -0.3123296797275543 1.0012577772140503 0.3282240033149719 0.0011889399029315 0.3166148662567139 0.1746383756399155 -1.6228694915771484 -0.7113634347915649 -0.4866883456707001 1.6548627614974976 -1.2649205923080444 -0.3212333619594574 0.1913098245859146 0.9939776659011841 0.2532344758510590 -0.0054361214861274 0.4074423313140869 1.2930570840835571 0.2025101035833359 0.2318502068519592 -0.0098236342892051 -1.0113372802734375 -0.6147430539131165 -1.1012954711914062 0.4511063396930695 0.2712304592132568 2.6181907653808594 -0.2250352501869202 -2.3478918075561523 1.0973639488220215 0.8599611520767212 -0.6914761066436768 0.4726720154285431 1.4338542222976685 -0.9562513828277588 -0.6552286744117737 -0.3598831892013550 -0.2853832244873047 0.6234543323516846 -1.0571068525314331 -0.2330202460289001 0.2034239768981934 0.8969457149505615 -0.5012820959091187 2.5653331279754639 -0.8186914920806885 -0.1623521447181702 -0.2348674684762955 -0.4629572629928589 0.7909796833992004 -2.2004489898681641 0.3442261219024658 0.0408446118235588 1.3846315145492554 -1.6446251869201660 -0.3376327157020569 0.2638654410839081 -0.5247982144355774 0.1972034275531769 0.6840845942497253 -0.4316296875476837 -0.2838611900806427 -1.3116489648818970 1.1251858472824097 -0.9545854926109314 0.2035602927207947 0.7337619662284851 0.2482628822326660 -0.4005818963050842 0.4794161915779114 -1.0206154584884644 -0.2133387029170990 -0.9154490232467651 1.1544222831726074 0.5192635655403137 1.2227008342742920 -0.3084306418895721 0.3117509186267853 -0.0695982649922371 -0.4448021650314331 -0.3902134895324707 1.3984888792037964 -0.1837011277675629 1.1168318986892700 1.5192173719406128 -0.4890897572040558 -0.3990000188350677 1.1317936182022095 0.4343618452548981 -0.6570075750350952 -3.0605547428131104 -0.1657690703868866 -0.1394517868757248 -1.1068691015243530 0.6669958233833313 1.0900269746780396 1.5487831830978394 0.5568603873252869 -0.1449146121740341 -0.6260188817977905 -0.2385390251874924 -0.7313297390937805
1.5137602090835571 0.2923901677131653 0.7341951727867126 -2.0330319404602051 -0.4868405163288116 0.3747380375862122 0.1318100690841675 -0.2048897594213486 0.8348280191421509 -1.2986240386962891 0.9473389983177185 0.2316559553146362 -1.0811408758163452 0.9992139935493469 -0.1595641076564789 1.2908265590667725 -1.5064526796340942 0.6588627696037292 -0.2857894003391266 -0.0182000212371349 0.8072047829627991 0.1337394118309021 0.9374653100967407 -0.5713151693344116 0.8661074638366699 -0.0824108198285103 1.0552901029586792 -0.7554728388786316 0.1584795117378235 -0.2810840904712677 0.6774727106094360 0.3858069479465485 -0.0111155202612281 -0.6023687720298767 0.5510659217834473 0.5646940469741821 -0.5473716259002686 -0.4014626741409302 -0.7084992527961731 -1.3308850526809692 1.5991451740264893 0.2006912529468536 0.2889344096183777 1.3399027585983276 0.1819556206464767 -2.5314245223999023 1.2361415624618530 -0.1345302015542984 1.4351664781570435 -0.3263375163078308 0.2730365693569183 -0.8041585087776184 0.9813547134399414 -1.2474604845046997 -0.3322769999504089 0.3337634205818176 -0.6297640800476074 -0.3038125634193420 1.3519523143768311 -1.2322993278503418 0.1731050759553909 1.4821058511734009 -0.4336340129375458 -0.0544521622359753 -1.4761047363281250 -0.4980961680412292 1.5327607393264771 0.6239410638809204 -1.4714781045913696 -0.1337916105985641 0.1152002066373825 1.0338594913482666 -0.8211187124252319 -0.1191102862358093 0.6087253689765930 0.3573616147041321 -0.8843872547149658 -1.0728724002838135 -0.8383775949478149 0.4781446158885956 0.8137515187263489 -0.7967500686645508 0.5019504427909851 0.4821831881999969 -0.6311203837394714 -0.6579340100288391 0.0795128941535950 -0.0719921886920929 -0.5473383665084839 -0.0652395933866501 0.1175723671913147 -0.6197302341461182 -0.9200227856636047 -1.0034769773483276 1.2450745105743408 -0.9331579804420471 -0.5973019003868103 0.2025273293256760 0.3617137372493744 1.1290529966354370 0.6220122575759888 -0.0996797233819962 0.5692058801651001 0.3729513883590698 0.7912348508834839 1.6821357011795044 0.7283810377120972 -0.0151061620563269 1.1294083595275879 1.8461166620254517 1.2526940107345581 -0.0376099050045013 1.4668874740600586 0.7852843999862671 -1.2000552415847778 -1.5618870258331299 0.0720533356070518 0.4903493523597717 0.7714387178421021 -2.2274928092956543 -1.1689555644989014 -1.5632464885711670 -1.1848485469818115 -1.4337495565414429 -0.5499041080474854 -0.2112365067005157 -1.8492951393127441 0.0257263220846653
-2.7734441757202148 0.3366741836071014 2.3201665878295898 0.7731605172157288 0.7163090705871582 -0.2689843773841858 2.1235401630401611 -0.4990877211093903 0.9090312123298645 0.8091599941253662 0.1694010496139526 0.0150161823257804 -0.2638784646987915 -1.1876503229141235 1.4736016988754272 0.0574527345597744 0.4623169898986816 -1.1878876686096191 -0.0298307705670595 1.1421420574188232 -0.5636474490165710 2.1104168891906738 0.0377082377672195 2.4851965904235840 -0.2037808299064636 0.5063780546188354 -0.7630226016044617 1.5260047912597656 0.0282028857618570 -0.4519811272621155 -1.4328602552413940 -1.6145203113555908 0.9132940769195557 -0.5996941328048706 -0.5500136017799377 -0.1256925761699677 -0.0407607927918434 2.0205874443054199 -1.3844718933105469 0.1814992427825928 1.1110439300537109 1.5337426662445068 0.0429292656481266 1.0150150060653687 0.3392881751060486 -0.0833925753831863 0.3835737109184265 -0.4022924900054932 -2.0034966468811035 -1.1403411626815796 0.6712177395820618 0.4659566879272461 1.2816730737686157 -0.0606569610536098 -0.0278951339423656 0.6191887259483337 -0.9355220198631287 0.4448164701461792 -0.4363732635974884 0.5712924599647522 0.0695034787058830 2.0042204856872559 0.6860895156860352 -0.2083798199892044 -0.3410240411758423 0.7176878452301025 -0.7073366641998291 -1.8382693529129028 0.8050207495689392 0.4046963751316071 -0.0446405410766602 -1.0768429040908813 0.9567487239837646 0.0979738608002663 0.4933930635452271 0.6717613339424133 0.1120451241731644 0.5587051510810852 0.6280319690704346 -0.8682983517646790 -2.1445448398590088 -1.7678140401840210 1.5765464305877686 1.1291230916976929 0.4602280855178833 0.4676795005798340 1.9624381065368652 1.0625306367874146 -0.9758864045143127 1.1655235290527344 -0.9166073203086853 -0.5110985040664673 -1.4137016534805298 2.6280481815338135 -0.4822654128074646 0.9017526507377625 2.1358175277709961 0.1575315445661545 0.6548777222633362 -0.5931144356727600 -1.8458573818206787 1.1510726213455200 1.0425038337707520 0.5561555027961731 1.0413287878036499 -0.6768008470535278 -1.1234353780746460 1.0199564695358276 -1.2816224098205566 0.7928016185760498 0.8169077634811401 -2.4542264938354492 1.1975092887878418 1.2381652593612671 1.0844396352767944 0.6191211938858032 1.0270899534225464 -1.0884433984756470 0.0925623774528503 -0.0180111769586802 -1.0503733158111572 -1.1048283576965332 0.0087451338768005 -0.4602738022804260 1.2158995866775513 -1.4167528152465820 -1.0989679098129272 1.3078687191009521
1.2153702974319458 -0.3375509083271027 -0.9562743902206421 1.3730807304382324 0.7049001455307007 1.1409492492675781 -0.5584264993667603 0.6762249469757080 0.6342555880546570 -1.1411918401718140 2.8063194751739502 0.3623553812503815 -1.9818542003631592 -0.2745271623134613 1.1543952226638794 0.8697540163993835 1.6031551361083984 -0.7721721529960632 -0.0944486632943153 1.0395736694335938 -0.6556869745254517 0.0247351005673409 -0.6978240013122559 -0.2092822045087814 0.5441874265670776 -1.8510205745697021 0.4976817965507507 -0.1584858745336533 0.0842215046286583 0.2904354929924011 -1.6425231695175171 0.0041184667497873 -0.9169139266014099 -1.3463399410247803 0.1466371715068817 0.7903881072998047 0.1881602257490158 0.8550158739089966 1.2068322896957397 0.4906497001647949 0.9087066054344177 0.2610561549663544 -0.5178140401840210 -0.4206038713455200 -0.6930949687957764 -0.7386015653610229 1.4529092311859131 1.2278674840927124 -0.9948391318321228 0.3019059598445892 1.6739451885223389 0.7811204791069031 0.5812710523605347 0.2875969111919403 -0.6553053259849548 -0.0838828533887863 0.6302890777587891 -0.3310078084468842 0.4627014398574829 0.3312141001224518 -2.0616562366485596 1.4628298282623291 0.8550353050231934 1.2288081645965576 -0.5186128616333008 -0.1802192032337189 0.4556051194667816 -2.5091824531555176 -0.3594702482223511 -1.2997359037399292 1.3747446537017822 -1.0793203115463257 -1.0712201595306396 -0.6639047265052795 1.2311677932739258 0.7101260423660278 -1.7941437959671021 -1.0539358854293823 0.3874133229255676 -0.9716005325317383 -1.3007644414901733 2.1057577133178711 1.4665522575378418 1.0882158279418945 -0.3829278349876404 -0.1928988248109818 -0.3537721633911133 0.5587983131408691 -0.6355618238449097 -1.5472460985183716 0.3408504724502563 0.3233339190483093 -0.6817204356193542 0.7953314781188965 -0.9682085514068604 0.0636689662933350 -1.9845947027206421 -0.4552927315235138 -0.1001396775245667 -0.6294913887977600 -1.1256537437438965 1.5980466604232788 -0.4735895097255707 -0.5141181349754333 1.2673360109329224 1.3666664361953735 -0.5554784536361694 -1.7246421575546265 0.3627997338771820 2.1615111827850342 -2.7447881698608398 0.5348345041275024 0.2888574302196503 1.9390498399734497 -0.1465852707624435 -0.3353465497493744 -1.8634699583053589 0.2266661226749420 0.3617363274097443 0.4317145049571991 1.7402857542037964 1.2234424352645874 0.1725515276193619 -0.6403708457946777 -0.0390386506915092 0.2359130084514618 -0.6718818545341492 1.8223751783370972
-0.4388802051544189 0.2135827392339706 0.5896085500717163 -2.1953272819519043 -0.2902144193649292 0.2599701583385468 -1.9236322641372681 -1.9770445823669434 -0.7015579938888550 0.4213804900646210 0.6744824051856995 0.1239521130919456 0.7916755676269531 -0.8891865611076355 -0.7209286689758301 -1.3077023029327393 0.8957155346870422 0.1472292393445969 -1.1769633293151855 -0.4271957278251648 1.2165747880935669 -0.1359173655509949 0.1453932076692581 0.6475614309310913 0.1930124759674072 0.8300406336784363 1.2076903581619263 1.1566338539123535 0.3978772163391113 -0.6722099184989929 0.3937885165214539 -0.1487092077732086 0.8862515091896057 -0.2592566013336182 -1.2892657518386841 -1.1000316143035889 -0.2697762250900269 0.6188288927078247 -2.6935868263244629 0.1762608885765076 -0.8065021038055420 -0.7555074095726013 -0.2924543023109436 -1.7266017198562622 -1.3086999654769897 -0.3567226827144623 0.2548492550849915 0.1740085780620575 -0.7379038929939270 0.8257314562797546 -1.3690432310104370 -0.4176390171051025 0.4111706614494324 0.4782103598117828 0.7956617474555969 -0.9766708612442017 0.4382595419883728 -2.1732358932495117 0.9070714116096497 -1.0537101030349731 -2.0025680065155029 0.3793014883995056 0.1630448102951050 1.1237523555755615 -0.1333702802658081 1.0617910623550415 0.6114431023597717 0.9696885347366333 -1.0860327482223511 -0.0964268743991852 1.4978508949279785 1.4392963647842407 1.5740792751312256 -1.0886559486389160 0.3400180935859680 1.4880667924880981 -1.3108612298965454 0.9201713800430298 -0.1512505710124969 0.7814590930938721 -0.3227867186069489 -0.2054009884595871 -1.1795653104782104 -1.3846898078918457 1.0813707113265991 -0.0970291644334793 0.2849690914154053 -0.3052718043327332 -1.2885568141937256 -0.4733003079891205 -1.1315894126892090 -0.1774291247129440 2.1564176082611084 0.8977543115615845 1.3132817745208740 0.8292135596275330 -0.3272331357002258 0.1447897404432297 0.1064658239483833 -0.6083503961563110 0.7577770948410034 0.6308367848396301 0.1000944152474403 1.4600236415863037 -1.6356929540634155 -1.0205329656600952 0.7366286516189575 1.0934567451477051 -1.3232997655868530 0.5978397727012634 0.0636575222015381 0.0856304615736008 0.0202735699713230 0.8154598474502563 -0.3583653569221497 -0.3608857691287994 0.3399753570556641 -0.1564406305551529 -1.3398513793945312 0.8800975680351257 0.6952862739562988 -1.1270442008972168 0.8546520471572876 -0.6516357660293579 1.2896709442138672 0.2838540077209473 0.5288198590278625 1.3680356740951538
0.6808463335037231 1.1387209892272949 -0.4800811707973480 0.3253239691257477 -0.9057846069335938 -1.0691797733306885 0.2207097709178925 0.6294531822204590 -1.0731343030929565 -1.6904255151748657 1.1490987539291382 0.4160047173500061 -0.4327183663845062 -1.6476937532424927 0.5375507473945618 -2.0325212478637695 -0.7769669890403748 1.0491437911987305 -0.5893049240112305 -0.3575783669948578 -0.1128994375467300 0.1808503866195679 0.4110248684883118 0.7820346951484680 0.5005582571029663 0.8090295195579529 1.9979803562164307 -0.0671398639678955 -0.6358087658882141 -0.5888968110084534 -0.2974060475826263 0.4042626917362213 -0.3905424177646637 0.8292614221572876 -0.7143742442131042 -0.2847171127796173 0.0370792672038078 1.3460586071014404 1.6879063844680786 -1.5531673431396484 -0.0469859093427658 0.4545923769474030 -0.1618973761796951 -0.3523916602134705 -0.1726937443017960 1.0306253433227539 -0.3042482435703278 0.1605357080698013 -0.9824980497360229 -1.5970246791839600 0.1822749525308609 -0.0346735604107380 0.3325099050998688 -0.4309421777725220 1.1166989803314209 0.5064324736595154 1.9403145313262939 -1.0174250602722168 -0.1072385311126709 1.8265037536621094 -0.3709725141525269 -0.4062668681144714 0.1381835341453552 -1.6001515388488770 0.9678760170936584 -2.6309485435485840 -0.1930434703826904 0.3137255907058716 0.5378082394599915 -0.7213496565818787 0.4703881740570068 -0.5861178636550903 -1.1967971324920654 0.9445332884788513 0.1955651640892029 1.6096415519714355 0.2150643467903137 0.6005995273590088 -1.1260811090469360 1.0977113246917725 -0.6168915033340454 -0.6478951573371887 -0.8060514330863953 0.9603165984153748 -0.0685269683599472 0.7680073380470276 1.4108102321624756 -0.1934746801853180 0.6199811100959778 -0.2933217883110046 -0.8200732469558716 -0.9561635851860046 -0.6767311692237854 -0.7008199095726013 -0.8821056485176086 0.8191558122634888 -0.7734384536743164 -1.0375461578369141 -0.8450859189033508 1.5672415494918823 -1.6591193675994873 -0.1226146593689919 -0.1961785852909088 1.1125909090042114 -0.4022461771965027 -1.4119794368743896 -0.7721840739250183 0.4856978058815002 0.6583039164543152 0.2618400454521179 -0.5881431698799133 -0.0618315227329731 -0.0403199866414070 1.2678979635238647 -1.5309520959854126 -1.1418720483779907 -0.6479602456092834 -0.4774414002895355 -1.3284372091293335 -1.3418774604797363 -0.1593101024627686 -0.0369573645293713 -1.4629802703857422 0.4526845812797546 1.0832176208496094 1.2204498052597046 -2.0358099937438965 -0.6253258585929871
-0.4768415987491608 0.1037377715110779 -0.0470528639853001 0.9320952892303467 -0.1988852471113205 -0.1296227574348450 1.8449071645736694 1.1382923126220703 0.3405976295471191 -1.0890057086944580 0.5456054210662842 -0.7786012291908264 0.5070474743843079 -0.1218480765819550 0.8369731307029724 -0.8234170079231262 2.2534825801849365 -1.6301356554031372 0.7364689707756042 1.4590829610824585 -0.0381535999476910 0.3734620809555054 0.1755788028240204 0.0598971322178841 0.7518625855445862 -0.0009149055113085 0.3670890927314758 0.8641924262046814 0.4300532639026642 0.3794479370117188 -0.2917862832546234 -0.0012719313381240 -0.3318940103054047 -1.3473464250564575 0.6591222286224365 1.3584612607955933 -0.8621993064880371 -0.3768984377384186 -0.2645420432090759 -0.2499051541090012 -1.7840459346771240 1.2087386846542358 1.5778141021728516 -1.0106084346771240 0.4733850061893463 -0.4334845244884491 1.4909417629241943 -0.8233575820922852 -0.8697707653045654 -0.3196928799152374 -0.5081989765167236 1.4488798379898071 0.1452733129262924 -0.2633892595767975 -2.2783064842224121 -0.0196887124329805 1.6608065366744995 1.2485016584396362 -0.1942001581192017 0.8767963051795959 0.3554973304271698 -1.1562316417694092 -0.1583613604307175 1.3089336156845093 -0.4933022558689117 -0.4565513432025909 0.4353227019309998 -0.4808035194873810 1.5266234874725342 -1.6229407787322998 -0.3436710834503174 0.0637241974473000 1.1920990943908691 -0.1395970880985260 0.3895382285118103 0.6584947109222412 0.0043955803848803 -0.3598173260688782 0.1916493177413940 0.8026317358016968 -1.5658841133117676 0.1568577736616135 1.0915753841400146 0.2195718884468079 -1.2342156171798706 -0.3667204082012177 -0.6806771159172058 0.5737788677215576 0.6560717225074768 -0.4164123237133026 -0.1426231414079666 0.1193338111042976 -0.6544973850250244 -0.2751412093639374 -0.0846106410026550 2.1053473949432373 0.9602170586585999 -0.9515888094902039 0.6492254734039307 0.2881107926368713 1.0772745609283447 0.2944405972957611 -1.1781210899353027 -0.3446174263954163 -0.6351924538612366 2.1181910037994385 -0.9942476749420166 -2.1589429378509521 1.2418528795242310 0.3845173120498657 0.3160020112991333 1.0345989465713501 1.0697684288024902 -0.7426186800003052 0.4015122354030609 -0.9252384305000305 1.1492342948913574 1.8765491247177124 0.4851261973381042 -1.9805635213851929 -0.8088597655296326 -0.4235364794731140 -0.2412139028310776 0.0975171253085136 1.4218014478683472 1.7711168527603149 -0.7030280828475952 -1.7440001964569092
1.5696961879730225 0.1845904588699341 -0.1921262145042419 0.8178245425224304 -0.4762295186519623 -2.3270266056060791 -0.8576292395591736 0.3177817761898041 0.0796620100736618 1.0640645027160645 0.6743097305297852 0.2482224553823471 0.8836178183555603 0.6724733114242554 0.9625636339187622 1.2794536352157593 0.3743762075901031 0.2349976301193237 0.0447973757982254 0.5280244350433350 -0.2002452313899994 -0.4519211947917938 0.2032039165496826 0.1208883300423622 0.8411333560943604 -1.5381221771240234 -0.3550842106342316 -0.3709139525890350 2.0704720020294189 0.5469590425491333 0.1290131062269211 0.4185076355934143 0.7348918318748474 -1.2476547956466675 -0.7746157050132751 1.2897137403488159 -0.7730289101600647 0.1378854960203171 1.7315543889999390 -1.7431915998458862 -0.3784392774105072 0.3516916036605835 -1.3826922178268433 0.2516224682331085 0.0484220944344997 -0.4670011401176453 1.6167442798614502 1.3055666685104370 -1.4705009460449219 -0.3831987082958221 -2.7742052078247070 0.9724991321563721 -0.6392127275466919 -0.2842322885990143 -0.9574727416038513 -0.7950152158737183 -0.7580087184906006 -0.3195850253105164 0.8396326303482056 -1.1381036043167114 0.6325631141662598 0.4259681105613708 -0.6118413805961609 1.2162983417510986 0.0761102437973022 1.4192830324172974 -1.0818657875061035 -0.0151142673566937 1.5057001113891602 1.0020040273666382 -1.8354152441024780 1.8710644245147705 0.8030107617378235 -0.5688479542732239 2.0805366039276123 0.3319218754768372 0.0820171684026718 0.5875806212425232 -0.6690880656242371 1.1808063983917236 0.4700656533241272 0.2600381672382355 -0.8073285222053528 1.8527245521545410 -0.4834918081760406 -0.3358271718025208 0.9956948757171631 1.8356331586837769 1.3066302537918091 2.7795524597167969 1.9156408309936523 -0.2396732270717621 2.0438294410705566 0.4143266975879669 -0.8221554756164551 -1.2928290367126465 -0.6071853041648865 0.0142255313694477 0.9571127891540527 -0.2358759492635727 -0.5545703768730164 0.4443269073963165 0.5153766870498657 2.1010563373565674 -0.6519457697868347 0.9148954153060913 0.0696070715785027 -0.0949210748076439 -0.5939723849296570 1.3807579278945923 -1.4878268241882324 0.2456155568361282 0.5144410729408264 -1.3540931940078735 0.8061174154281616 -0.0233817715197802 0.6274077296257019 -1.0320496559143066 -0.0532780215144157 -0.6239275932312012 0.7997536659240723 0.8050130605697632 -0.9532911777496338 0.6885289549827576 -0.5217333436012268 1.0457495450973511 0.0760593637824059 -0.6056419014930725
-0.6491115689277649 0.0929794833064079 -0.9784645438194275 0.2491160184144974 -0.1247842013835907 0.5015410780906677 -0.2987976372241974 -0.0531141310930252 -0.8559411168098450 -1.0503197908401489 -0.3600071370601654 1.6239567995071411 -0.2754873335361481 0.4570050835609436 0.1006508618593216 -0.9904130101203918 1.6763639450073242 -0.1903502792119980 -0.7210060358047485 -0.5967344641685486 2.3430447578430176 -0.6762758493423462 1.0902132987976074 0.2997380793094635 0.7110814452171326 1.4698563814163208 0.6663696765899658 -0.6391979455947876 0.1043510288000107 -0.8362674117088318 0.7222830057144165 0.2620334029197693 -1.4312915802001953 0.9024016857147217 -0.6768884658813477 -2.7766649723052979 0.2530936598777771 1.3695327043533325 -0.2597828507423401 -0.3471971452236176 0.1812946796417236 1.0019915103912354 -0.2761505246162415 -0.6050269603729248 0.2770794928073883 0.4451871812343597 0.3769377171993256 -0.2827444970607758 -0.4593838155269623 0.1025832965970039 -1.4466762542724609 0.2002109140157700 -1.2607567310333252 0.9620777964591980 -1.7845170497894287 -0.0237666256725788 1.6504011154174805 0.0853606984019279 -0.6610201597213745 -0.1281166374683380 0.5240640044212341 1.1041237115859985 0.0674793943762779 -0.2475563138723373 -0.0541727952659130 -1.1693741083145142 1.9856107234954834 1.0733363628387451 -0.2390832901000977 -0.9392380714416504 0.4804568588733673 1.3760281801223755 -0.6414382457733154 0.6622736454010010 0.4263569116592407 -1.4257454872131348 -0.5901677012443542 -0.6533140540122986 -0.0053227208554745 0.1174323111772537 0.1391837298870087 -0.6534683108329773 2.5226795673370361 0.7953116893768311 -1.6463391780853271 0.7791463136672974 1.1278916597366333 0.0036760417278856 0.4836851358413696 0.4988807737827301 1.3078734874725342 0.0660069063305855 0.8165290951728821 -0.0982298180460930 -1.1173130273818970 -0.7392063736915588 0.6850194931030273 -0.1510948836803436 -0.2441524267196655 -1.7526085376739502 -0.3854160010814667 -0.6175946593284607 -0.2452725321054459 0.6278810501098633 0.4208925366401672 0.2036034017801285 0.2223275303840637 0.4940342307090759 -0.4453196525573730 0.6769316196441650 0.0723087564110756 -0.4528031349182129 0.1673409044742584 -1.8741990327835083 -1.9830967187881470 1.2480059862136841 3.5753531455993652 -0.1308753937482834 -0.8879964351654053 -1.0830302238464355 -0.6135706305503845 -1.1176739931106567 -0.5085126757621765 1.0674006938934326 1.6577550172805786 1.6629744768142700 -0.1519218534231186 0.1561138629913330
1.4139323234558105 -1.2939381599426270 -0.1406314522027969 -0.2349615544080734 0.5392073392868042 0.6053646802902222 0.5102893114089966 0.3170865476131439 -0.1287272274494171 0.4780827164649963 -1.4523217678070068 0.4670024216175079 -1.4753053188323975 -0.3408473730087280 0.0387440249323845 -0.4626778364181519 -0.2566897571086884 0.1603726148605347 -1.2583349943161011 0.1654813289642334 -1.4599475860595703 -0.2834799587726593 0.2084477394819260 -0.4374589920043945 1.5421829223632812 0.6004183292388916 -1.2363603115081787 1.1046779155731201 -0.2927424013614655 -0.5756226181983948 -0.6271806955337524 -0.1521896272897720 0.2628366947174072 -0.1061783656477928 -0.4770161807537079 0.4267515540122986 0.3048915266990662 1.0200630426406860 -2.3062918186187744 -0.1794846355915070 0.6139360070228577 0.1300406157970428 -1.0407159328460693 -0.3057514429092407 0.1575001478195190 0.7640907168388367 -0.5635626316070557 -0.5407978296279907 1.6554094552993774 0.8535909056663513 -0.0371776968240738 -0.6887740492820740 0.8254842162132263 -1.3688209056854248 -1.1870877742767334 0.7090248465538025 -1.5540746450424194 1.3047304153442383 -1.3745247125625610 -0.0055486741475761 0.5918629169464111 0.3003003895282745 -0.8693717122077942 -0.1814042925834656 0.3042357563972473 -1.0397913455963135 -0.7439589500427246 1.5708233118057251 0.9375743865966797 -0.2824409008026123 1.2581441402435303 0.2454800009727478 -0.8171905279159546 1.0382881164550781 -0.2783303260803223 0.6939244270324707 0.4992499947547913 -1.5631976127624512 0.5524316430091858 0.7694301605224609 -0.7685253024101257 -0.2704642415046692 1.3141450881958008 -1.0313466787338257 -0.3940644562244415 0.0692386701703072 2.3392059803009033 1.4666799306869507 -0.5033146142959595 0.4311174154281616 -0.4931516051292419 -0.9694753289222717 0.4046195447444916 -0.0992766022682190 -0.6420962810516357 -0.4822573959827423 0.9635984301567078 -0.1368170231580734 0.3584859967231750 -0.2263397276401520 -0.3429732322692871 -1.9418103694915771 -2.2722983360290527 -0.9607708454132080 -0.3860888481140137 -0.4340627491474152 1.2614297866821289 -0.3021886944770813 -1.1825842857360840 -0.4275241196155548 0.4810299873352051 -0.2052215337753296 -0.9522690176963806 0.8119395375251770 -0.4774335324764252 -0.3102021813392639 -0.7391330599784851 -2.1873760223388672 -0.2561729848384857 -0.5111734271049500 0.8415729999542236 0.0617314055562019 -1.2265862226486206 0.4306230843067169 1.0302609205245972 0.1755626797676086 -0.9010976552963257 -0.3270792961120605
1.4318487644195557 0.5879095196723938 -0.1986119598150253 0.9737585186958313 -1.0370825529098511 -0.1636594682931900 0.1307117789983749 0.1802810579538345 0.2483133822679520 -0.6383234262466431 1.3985874652862549 0.4032183587551117 1.3803986310958862 1.2424926757812500 -2.0781586170196533 0.4797152876853943 -0.1849604994058609 0.5390512347221375 -2.7147362232208252 -0.7727897763252258 -1.1584620475769043 0.2383023202419281 -0.3980608880519867 1.1564555168151855 0.9562997221946716 -0.4197916686534882 -1.1203006505966187 1.2515797615051270 -0.6186715364456177 -0.0065265409648418 0.8665928840637207 -0.5192106962203979 0.5723705887794495 1.8600517511367798 1.1514707803726196 0.2902699112892151 -0.6933037042617798 -1.2227152585983276 -0.1148481741547585 1.7560138702392578 0.1483636945486069 -1.4312393665313721 -0.1039401665329933 1.2936652898788452 1.0187458992004395 1.0182993412017822 -0.7357317805290222 -1.2546895742416382 1.2526711225509644 0.5318572521209717 0.7258729338645935 -2.0942025184631348 0.7883620858192444 0.6941371560096741 -0.4120711982250214 0.4862195551395416 -0.1822741031646729 0.0655679628252983 -1.1260819435119629 0.4970259368419647 -1.5335648059844971 -0.2792460620403290 -0.2044605463743210 -0.0509310215711594 -0.4255889058113098 0.2726411521434784 -0.0544964298605919 -0.7085847854614258 -1.3705354928970337 0.8833060860633850 0.0323234796524048 1.0460875034332275 -1.6098628044128418 0.8859195113182068 0.3561218380928040 1.2125123739242554 -1.0950858592987061 0.5851795077323914 0.8817178606987000 -0.5491943955421448 0.5021308064460754 -0.1509200483560562 -0.1222822666168213 -1.5793379545211792 -2.9262111186981201 -0.9601812958717346 1.3284393548965454 0.2031112611293793 -1.6963986158370972 1.6080390214920044 -0.8013526201248169 -0.1475599110126495 0.2918493747711182 -1.2782170772552490 -0.9805163145065308 -1.1809705495834351 0.2982670366764069 1.3587201833724976 1.3129705190658569 -0.1454771459102631 -0.0806770548224449 1.3106592893600464 0.6754065752029419 1.4057461023330688 0.3330795466899872 0.9731545448303223 0.9497895240783691 0.0097163040190935 -1.1951980590820312 -0.3820411562919617 0.6634662151336670 -1.0965433120727539 1.1365613937377930 0.6967176198959351 0.7358238101005554 0.2218845784664154 -1.9266251325607300 -1.2996921539306641 -0.4926799237728119 1.5788738727569580 0.0723467916250229 -0.3633170425891876 2.0528764724731445 2.3758933544158936 -0.8575955033302307 -1.3330868482589722 -0.5800931453704834 -0.5240524411201477
