1.0317165851593018 -0.6240341067314148 0.0196387618780136 0.2777431905269623 0.5061357617378235 -0.4546440839767456 -0.9284167885780334 -1.6480312347412109 -0.8840273618698120 0.1080939024686813 -0.7805954217910767 -0.6401152014732361 0.3759395480155945 -0.3090158104896545 0.4845552742481232 0.9427173733711243 0.0776382237672806 -0.1230098828673363 -0.3099541962146759 0.1401640921831131 0.8645843863487244 0.3137189447879791 0.2959846258163452 -0.1031346619129181 1.0883460044860840 -1.5402923822402954 -0.1819913536310196 -0.5973289608955383 -1.0014767646789551 -0.5369111895561218 -2.0874943733215332 0.0316189825534821 2.3328239917755127 0.1614322364330292 1.9901410341262817 0.8459741473197937 0.1922081857919693 1.0259684324264526 -0.5915763378143311 -0.1167628243565559 2.4727928638458252 -0.9445052146911621 0.9105370640754700 -1.3894723653793335 -1.4669803380966187 -0.1132357344031334 -1.9432804584503174 0.0506015568971634 0.6996315121650696 1.1706445217132568 0.6520073413848877 -0.9225592017173767 -0.9624036550521851 0.2003976553678513 -1.0140458345413208 -0.0125997615978122 -0.6195927858352661 1.4816055297851562 -1.7078734636306763 0.8444914221763611 -0.2806097269058228 -0.0018355828942731 -0.3261114954948425 -0.1057999506592751 0.6058637499809265 0.6347375512123108 0.0845415070652962 0.4083001911640167 0.1628711968660355 1.5581444501876831 1.2429308891296387 0.9571380019187927 -0.6018789410591125 -0.0147899435833097 0.3121378719806671 1.3847306966781616 1.2857117652893066 -0.8509702086448669 0.0770358890295029 -0.2060417830944061 -0.1690757572650909 1.4310038089752197 0.7389678359031677 1.0415952205657959 -1.1711645126342773 1.1542222499847412 1.3586804866790771 -1.8856896162033081 0.1227769479155540 0.8033060431480408 -0.8798596262931824 -0.5461459159851074 -1.3511509895324707 -1.1329795122146606 -0.5731021165847778 0.4364006221294403 1.1259397268295288 0.7499095797538757 -1.5159441232681274 1.4173901081085205 2.2042572498321533 0.6670706868171692 -0.4837568104267120 -0.2709211111068726 -0.9178943037986755 2.3606748580932617 -0.5077046155929565 0.8170254826545715 -0.2644654512405396 -0.4280066788196564 0.5550698637962341 0.8380287289619446 -0.8040393590927124 0.8121894001960754 1.0082309246063232 1.1044168472290039 0.3390350043773651 -0.2602655887603760 -0.3306653797626495 -1.4058840274810791 0.0371088162064552 -0.8076012730598450 1.4849790334701538 0.7345547080039978 -0.5541059374809265 0.0892087444663048 0.4668555259704590 -0.1100337132811546
1.2304116487503052 -0.3741220831871033 0.4405528008937836 0.1794837564229965 -0.6967566013336182 -0.8583653569221497 -0.2190268188714981 1.6896467208862305 -0.6821437478065491 0.1029936596751213 0.3423942625522614 -0.9622794389724731 -0.0363588854670525 0.0361441597342491 -0.2862440049648285 0.6074011921882629 -0.8010715842247009 -0.1486602276563644 -0.2062105387449265 0.6038872599601746 0.0097024422138929 -1.2414777278900146 1.0053902864456177 1.2247946262359619 1.7854669094085693 -0.0089065218344331 0.4632347822189331 0.1083376929163933 1.2975138425827026 0.7008672952651978 -0.2426283657550812 0.7137762308120728 1.0789829492568970 -1.0607770681381226 -0.3698616325855255 -0.5183596611022949 0.6032896637916565 -1.6445487737655640 0.2314398884773254 0.3378621935844421 0.8769639134407043 1.2188763618469238 1.1203992366790771 0.1945985108613968 -0.4562488794326782 -1.1252430677413940 1.0682071447372437 0.8203582167625427 0.4350076317787170 -0.2551262378692627 -1.3868666887283325 -0.8081133961677551 -1.5685476064682007 0.2773090302944183 1.2262762784957886 0.1765776872634888 0.2917474508285522 1.4084863662719727 0.5881966352462769 -0.8431009650230408 -0.7101400494575500 -0.1324874609708786 0.4265006780624390 -0.4519442915916443 0.4343355298042297 -1.0104664564132690 -0.5596331954002380 0.9636887907981873 0.4298149347305298 -0.5835133194923401 -0.4201185107231140 1.5391042232513428 -1.5082988739013672 1.4362361431121826 1.6050719022750854 -0.4945441782474518 -1.2359468936920166 1.3822890520095825 -0.0355844162404537 -1.8573759794235229 -0.6369588375091553 -0.1900023669004440 -1.6768835783004761 0.0618333481252193 -0.6351490020751953 1.6474713087081909 -0.2771070301532745 0.0226328950375319 -1.3096269369125366 0.9362347126007080 2.2208027839660645 0.8480240702629089 -2.5887851715087891 -0.8354687094688416 0.1029339954257011 -0.6741852164268494 -0.9099918007850647 -0.8615494966506958 -0.1378949582576752 -0.5686006546020508 0.4288926422595978 -1.9474960565567017 0.3597638905048370 0.7621104717254639 -0.8205999732017517 0.5468155145645142 0.4312851727008820 -0.1584004312753677 0.5118532180786133 -1.2138020992279053 -1.2096760272979736 -0.4424025714397430 -0.0400322899222374 -0.1381779015064240 0.0075665609911084 -0.0125050432980061 -1.1543295383453369 -1.1094319820404053 1.9140740633010864 0.1252577751874924 1.2440803050994873 -0.1341826915740967 0.7926777005195618 0.2077760547399521 -1.1807349920272827 1.5064740180969238 -1.5247133970260620 -0.0080798286944628
0.4101839959621429 0.5554004907608032 -1.0717329978942871 -0.2995846569538116 -0.3287810385227203 0.0150684379041195 0.8029351830482483 -0.2704469859600067 -0.3771607279777527 -0.0611417964100838 1.0842784643173218 -0.0101516935974360 -1.3500540256500244 -0.8007991909980774 0.1797919422388077 0.7701567411422729 -1.9576908349990845 0.1741187423467636 -3.2840418815612793 1.0764991044998169 -1.8747879266738892 0.1504045277833939 0.8190260529518127 -1.1254140138626099 -0.9461978673934937 -1.1954274177551270 0.1921924799680710 -2.0415885448455811 0.7874073982238770 -0.7530198097229004 -0.4990417957305908 -0.2586773931980133 0.1289737373590469 -0.6200418472290039 0.0897413492202759 -0.5284587144851685 -0.8783486485481262 1.4917027950286865 1.2767902612686157 -0.4344220459461212 0.8803600072860718 -0.2560341060161591 -0.1940159797668457 -0.1331276893615723 -1.5365447998046875 -0.4051722586154938 -0.9913431406021118 -0.8388242125511169 -0.0740184932947159 0.7071186900138855 -0.2403051853179932 0.1781020313501358 -0.5668779015541077 0.2189421206712723 -1.3871827125549316 0.3820351362228394 0.1989197582006454 1.6156901121139526 0.1530921012163162 -0.9558054804801941 -0.4682521224021912 -0.0792334005236626 -2.2321622371673584 0.9488198161125183 -0.6089727878570557 0.5395151972770691 -1.6240800619125366 1.5130175352096558 1.2457740306854248 -0.2821543514728546 -1.8390358686447144 -0.5392879247665405 0.0690425485372543 1.4836120605468750 0.1703075021505356 -1.0312051773071289 1.4103033542633057 0.9048913717269897 1.5126129388809204 -0.2527733445167542 -1.0571693181991577 -0.8680945038795471 1.0389049053192139 -0.7336162328720093 -0.5389335751533508 0.2457734346389771 -0.6607515811920166 1.6884459257125854 0.9784033894538879 -1.3123508691787720 -0.4049765169620514 -0.2663810849189758 0.9483808279037476 -0.7491291761398315 0.8666480183601379 0.2471991479396820 0.4750097393989563 1.5197265148162842 1.1095870733261108 2.2181408405303955 -1.7196966409683228 2.6588814258575439 -0.9116382002830505 0.8842336535453796 0.1863920390605927 -0.1122362166643143 0.8496433496475220 -0.8862804174423218 0.1078179851174355 -0.0163612589240074 0.3187193870544434 -1.5632675886154175 -1.8888803720474243 1.4335900545120239 -1.1149759292602539 -1.0350898504257202 0.8735690712928772 0.5304095149040222 -0.4341236948966980 0.5348827242851257 -0.1873888969421387 -0.6710108518600464 -0.1744919121265411 0.6161210536956787 -1.0484148263931274 1.1846342086791992 1.2514618635177612 -1.5159775018692017
-0.1781184673309326 -0.1478731483221054 0.2590709924697876 -0.2292981296777725 -0.6494723558425903 -2.4908976554870605 0.0220241714268923 -0.6945270299911499 1.0026555061340332 -0.6706529259681702 0.0233096927404404 0.0232836790382862 0.6202025413513184 0.3102127611637115 -1.4110505580902100 -0.5748580694198608 -2.5160903930664062 0.7590003013610840 -0.4746106863021851 0.8474511504173279 -1.3756256103515625 1.8823446035385132 0.4430384933948517 0.3607422113418579 -1.2178308963775635 0.8454704880714417 1.0779223442077637 1.8931924104690552 0.2103215008974075 -0.2484329193830490 1.1386787891387939 -0.0358543358743191 -0.0216279625892639 -2.2413010597229004 -0.7206813693046570 -0.6923707723617554 0.9910563230514526 0.2484865635633469 0.1143127605319023 0.1276709437370300 -0.3954063355922699 1.3426215648651123 1.8730148077011108 0.1254998147487640 1.0601034164428711 0.9884747862815857 0.0591486841440201 -0.9516206383705139 -1.1396948099136353 -0.0018802677514032 0.3130648434162140 2.9425742626190186 0.7103134989738464 1.2452237606048584 -1.0578987598419189 -2.2945983409881592 0.3268786668777466 -0.4243257641792297 0.5511147975921631 0.4822246730327606 -0.4020031094551086 -1.8703042268753052 -2.0112309455871582 0.0449001267552376 -0.3134223222732544 0.3463270068168640 -0.0726194158196449 0.3865440785884857 -0.0457917898893356 -0.1190301924943924 -1.9844355583190918 -0.6302654743194580 -0.1843517273664474 0.0632803812623024 -0.0497500859200954 0.9757800698280334 0.8044168353080750 0.1490743309259415 2.8792426586151123 -0.6988149881362915 1.8908704519271851 -0.5194245576858521 0.7073597908020020 1.3250522613525391 -1.2532051801681519 -0.9114785790443420 -0.6961978077888489 1.1605319976806641 -0.7483991384506226 -1.0922477245330811 0.6896635890007019 1.5587689876556396 0.4117213487625122 1.1754490137100220 0.0488217435777187 0.7587761282920837 -0.6924657225608826 1.2873767614364624 1.2051144838333130 -0.9033195972442627 0.9557553529739380 0.7295432686805725 0.2735875546932220 -0.7606686949729919 0.2133229672908783 -0.3274204134941101 -0.0220243036746979 1.8863983154296875 0.5681878924369812 0.1555802226066589 1.3221760988235474 -1.1914950609207153 -0.2820273637771606 0.7879919409751892 0.9770897626876831 0.1771158277988434 0.1981844455003738 0.3799708187580109 -0.2329283505678177 1.2139415740966797 0.2019444257020950 -0.1514307558536530 -1.0283036231994629 0.9742951393127441 -1.0959080457687378 0.1276611834764481 -1.9048584699630737 1.1788120269775391
1.5983083248138428 0.3886772990226746 -0.5967788100242615 -0.7378949522972107 0.6044561862945557 -0.0885303393006325 -0.6520241498947144 -2.4156508445739746 0.4478017091751099 1.4800101518630981 0.0938076451420784 0.6508653163909912 -0.1060199663043022 0.6644204854965210 0.5903174281120300 -1.7726942300796509 -0.3924578428268433 0.2417663037776947 0.5494515299797058 2.7868070602416992 -0.2780943214893341 1.5447665452957153 0.1737635284662247 -1.0681869983673096 -2.4593346118927002 0.3070263266563416 0.0743047371506691 -0.1384966969490051 -0.3090954124927521 -1.2543362379074097 1.7334095239639282 0.3089994788169861 -0.4641912579536438 -0.3142478168010712 1.5400712490081787 0.4619759321212769 -1.0277382135391235 0.4094488918781281 -0.1039662435650826 -2.1235492229461670 -0.5164340734481812 1.2305870056152344 0.4566648602485657 -0.7215420603752136 -0.8561368584632874 -0.6274466514587402 -0.7073394656181335 0.0335884764790535 1.3839234113693237 -1.1110584735870361 -0.4307422935962677 1.3290363550186157 -1.2599824666976929 -2.0016007423400879 -1.0680680274963379 -0.2445730417966843 -0.0021733776666224 -0.0918674692511559 0.4592286050319672 1.0558578968048096 0.5536943674087524 -1.7460083961486816 -1.5192360877990723 1.5410538911819458 0.7425150871276855 1.0696469545364380 0.5637630224227905 -2.0180778503417969 -1.3791457414627075 -1.2282850742340088 -0.8262448310852051 -0.1774251461029053 -1.1695110797882080 0.9090907573699951 0.7129304409027100 0.3840634226799011 2.1444690227508545 -0.2988499104976654 -0.5742293596267700 -1.6694035530090332 0.5715517401695251 1.4171462059020996 -1.4011369943618774 0.8080480694770813 1.2832307815551758 -0.3198508322238922 -1.8688639402389526 0.4384617507457733 0.1064759492874146 0.6754192709922791 -0.2804508805274963 0.7117121815681458 -0.0374117940664291 0.5726439356803894 -0.4534104466438293 0.1449040025472641 0.7120448350906372 -0.0957966372370720 -0.4196199476718903 0.6718018651008606 -0.3334461748600006 -1.9229369163513184 -0.6446055173873901 0.9155858755111694 -1.1134158372879028 0.2164929658174515 0.7738810181617737 0.4179695844650269 -0.1758458614349365 0.3097119927406311 -0.3733138442039490 -0.8474814295768738 0.0177668500691652 -0.3345511853694916 -0.9951555132865906 0.5773715376853943 -0.1036184206604958 -0.8181812167167664 -1.0349545478820801 0.6039600968360901 1.4227455854415894 -1.8572421073913574 -0.9564690589904785 1.0637030601501465 0.0125458743423223 0.8091840147972107 -1.3161108493804932 0.4144838750362396
-0.0115256011486053 1.4801968336105347 -0.2286995202302933 -1.3666902780532837 0.8787690997123718 -1.0557523965835571 -0.6367317438125610 1.8798923492431641 -0.5806907415390015 -1.1353179216384888 0.3581181466579437 0.0410063862800598 1.1840869188308716 -0.4197803139686584 -1.4180727005004883 0.3945649266242981 -1.4827409982681274 0.9104703068733215 -1.2330428361892700 -0.8202828168869019 -1.6250585317611694 1.5894722938537598 1.6959841251373291 -0.2622598409652710 -0.2505049109458923 -1.7371723651885986 -2.0629494190216064 0.2617773115634918 -1.0381594896316528 -0.3263002038002014 -0.2345067113637924 -0.3881483972072601 1.4525520801544189 0.2800300121307373 -0.1726985573768616 -0.6379531025886536 0.8723447322845459 1.3378034830093384 -0.8335830569267273 0.8946012258529663 -2.3664877414703369 -0.6944874525070190 0.6795566082000732 0.4959152936935425 1.4237502813339233 -0.0249915719032288 -0.5730534791946411 -0.1982030719518661 -0.1617522984743118 1.5724605321884155 -1.0674183368682861 -1.1920106410980225 -1.4046378135681152 0.3174985349178314 -0.5438231825828552 -1.8139265775680542 1.0107200145721436 -0.4986085891723633 0.0098481383174658 0.8603181242942810 -2.6097757816314697 -0.5088205933570862 1.0032095909118652 0.7105498909950256 0.6141046881675720 -0.1875660568475723 0.2231564074754715 0.9605087637901306 -0.5405640006065369 -1.6680814027786255 0.9329638481140137 0.1423575431108475 -0.9080312848091125 -0.5358406305313110 -1.1064159870147705 -0.5919567346572876 1.3276913166046143 0.3334875404834747 0.9887906312942505 0.9308425188064575 -1.5576970577239990 0.1790604740381241 1.0630038976669312 0.6745882630348206 -0.7003210783004761 -0.5984208583831787 1.5175185203552246 0.4646238982677460 1.2158809900283813 0.3909679353237152 -1.4872331619262695 0.8030431270599365 1.6470685005187988 -0.3922889232635498 0.2376903444528580 0.7759236693382263 -1.1784439086914062 0.7345125675201416 0.6633406877517700 0.3122163414955139 0.3456551730632782 -0.3854561448097229 1.4332714080810547 -0.0525061972439289 0.0651103705167770 -0.6026050448417664 2.0237019062042236 0.1591597348451614 0.2523202002048492 0.5509467124938965 1.8765469789505005 -0.7822458744049072 -1.0118297338485718 -0.1012145355343819 -2.1320307254791260 -0.7772667407989502 -0.2150718569755554 1.2910382747650146 -0.8953607678413391 -0.2559166550636292 -0.1078323200345039 -0.4037275016307831 0.5616574883460999 0.0485887378454208 -0.1055620312690735 -0.4875763952732086 -0.4348961114883423 -0.6040880680084229
-0.6788346767425537 -0.5373985171318054 1.1266304254531860 0.3241916894912720 1.2909311056137085 -0.4932159781455994 -1.2607753276824951 0.9721454977989197 0.2931255400180817 -1.5393251180648804 2.0340626239776611 0.9831226468086243 -0.1126409247517586 -0.2896687984466553 -0.7209842205047607 0.2289264202117920 1.0016555786132812 -1.2079616785049438 1.7105009555816650 -0.3135166168212891 0.2527784109115601 0.2012311816215515 0.2812254726886749 0.5836656689643860 -0.3694852888584137 -0.5505258440971375 0.1158977076411247 -1.7951591014862061 -0.4780513942241669 2.3590259552001953 2.0068211555480957 -0.1387045085430145 -1.0280457735061646 -0.3678767383098602 2.4159586429595947 0.3469238579273224 0.4460731744766235 0.4623360037803650 1.0325756072998047 -2.1278498172760010 -0.0811127573251724 0.8844339847564697 -0.0538873821496964 0.5696004629135132 -1.5156861543655396 -1.5622272491455078 0.6603778004646301 -1.3424911499023438 -0.4574191868305206 0.8577325344085693 0.2947820425033569 -0.7791011333465576 -0.7665792107582092 -1.5610147714614868 0.7360683083534241 0.8387758731842041 1.8857318162918091 -1.0668364763259888 1.2043383121490479 0.6117345690727234 -0.8896117210388184 0.1225653961300850 -2.7545995712280273 -1.1006139516830444 0.4216972589492798 -0.6408057808876038 1.3997938632965088 0.8438396453857422 1.5979028940200806 1.2920951843261719 -0.5521764159202576 -0.2084903419017792 -1.0190778970718384 1.5094481706619263 0.6040939688682556 -0.2402973175048828 -0.4202461242675781 0.6173517107963562 -1.2901225090026855 -0.5714988708496094 0.2079229801893234 0.0380381681025028 -0.8044063448905945 0.6872986555099487 -0.3040731549263000 0.0031687573064119 1.3267142772674561 -0.5925458073616028 -0.6490059494972229 0.5032672286033630 0.3277052640914917 -0.1450981944799423 -0.3093560338020325 0.2048301845788956 0.4470217227935791 -0.5229291319847107 -1.6971434354782104 -1.3824831247329712 1.0711573362350464 0.1420667171478271 -0.2578388452529907 0.3693481981754303 -0.3772501349449158 -0.8961274623870850 0.0070989038795233 -0.1437230706214905 0.1972511857748032 -0.4285416603088379 -1.6337136030197144 -0.1416717916727066 0.4394836723804474 -0.3548477292060852 1.6444588899612427 -1.0641511678695679 -1.3192893266677856 0.0351881869137287 0.8740511536598206 -0.2100135087966919 -1.0485562086105347 -1.8659291267395020 -0.5782400965690613 -2.5252540111541748 1.5813465118408203 2.2790536880493164 -1.7673525810241699 -0.7952117323875427 0.3770590722560883 1.6220079660415649
0.0070385038852692 1.0776356458663940 -0.0889239385724068 -2.1277632713317871 2.4985837936401367 -1.3276836872100830 1.3299072980880737 1.6931350231170654 -0.2620576918125153 -0.4432815015316010 -1.4929064512252808 3.1509866714477539 -0.6009118556976318 -1.3176314830780029 -0.3885567188262939 -0.2139791846275330 -1.7796264886856079 -2.0185341835021973 0.6303927898406982 0.3493154942989349 1.0529521703720093 -0.5456333756446838 -0.2348060011863708 1.5847423076629639 1.0206354856491089 0.3166312277317047 -1.7438282966613770 -0.3216970264911652 -0.1940259337425232 0.8946449756622314 -0.7527928352355957 1.2033691406250000 -0.2430389821529388 1.5740189552307129 -1.9783334732055664 0.1263023763895035 0.9921470880508423 0.6292986869812012 -0.4573397040367126 0.9711617231369019 0.6217451691627502 -1.9914797544479370 1.7412042617797852 0.6905174255371094 0.0528938025236130 0.4630518555641174 0.5251188874244690 -0.0961737930774689 -1.5976839065551758 -0.2993273138999939 -0.4681873917579651 -1.1242030858993530 0.8344656825065613 0.1234797686338425 0.3123474419116974 -0.2104921936988831 0.5111023783683777 0.3866607546806335 -0.5028633475303650 1.4970654249191284 -0.5021610260009766 0.1816915571689606 0.4263887107372284 -1.4580619335174561 -0.9503298401832581 -0.8600859045982361 -0.8409308195114136 -0.4138581156730652 -0.7328048944473267 -0.2171682268381119 0.3478325605392456 0.0081492457538843 -0.0471458844840527 -0.7571712732315063 -0.1252197921276093 0.0941300615668297 1.6045315265655518 0.0081113176420331 0.9188662171363831 1.5428929328918457 0.0296468567103148 -0.4633482992649078 -0.5094539523124695 -0.6380409598350525 -0.1503900587558746 0.2346026450395584 2.3573589324951172 1.8135228157043457 -0.7337127327919006 0.4281210303306580 -0.0528059229254723 -1.5542361736297607 -0.7698968648910522 -2.0764541625976562 -1.1658487319946289 -0.1956603229045868 1.5234829187393188 -0.4354551732540131 -0.3504494428634644 -0.8887369036674500 -0.7028345465660095 -0.2290699034929276 -0.5668118000030518 0.3140854537487030 0.1458394825458527 -1.4778881072998047 -0.7486385107040405 -0.2680967450141907 1.2502998113632202 -0.2461244463920593 0.0195069257169962 0.4760409593582153 1.0119233131408691 1.2110166549682617 -1.0885057449340820 -0.7880384325981140 0.6414679884910583 0.6982576251029968 1.0284516811370850 -1.3735080957412720 -1.3358284235000610 0.1175816655158997 1.2665358781814575 2.3340191841125488 0.0598467700183392 1.0790052413940430 0.7635499835014343 0.6682098507881165
-0.6368327736854553 -0.4809807837009430 -0.1192337572574615 0.1206084638834000 -0.0044168531894684 -0.1735780090093613 -0.1740519851446152 0.2808070480823517 -0.0883148536086082 1.0435998439788818 -0.6897720694541931 0.2502090632915497 1.5664423704147339 1.5077148675918579 -0.8891630172729492 -0.7629458308219910 -0.0688446313142776 -1.6897575855255127 1.7133750915527344 1.7680178880691528 0.0257511660456657 0.5245759487152100 -0.6879784464836121 -0.7944346666336060 0.7371409535408020 0.5843217372894287 -0.0960192829370499 -0.1215671747922897 -0.6388257741928101 1.1338871717453003 -1.1873356103897095 0.1359591186046600 -1.6434837579727173 -0.0426596105098724 1.4791969060897827 1.5808267593383789 -1.2842607498168945 -0.6697787046432495 -0.4756098985671997 -1.1190556287765503 1.3774797916412354 -0.5391712188720703 0.0017858664505184 -1.0076780319213867 0.9708047509193420 0.3822228610515594 1.2716571092605591 -2.0168745517730713 0.3091995120048523 2.0931384563446045 0.6970571875572205 -1.2835419178009033 -0.5969859361648560 0.0046010916121304 -0.1959864646196365 0.2506816089153290 0.2608786523342133 1.0351459980010986 -1.0141611099243164 1.5572321414947510 -0.8127501606941223 -0.9043982625007629 0.7583449482917786 0.6089420914649963 -0.9780228734016418 0.7394515872001648 -1.5652917623519897 0.5313628315925598 -1.1314792633056641 -0.4435497224330902 -1.0309500694274902 -0.2662231028079987 0.4973522424697876 -1.9319413900375366 -0.3855516016483307 -0.5564127564430237 1.1137052774429321 1.8691426515579224 2.9477684497833252 0.2021873742341995 0.9327051043510437 -1.7267254590988159 1.4060653448104858 -0.2727439403533936 0.1214873343706131 -0.9170860648155212 -1.1192415952682495 0.6474807858467102 0.0896352827548981 1.7207025289535522 0.2114947289228439 -0.5367174148559570 -0.4141776263713837 0.6414358019828796 0.3401564359664917 0.1943632811307907 -1.6483883857727051 -0.6220167875289917 -0.1703225672245026 -0.0843850746750832 0.1932264566421509 -0.0066030537709594 -0.4925709664821625 0.8101609945297241 -2.6390635967254639 -0.5636389255523682 0.5748142004013062 3.0789899826049805 0.4696210324764252 0.3477882444858551 -1.2689293622970581 0.0553100220859051 1.2594580650329590 -0.5097831487655640 -0.3879984021186829 0.8840284943580627 -0.8216823339462280 -0.1473196297883987 1.5786298513412476 -0.4246926903724670 0.1808109134435654 1.4342918395996094 -0.0865398570895195 0.4196046888828278 -1.3005696535110474 0.3227233886718750 -1.1261465549468994 0.1164104864001274
-0.8632202744483948 -0.4705364406108856 -0.2598182559013367 -0.4420294761657715 -0.4282940924167633 0.9864048361778259 -1.7130252122879028 -1.1518108844757080 1.5245275497436523 1.0167343616485596 -1.5692923069000244 -1.7441998720169067 1.1148810386657715 0.5222759842872620 0.8138906955718994 0.2515803277492523 -1.3369987010955811 -0.1585930436849594 -0.0803158879280090 0.1095840856432915 -0.3485565185546875 -1.2793674468994141 -1.6685440540313721 0.5269645452499390 -0.0309868752956390 0.1972818821668625 0.6445049643516541 0.5209497213363647 -0.1695593893527985 0.2751144468784332 0.0750768110156059 -0.8415011167526245 -0.1889426857233047 0.3632962703704834 0.8147900700569153 -0.1579202115535736 0.3935082554817200 0.3429711461067200 0.2868113517761230 0.2691954076290131 0.4387514293193817 2.5981888771057129 -0.1751597523689270 1.5781149864196777 0.9908142685890198 -0.0983077138662338 -0.1014583781361580 -1.2083902359008789 0.5410762429237366 1.3689477443695068 -3.3207216262817383 -0.1731002181768417 0.5366599559783936 -1.7607030868530273 -1.9970102310180664 0.1018378958106041 -0.9530805945396423 0.7775529026985168 0.7197135090827942 1.7049480676651001 -1.4130568504333496 -0.0393566712737083 -1.0965900421142578 -0.6633117794990540 -0.0360742062330246 1.4716647863388062 -0.3725431263446808 -1.4999085664749146 -0.6804195642471313 -0.3686183393001556 0.0224081240594387 -0.2576568722724915 0.7074946165084839 1.1555179357528687 0.6606536507606506 -1.5067837238311768 -0.4826439619064331 0.4638169407844543 -1.5509414672851562 -1.2454755306243896 -0.7683308720588684 0.9288468956947327 -0.3237699568271637 -0.0705896317958832 -0.7066125273704529 0.5276767015457153 0.3050396740436554 0.4587415754795074 0.7060987949371338 -1.1233406066894531 1.6484842300415039 -3.0708308219909668 -2.1441638469696045 -1.2858239412307739 0.6954066157341003 -0.3512039184570312 -1.2692979574203491 1.7408076524734497 0.7797921895980835 0.0308586433529854 -1.2675874233245850 -1.1257379055023193 0.3353506922721863 1.0592956542968750 -0.3271263241767883 0.9730128645896912 0.3410713672637939 1.8852574825286865 -2.3656315803527832 1.2473901510238647 1.3816106319427490 1.2773075103759766 -0.7773599624633789 -0.1758462637662888 -0.4077844023704529 0.2246290892362595 -0.6255636215209961 0.6727834343910217 0.8968718051910400 -0.3389921486377716 -0.8650571107864380 -0.1632049381732941 -0.2322257161140442 -0.4432983100414276 0.3340378105640411 -1.1951625347137451 1.5736817121505737 -1.0713672637939453
-1.0759668350219727 0.2528345286846161 0.3334248661994934 -0.5964744091033936 -0.0670048147439957 0.6385130882263184 0.0285269115120173 -2.6037776470184326 -0.3364706933498383 2.0043458938598633 1.1597887277603149 1.4037816524505615 2.1521492004394531 -1.4503870010375977 0.4362486898899078 -1.0825293064117432 0.3529631197452545 1.2496075630187988 -0.3203929066658020 -0.2312602102756500 -0.8998409509658813 0.4789664149284363 0.4253791868686676 -0.0860290601849556 0.5964467525482178 -0.2362361848354340 0.9573566913604736 0.8647045493125916 -0.1877866536378860 0.7456712722778320 0.1240673810243607 0.9468262791633606 -1.3984365463256836 0.3420377671718597 -0.0924473255872726 0.5424079895019531 -1.3845628499984741 -0.9673097133636475 -0.3612711131572723 -0.6876696944236755 0.5521459579467773 1.3920823335647583 -0.3857594132423401 0.7530004978179932 -0.0566176436841488 0.0429242216050625 -0.8508857488632202 0.2785505652427673 -1.0116786956787109 -0.5545101761817932 -1.2101012468338013 -0.7305678129196167 1.1004590988159180 0.5898375511169434 -0.8998978137969971 2.2164189815521240 1.0604289770126343 -0.2622016370296478 -0.8512468338012695 1.3676067590713501 0.0674162432551384 -0.3122828006744385 -0.2342950254678726 -0.3138888478279114 -1.8398138284683228 -0.9305776357650757 -0.7610156536102295 -0.4074191153049469 0.4273787736892700 1.2580326795578003 0.1595513522624969 1.0088534355163574 1.0884562730789185 0.2496623247861862 0.4421389102935791 0.4680300056934357 -0.8169250488281250 -0.8419955372810364 0.8107948303222656 0.7969676256179810 0.9371606707572937 0.3539077341556549 1.8560316562652588 -0.2434784621000290 -0.5144314765930176 -0.9297162294387817 -1.4540611505508423 -0.0510899350047112 0.6225680708885193 1.0276949405670166 1.1312887668609619 0.6715871095657349 0.8636652827262878 -0.3554052412509918 -1.4722410440444946 2.2863328456878662 -0.2765963375568390 -0.2136175632476807 -0.4582154154777527 0.1478235274553299 0.4933383762836456 -0.9281436204910278 -0.6905372142791748 1.0057023763656616 -1.0370485782623291 -0.0339193418622017 -0.4971577525138855 0.2101991921663284 0.2748858332633972 1.1717066764831543 -0.0614426396787167 -0.6280642747879028 -0.1295255720615387 -1.0376173257827759 0.2479895055294037 -0.1198629736900330 0.0571259818971157 -0.6414647102355957 0.8035944104194641 -0.1264785975217819 0.1986584812402725 -0.7660382986068726 -0.3463894724845886 -1.5091415643692017 1.0885938405990601 -1.7664836645126343 -1.2091135978698730 0.3186962902545929
0.2357288151979446 -0.6430786848068237 -0.2383043467998505 1.8662931919097900 -0.4068964123725891 -0.4563215672969818 0.4221693575382233 0.6340193748474121 1.2058264017105103 1.1092505455017090 1.4456760883331299 0.1796246618032455 1.3955761194229126 -0.7777637243270874 -0.8871972560882568 -1.2249554395675659 -1.1806688308715820 -2.0935137271881104 -1.8638083934783936 -0.9745644330978394 0.8127279281616211 -0.1408464610576630 0.6593220233917236 1.3347105979919434 0.5382699370384216 0.3540924787521362 -0.6982852220535278 -1.2305389642715454 -0.5412310957908630 2.3622555732727051 -0.0865212753415108 1.3796998262405396 0.2036073654890060 0.2380528301000595 0.2342334687709808 0.8365296721458435 -0.5434131026268005 0.9041177630424500 -0.1026763319969177 0.6499661803245544 -1.1030436754226685 -0.1317880600690842 0.1133192032575607 -0.2886449992656708 -0.8751181960105896 0.9396249651908875 -0.4094924926757812 -0.6160998940467834 2.1525678634643555 0.7036960721015930 -0.5387439727783203 -0.8124996423721313 -0.5625710487365723 1.5460839271545410 0.1494335383176804 1.4839335680007935 -0.8746257424354553 1.0052260160446167 -0.8684911727905273 0.7098003029823303 0.4824192225933075 0.2661739587783813 -0.0327439419925213 1.5270696878433228 -0.2058830708265305 0.4686251878738403 0.3206309676170349 0.6597927212715149 -1.1216429471969604 -1.7867653369903564 0.4897652268409729 0.8567873835563660 -0.3695131838321686 1.0930713415145874 -1.0633550882339478 0.3049278557300568 -0.4350211620330811 -0.0773061141371727 -0.2173497229814529 0.1797460764646530 0.1815860420465469 -0.1578283905982971 -1.4705734252929688 -0.1726256161928177 -0.4339404702186584 -1.0974962711334229 -0.3623749911785126 -0.0565549768507481 -1.6772038936614990 -0.6490085124969482 1.2458722591400146 1.3958774805068970 0.5701106786727905 1.5019021034240723 -0.0751036778092384 -0.0018842492718250 -1.2410514354705811 1.3191184997558594 0.9865461587905884 -1.2494516372680664 0.5300773382186890 2.5601854324340820 -0.2598097324371338 1.0428142547607422 1.4964847564697266 -0.1456472426652908 -0.2896090745925903 0.0447148010134697 -0.5600638985633850 0.4079570770263672 0.3787665069103241 0.2004028856754303 0.7297471165657043 0.8331157565116882 0.4359785914421082 -0.8634487390518188 -0.5806632041931152 -0.6885777115821838 -0.6525812745094299 0.1727213263511658 -1.0605130195617676 0.9907013773918152 -0.3763865232467651 2.0435805320739746 2.6100203990936279 0.5920695662498474 0.5915609598159790 -1.1273725032806396
-0.0083884084597230 0.0526780337095261 -0.2617781460285187 0.2533605098724365 0.2937725484371185 0.8552540540695190 -1.1222195625305176 -0.2338717877864838 0.5978072881698608 0.7149445414543152 0.7099200487136841 0.6185434460639954 1.0483944416046143 -0.2876403629779816 0.8542991280555725 0.6401543021202087 -0.7944926619529724 0.4812217354774475 0.4837349057197571 1.0646969079971313 -0.0030689230188727 -1.0705888271331787 -0.2651881277561188 -1.9197133779525757 0.8720849156379700 1.3901929855346680 -1.2519991397857666 0.3647979199886322 -0.7334671616554260 -1.1574651002883911 -0.6005069613456726 1.2498621940612793 -0.3172879815101624 0.0451966524124146 1.6383115053176880 -1.9082380533218384 0.8410632014274597 -0.6399095654487610 0.0379343330860138 -0.8100950121879578 -0.1350982040166855 -1.5481659173965454 0.2185777276754379 0.8972416520118713 -1.3074495792388916 1.3618854284286499 1.0129649639129639 -0.6527932882308960 0.1607782840728760 1.0588009357452393 -0.1236747205257416 0.2385113686323166 -0.2129040360450745 0.5041519403457642 -0.5002599954605103 -1.0639622211456299 -0.7698320150375366 0.9162958264350891 0.2354454398155212 1.3899049758911133 1.1645261049270630 -0.8586708903312683 -1.2246047258377075 -0.2599939107894897 -0.1772826164960861 -1.4156265258789062 -1.1216331720352173 -0.1080246120691299 -0.1305819451808929 -0.8503843545913696 -0.4889982342720032 0.3756094276905060 0.2077701985836029 1.6536422967910767 -0.5620487928390503 -0.6338556408882141 0.7957923412322998 -0.3020443320274353 0.3055698871612549 -1.8071033954620361 -0.6872938275337219 -0.5027397871017456 0.2507007122039795 0.3951390981674194 1.3844156265258789 -2.3560633659362793 0.5172384977340698 1.7150748968124390 0.6197730898857117 0.4489543437957764 -1.0935878753662109 3.1835446357727051 0.8782465457916260 0.6736579537391663 1.4405001401901245 0.7059377431869507 0.8190966844558716 0.5722094178199768 0.2122592926025391 -0.8796510696411133 -1.0884796380996704 -0.2348781675100327 0.0048820553347468 1.4044559001922607 -1.3676110506057739 -0.4952872395515442 -1.1754498481750488 1.1710463762283325 -0.9765511155128479 -1.1200673580169678 -0.5650523304939270 1.4849694967269897 -0.4698390364646912 0.9648261070251465 -0.6998675465583801 0.9388374686241150 -0.8670160770416260 1.2377263307571411 1.3647992610931396 -0.5545261502265930 1.1393197774887085 0.4927327930927277 -0.3717741668224335 0.8280690312385559 0.4422462284564972 -2.1537690162658691 0.3100962340831757 -0.5720852613449097
-1.0528364181518555 -0.9052703380584717 -0.5302243232727051 0.1264318823814392 -0.1046036556363106 -0.5785146355628967 0.0457581803202629 -0.9939194321632385 0.0382479578256607 -0.4144991338253021 0.5485334992408752 -1.1121748685836792 0.3354347944259644 0.6708070635795593 0.4862931668758392 -0.9550533890724182 0.5507643222808838 -0.1099176183342934 0.7966904044151306 -0.2293969243764877 -2.0686860084533691 2.2454524040222168 -0.4732643365859985 1.0627303123474121 1.1673004627227783 -0.9707495570182800 -0.9779413938522339 -1.3004775047302246 -1.0050948858261108 -0.8754830956459045 -0.1668554395437241 -0.1762653142213821 -0.4172213375568390 0.9211169481277466 -0.5570318698883057 -1.2389652729034424 -2.0105428695678711 -0.2408694922924042 0.3695650100708008 -2.3328483104705811 1.5581152439117432 -0.3655642569065094 -0.4676314592361450 -0.3644286096096039 -2.3363707065582275 -2.0892434120178223 0.1926223337650299 -1.2521938085556030 0.7209738492965698 -2.0600481033325195 0.3137774169445038 -0.7766098380088806 -0.0949959978461266 -0.9381632208824158 -0.8026260137557983 -0.4568482041358948 -0.2690156102180481 -0.4436749517917633 1.7016699314117432 -0.8990920186042786 1.2281208038330078 -0.4340434074401855 -0.7262532114982605 -1.3343552350997925 0.2440446913242340 1.3031482696533203 -1.8125604391098022 -1.2642812728881836 0.9992647171020508 -0.7606247067451477 0.0903519988059998 -0.5012905001640320 0.5635082125663757 0.5767790079116821 0.9297593235969543 0.3490628302097321 -0.9155578613281250 0.4460230767726898 -1.5127668380737305 1.6311058998107910 -0.1165676862001419 0.3473072350025177 0.1096742600202560 -0.5180468559265137 2.8722312450408936 -0.5299409627914429 0.7665517330169678 0.3492392897605896 2.6969180107116699 -0.3361683487892151 -1.1649188995361328 0.9766640663146973 0.6998550891876221 -1.0400704145431519 -2.1631808280944824 1.2260216474533081 -2.1059064865112305 -0.2786300480365753 -0.3038478195667267 -0.7498227953910828 0.1758798360824585 -0.4277509748935699 -2.0189774036407471 -0.9124631881713867 0.8219694495201111 0.1003498584032059 0.4726855456829071 -1.8223903179168701 1.2385121583938599 -1.0697331428527832 -1.4148099422454834 0.0076264874078333 -0.6006439328193665 1.4495893716812134 -1.3296421766281128 0.2003365308046341 0.2478174865245819 0.3032216131687164 0.2502771914005280 0.9848310351371765 0.3788650929927826 0.9971528649330139 -1.7006528377532959 0.8921310305595398 0.6206512451171875 0.7708858251571655 1.5124796628952026 -0.4130406677722931
-0.5361872315406799 -1.1272453069686890 1.3130546808242798 1.3263986110687256 -1.6043936014175415 -0.5447663664817810 -0.4778097569942474 0.3546203374862671 -1.9718822240829468 -1.4692324399948120 -1.4688620567321777 0.1288073956966400 0.1950435340404510 -1.2922807931900024 1.1409398317337036 0.8294159770011902 0.8838077783584595 -0.8751939535140991 0.0384232848882675 -0.0618620365858078 -1.0843148231506348 0.0885625034570694 0.1394892632961273 -0.7925325632095337 -1.0626453161239624 -1.2116011381149292 -1.5951825380325317 0.9119679331779480 -1.6479339599609375 -1.0741171836853027 0.0697430595755577 -0.6532568335533142 0.1171968579292297 -0.6969565153121948 -1.0144829750061035 -1.8411966562271118 0.3316319584846497 -0.5776900649070740 -1.5451161861419678 1.5767531394958496 1.6376738548278809 1.5070310831069946 -0.9288218617439270 0.1806350648403168 -0.2931619882583618 0.3539368212223053 0.3251532912254333 0.6657409071922302 -2.0051975250244141 -0.7938826084136963 1.2731797695159912 0.5454809069633484 -0.8896498680114746 -0.0723985582590103 0.1153979450464249 0.8047491908073425 0.1483899801969528 0.0575448758900166 -0.4781587719917297 0.0875347629189491 -1.9679321050643921 -1.1463835239410400 0.2454118877649307 0.0395573228597641 -1.2494900226593018 1.0270397663116455 0.5741204619407654 -1.3321560621261597 -0.6329379677772522 1.1763319969177246 0.4133776426315308 -1.6127386093139648 -0.1735331863164902 -0.4985532462596893 0.9824955463409424 0.3613599240779877 0.9196411967277527 -1.7852814197540283 -0.9716138243675232 0.1500010937452316 0.1842239052057266 1.2354925870895386 -0.2289206981658936 -0.2760384678840637 0.1191838756203651 -1.4600191116333008 0.7417079806327820 0.2186264842748642 1.8802508115768433 -0.5574067831039429 -0.2235506474971771 1.7786847352981567 -1.0627502202987671 -0.0503515489399433 1.0533914566040039 0.4046753644943237 0.1136157661676407 -0.3643677830696106 0.4298234581947327 -1.0590186119079590 -0.5061264634132385 0.0686883628368378 1.0492554903030396 -0.4949750602245331 -1.6793307065963745 0.2959724962711334 -0.2198352217674255 -0.3658239543437958 1.9079707860946655 -0.3772849440574646 -0.5250711441040039 0.7033455371856689 -0.7482786774635315 -0.5785819292068481 -0.7351109385490417 0.2830502688884735 -0.1991460323333740 0.0736838206648827 -0.5685892105102539 0.3897579908370972 -1.2980185747146606 1.3093798160552979 1.1464279890060425 -0.3812737464904785 1.7556842565536499 -1.3137466907501221 -0.6208755970001221 0.0336900055408478
-1.5547589063644409 -1.5464819669723511 1.2799308300018311 -1.4371263980865479 -0.2248933613300323 2.4199402332305908 -0.5346215963363647 -0.9447999000549316 -0.3292116522789001 -0.0396402627229691 0.2213662564754486 -0.4084999859333038 -1.9707328081130981 1.3212471008300781 -2.8749215602874756 -0.0092749157920480 -0.5352324843406677 -0.8780046105384827 0.4600637555122375 -1.7955156564712524 1.7971456050872803 1.0415550470352173 2.2180016040802002 -0.4096804559230804 -0.0668026506900787 -0.2006746381521225 -2.0886354446411133 0.5986216664314270 -0.4180327951908112 -0.8915411829948425 0.1454407870769501 0.0055818282999098 -0.0476771481335163 0.1179664283990860 0.6506990790367126 -1.3735927343368530 1.1841052770614624 0.9742982983589172 -1.0079332590103149 0.2158762961626053 1.6827013492584229 0.3298003971576691 -1.2560490369796753 0.8508593440055847 0.1180443763732910 -0.6659368276596069 -0.2660372257232666 -0.7635508775711060 -0.2183309495449066 -1.0288885831832886 -1.2648917436599731 -0.9659679532051086 -0.2887931466102600 -0.9954255223274231 -0.2610705494880676 0.6140887737274170 0.1699440032243729 0.1561360359191895 -0.1720441877841949 2.3835809230804443 0.7535139918327332 1.3273901939392090 -0.9800618290901184 1.2751111984252930 -0.2939780950546265 -0.0050510265864432 1.4037796258926392 -1.0467703342437744 -0.6764455437660217 1.0845204591751099 0.3332489728927612 0.6911422014236450 -0.5080597400665283 -1.2917126417160034 -2.1012806892395020 0.7649329900741577 0.6183997988700867 -0.8155105113983154 -0.9072936177253723 1.0061498880386353 1.3260054588317871 -0.6067740321159363 1.0191212892532349 0.8220028281211853 -0.7125501036643982 -0.9896388053894043 0.5791249871253967 -1.0005620718002319 -1.3954035043716431 -1.1877187490463257 -1.4990484714508057 0.2804108262062073 -0.0750308036804199 -0.2515347898006439 1.1928615570068359 0.2446258068084717 -0.4168514311313629 0.2936502397060394 -0.5069763064384460 -0.1077411398291588 0.5627231001853943 0.8603487610816956 0.3549977838993073 -1.2510426044464111 0.4287855327129364 0.2179957628250122 0.4492441117763519 2.3261811733245850 1.4627429246902466 -0.3968062102794647 0.0977802947163582 1.2354285717010498 -0.1730788648128510 -0.2339702844619751 -1.1401666402816772 0.5224569439888000 0.5367174148559570 -0.3205730319023132 -0.8606489896774292 -1.3499153852462769 -0.6963053345680237 1.1358344554901123 -0.4282743036746979 -0.3330468237400055 0.1560795009136200 1.4089131355285645 -0.2921019494533539 -0.2233470082283020
0.9638971686363220 2.6822731494903564 1.0168387889862061 -0.0049764197319746 -0.4339217245578766 -0.4302240312099457 0.7988544106483459 -0.7816099524497986 0.3737302720546722 0.1447726339101791 -1.1297694444656372 -1.6497721672058105 -1.2108353376388550 0.1188570111989975 0.1680060327053070 -2.2183587551116943 -0.4137221276760101 -1.8734610080718994 0.0640443563461304 0.0403418801724911 -0.8171728849411011 -0.1004711613059044 -1.3339117765426636 0.1733577847480774 0.2319453507661819 -2.8104622364044189 -1.0870631933212280 -1.2099071741104126 1.2894265651702881 -1.1218483448028564 1.4800447225570679 0.2890261113643646 1.2083272933959961 0.2882486283779144 0.6858817338943481 -0.2080758661031723 1.3208626508712769 0.4832685589790344 -0.7205668687820435 0.0086086001247168 -0.5757936835289001 -0.0592526867985725 0.1921265423297882 -1.4651783704757690 1.4084357023239136 -0.5643122196197510 0.3106057941913605 -0.9846995472908020 -0.1232594251632690 0.5696458220481873 0.4691750407218933 -0.9997160434722900 -0.4551752507686615 -2.0637626647949219 0.2424311041831970 0.3750995397567749 1.0919063091278076 -0.5790387392044067 -0.4220819473266602 1.0531361103057861 0.2429566681385040 0.6847189664840698 0.5332546830177307 -1.2818706035614014 -0.7038530111312866 -0.3079331517219543 0.3892367184162140 -0.4339187443256378 0.9196804165840149 0.7583868503570557 -0.4542385637760162 -0.1975987106561661 -0.4897198677062988 1.4308842420578003 0.8787156343460083 -2.1132237911224365 1.3240728378295898 -0.0489538870751858 -2.7705605030059814 -1.1413023471832275 0.0483329705893993 0.5798323154449463 -0.8796078562736511 -0.4111039042472839 0.3355021774768829 0.3051815330982208 3.2876901626586914 -0.6848139762878418 -0.3649463355541229 -0.3352552056312561 1.6743139028549194 -1.0099005699157715 1.2066380977630615 -1.6313179731369019 -1.7315479516983032 0.0130003048107028 -0.2721765935420990 1.8401534557342529 0.3603853881359100 -1.1023284196853638 -0.0878413319587708 3.3500022888183594 0.6836467385292053 -0.3180232048034668 -0.1219202280044556 0.0237458217889071 -1.6573543548583984 0.3994156122207642 0.8357145190238953 0.9796800017356873 -1.9380376338958740 -0.0618988573551178 -0.7359677553176880 -0.2674003541469574 0.8837001919746399 -0.0982372164726257 -0.0447118952870369 1.5991626977920532 0.4954416751861572 -0.0967162922024727 -0.2588400244712830 0.6106929779052734 0.6725433468818665 0.7447386384010315 -0.1217257604002953 0.4798389971256256 0.1926049739122391 0.9065374135971069
0.3472876250743866 -0.9994197487831116 -0.8642215132713318 0.5726291537284851 -2.0856812000274658 2.3859434127807617 -0.3857047259807587 0.7960057854652405 0.6118320822715759 -0.7030934691429138 0.2310969531536102 -0.5797520875930786 -0.0503850094974041 0.0663595795631409 -2.2193739414215088 -0.4116033911705017 -1.7497203350067139 -0.1782439649105072 1.2620081901550293 1.6638263463973999 -2.2100815773010254 1.6726076602935791 -0.7013123631477356 -0.1015164852142334 0.5757532119750977 1.3126713037490845 -1.2060652971267700 2.0825667381286621 -0.2776384055614471 -0.5093058347702026 -1.2471439838409424 -0.7900279760360718 -0.1384816616773605 -0.5147259235382080 -0.0706260576844215 1.2178699970245361 0.4419793784618378 -0.2387010455131531 -0.2879252135753632 0.6418057680130005 0.7332767844200134 0.2985233366489410 -0.8433176875114441 0.9216986298561096 1.4435619115829468 -0.8445169925689697 0.6192408800125122 -2.0082867145538330 2.7800414562225342 -1.9025460481643677 1.4042744636535645 -0.4062538146972656 -0.1918406337499619 -0.8732664585113525 0.0867526531219482 -0.3086712658405304 -0.3144252598285675 -0.1228208988904953 -0.9539603590965271 -0.4654463529586792 -0.1112191453576088 -0.6946622729301453 0.0502230599522591 -1.2598075866699219 -1.2943291664123535 -0.7828842401504517 0.7239240407943726 -0.8049670457839966 1.6373268365859985 0.4360154569149017 0.0518179312348366 -1.6212662458419800 -0.7500639557838440 0.7517269849777222 -1.4366235733032227 0.0159368421882391 -1.5320535898208618 0.1765568107366562 -1.5392030477523804 -2.5700314044952393 -1.3230364322662354 0.6977249979972839 -1.2064119577407837 -0.0559585057199001 1.5221356153488159 -0.0031835606787354 1.0927776098251343 -1.9256913661956787 -0.8739470839500427 -2.1019258499145508 0.1130213886499405 0.6970497965812683 0.7731298208236694 0.8554177880287170 0.6986550688743591 0.7457631826400757 0.8315823674201965 1.6816879510879517 0.5618240237236023 1.2929466962814331 1.4945085048675537 2.7930848598480225 1.3724873065948486 -0.0768834128975868 0.0048932223580778 0.9406288266181946 0.0161029975861311 -0.9331337809562683 2.7218983173370361 -0.7775039076805115 1.2134400606155396 0.5860813856124878 0.1523258239030838 -0.8178369402885437 1.0879052877426147 -0.2419490367174149 0.9016010165214539 0.7088664174079895 -0.8000667095184326 -0.1987822800874710 1.1423990726470947 -1.2393654584884644 -0.3795686066150665 -0.1258710026741028 1.2156412601470947 -1.0624157190322876 -0.6361847519874573 1.3965048789978027
-0.0241984967142344 1.3227419853210449 0.9626411795616150 -2.2637701034545898 0.7924492359161377 -1.4427801370620728 0.2588475942611694 -0.3518007099628448 0.8535734415054321 -0.0384442768990993 -0.4903921782970428 -0.4673601686954498 -0.1370592266321182 -1.9778513908386230 0.0909276157617569 0.1021193861961365 -0.8238652944564819 -1.4189436435699463 0.2166035324335098 -0.1865517199039459 0.8817594647407532 -0.8493208289146423 0.5830652117729187 2.1075546741485596 0.3179360926151276 0.2406117618083954 -1.0963916778564453 0.1483090817928314 0.3602321445941925 -0.4622386693954468 -0.8480052947998047 0.8799757361412048 -0.6943477392196655 0.1260435134172440 1.5397589206695557 0.6498786211013794 0.4751834571361542 2.3936321735382080 -0.8649017810821533 0.9534393548965454 -0.7501465678215027 0.5730555057525635 0.5500380396842957 -1.7506669759750366 -1.2216395139694214 -1.0501167774200439 -0.3442835807800293 1.4233697652816772 2.4832146167755127 -0.3086089491844177 -0.1995385736227036 0.6873384714126587 0.0163475144654512 -0.0692870616912842 0.0885139182209969 -0.2477966248989105 -0.6372945308685303 -1.6117223501205444 -1.0800831317901611 -0.8339532613754272 1.7497159242630005 0.3074676990509033 -0.6624092459678650 0.8624098896980286 1.3983267545700073 2.1108167171478271 0.0434646867215633 -0.5176290869712830 1.3277568817138672 0.0970131307840347 0.4180756509304047 0.5437221527099609 0.0868859440088272 0.8012017011642456 0.5133891701698303 0.0741260945796967 0.7526876330375671 1.4626178741455078 0.9740806221961975 0.6533946394920349 0.4179429709911346 0.8636904954910278 -0.0008874435443431 -1.2686973810195923 0.6350111961364746 -1.5019447803497314 -0.8984367847442627 0.0805611535906792 -2.5183453559875488 -0.3715631663799286 0.9806091189384460 -0.5737164616584778 -0.7508257627487183 -0.1660144627094269 -0.1581102013587952 -0.2475075125694275 0.0484515354037285 -0.0655595138669014 -1.0514866113662720 0.7304739356040955 -0.1030131131410599 0.8708840608596802 -1.1866074800491333 -1.8497844934463501 0.5791969299316406 -0.0757435634732246 0.6792399883270264 0.6990015506744385 -1.2582451105117798 0.0886901244521141 0.8084103465080261 -1.2885791063308716 1.4593657255172729 -0.1282534897327423 0.4777646362781525 0.1485724747180939 0.4529486000537872 1.4122598171234131 0.5237122774124146 2.0522270202636719 -0.3149211406707764 0.9370273351669312 0.0632873848080635 -1.0882246494293213 -0.6529350280761719 0.4546085000038147 -2.2571954727172852 0.5760427713394165
-0.9970644712448120 -2.4469258785247803 1.5679697990417480 -1.2043895721435547 -1.7211236953735352 -0.4180963039398193 -2.2425076961517334 0.7127853035926819 2.6100842952728271 -1.1281446218490601 -0.2202766239643097 1.8784282207489014 -2.8452293872833252 0.0763059034943581 -0.1417916566133499 -0.0869665294885635 1.6760097742080688 -0.9725199341773987 0.2227573692798615 -0.2100613564252853 -0.0126876886934042 -0.6006333231925964 0.2782571613788605 -0.1960036754608154 -1.7564591169357300 -2.4819848537445068 -1.0031300783157349 -1.2498769760131836 0.0348190665245056 0.1196025460958481 -0.3868409991264343 0.5040277242660522 -1.4828107357025146 1.2599543333053589 -0.1108868941664696 -1.1568413972854614 0.9117485284805298 0.0401760153472424 0.6601201891899109 0.5746229887008667 0.2729527950286865 0.1640758663415909 -1.3167570829391479 -1.7677112817764282 0.5662569403648376 0.3946866393089294 -0.6141668558120728 -0.1832257807254791 0.1406498700380325 -0.1797002702951431 -1.5903204679489136 1.5998601913452148 -0.2599995136260986 -1.9682824611663818 0.3110633194446564 -0.9221484065055847 0.6313476562500000 -0.9304169416427612 -0.0332886092364788 -0.6574463248252869 -0.8448264002799988 -0.4525576829910278 0.2448073625564575 -0.3140021860599518 0.7442069053649902 1.2063955068588257 0.7646673321723938 0.1754635572433472 -0.6924011111259460 -0.7550479173660278 -0.8880040049552917 0.0891401097178459 0.1933901309967041 1.0412700176239014 -0.5457610487937927 0.3790196478366852 -0.9973263740539551 -0.4785582423210144 -0.0280132647603750 -0.5985416173934937 -1.2689993381500244 1.8666933774948120 -0.5343641042709351 0.2949348390102386 1.6991330385208130 1.9251744747161865 -0.3651857376098633 -0.3712248206138611 -1.1119102239608765 -0.6558451652526855 -0.2762014567852020 -1.1968361139297485 0.1337380856275558 2.0245239734649658 0.5350655317306519 -1.2126176357269287 0.4165995419025421 1.6894150972366333 0.6411495804786682 -0.6491669416427612 -1.1005525588989258 0.2814522683620453 -0.6277028918266296 0.4450956284999847 -0.6890195608139038 2.4518036842346191 -1.8586626052856445 0.0197894386947155 -1.2160079479217529 0.4708557426929474 0.3973655700683594 1.0725317001342773 0.9859443306922913 -0.2251541316509247 -0.6450260281562805 1.7659659385681152 -0.5356553196907043 0.8108518719673157 -1.7201774120330811 0.2425693422555923 0.4813441634178162 0.8640679121017456 -1.4443137645721436 -0.4448057711124420 0.4370685815811157 -0.8813543319702148 -0.8012911677360535 -1.4096635580062866
-1.1454244852066040 -0.6302119493484497 1.5332375764846802 1.9458380937576294 0.0310235340148211 0.8194068074226379 0.1391541808843613 -0.6827262043952942 -2.4290397167205811 0.4482338130474091 -0.0878469049930573 -0.1861651837825775 -0.5533517599105835 -0.7844194173812866 -0.3403526246547699 1.0684185028076172 0.5749101638793945 -1.2875142097473145 -1.5847477912902832 0.2994678616523743 -0.1388146281242371 0.6119732856750488 0.5623866915702820 -1.7490500211715698 -0.4732227027416229 0.3491183221340179 -1.0140058994293213 -0.8518333435058594 0.1331894099712372 0.1230496093630791 1.7084596157073975 -0.0461623705923557 0.8324828743934631 0.1244969293475151 0.6770257353782654 -0.8959527015686035 -0.6887258887290955 -1.9127852916717529 0.2616096436977386 0.8541028499603271 -0.4554881751537323 0.0229759514331818 1.9955750703811646 -2.2604098320007324 -0.3673075735569000 0.1909282207489014 1.4823081493377686 0.0377582721412182 0.4340169429779053 1.6516419649124146 -0.5048887133598328 0.2573700547218323 0.4809069633483887 -0.9039482474327087 0.6963937282562256 0.6048598885536194 0.1068288758397102 0.4127849638462067 -1.2058854103088379 -0.8287592530250549 0.8161925673484802 1.9417746067047119 -0.1363313794136047 -0.9667308926582336 0.5099110007286072 -0.2572015225887299 -1.1822224855422974 0.8091313242912292 0.1870788782835007 -0.4145792722702026 0.0345658771693707 0.9256377816200256 2.1471705436706543 0.1144140139222145 -0.1999192088842392 1.4989408254623413 -0.1987417936325073 -0.2836485207080841 -0.2293629944324493 0.2648098766803741 0.4065609872341156 -0.0633452534675598 1.1456677913665771 -0.6748021245002747 -0.7410441637039185 1.8453909158706665 1.3818738460540771 -0.6105342507362366 -1.4653459787368774 1.3532289266586304 -1.4345972537994385 -0.4083300828933716 -0.1210310533642769 0.5366319417953491 -0.1631436794996262 -0.1805259883403778 -0.2205192446708679 0.1766416430473328 0.3764286339282990 -0.2515853047370911 -0.2178474962711334 1.2052633762359619 -0.2307924628257751 2.0268332958221436 -0.5470660924911499 1.7710846662521362 0.7740712761878967 0.3854411244392395 -0.0996385142207146 -1.1789629459381104 1.1568398475646973 -0.3613866865634918 -0.4764159619808197 0.7055197358131409 1.0273728370666504 0.5632926821708679 -0.4407707154750824 0.8818996548652649 0.6201581358909607 0.5729819536209106 0.4640882313251495 -0.8177722692489624 -0.3283445239067078 1.7588104009628296 -0.4008628129959106 -0.0105007989332080 0.9406586289405823 0.4103014171123505
0.5177003145217896 1.1378068923950195 -0.4237385690212250 1.1565880775451660 -0.2801191806793213 -0.2548025846481323 0.0310654137283564 -0.0814522504806519 -2.9179823398590088 -0.4465405642986298 -1.7155416011810303 -0.7201496362686157 -0.6719265580177307 -0.2807771563529968 -0.9887523055076599 -0.0680915266275406 1.4183142185211182 0.5745827555656433 0.1532236486673355 -1.3032487630844116 -2.0969243049621582 2.0224559307098389 1.5583598613739014 -1.0610592365264893 1.8994581699371338 -0.6993001699447632 0.6821386814117432 1.1780008077621460 -0.9961539506912231 1.2715392112731934 -0.4528969526290894 1.5290977954864502 -0.4558773636817932 -1.3520567417144775 -0.4434647858142853 1.3898432254791260 -1.0609872341156006 0.4051151275634766 1.1734640598297119 -0.8155193328857422 -1.5366472005844116 -0.2487676590681076 -0.2508003711700439 0.3668991625308990 -0.8396807312965393 -0.6913603544235229 -0.8054240942001343 -1.9886330366134644 -1.2944160699844360 -1.1099121570587158 1.2724641561508179 0.6830576062202454 -1.9317344427108765 -0.2750174999237061 -0.3094332516193390 -0.3268709480762482 -0.8355094194412231 -1.6530928611755371 -0.1686487048864365 0.0875625163316727 1.3305643796920776 -0.9969171285629272 -0.6905351281166077 0.8610280156135559 0.9318654537200928 -0.2979504764080048 -1.2047475576400757 -1.1951261758804321 -0.3616017103195190 1.9273018836975098 -0.7299842238426208 -0.7722074985504150 -0.0438311286270618 -0.0261565074324608 0.4305590093135834 -1.6602717638015747 -1.5960539579391479 2.0526700019836426 -0.7502061128616333 -1.3104970455169678 -0.4038691222667694 -0.5027001500129700 0.1524072140455246 -0.1943557262420654 -0.9953784942626953 0.8662998080253601 1.9973711967468262 -0.1176666170358658 -0.5961291193962097 1.0366772413253784 0.8461934328079224 -0.7895014286041260 1.0255824327468872 -0.7230430841445923 0.5159229636192322 -1.2378169298171997 1.0319856405258179 1.4584536552429199 -0.5068822503089905 -0.9017182588577271 -0.9044930934906006 1.0972490310668945 -0.6317884325981140 1.5654376745223999 0.0479880012571812 -0.8283895254135132 0.4572393298149109 -1.6238507032394409 -0.1547913700342178 -0.8639372587203979 -0.7254717946052551 0.6605705022811890 0.6474904417991638 -1.0401053428649902 -0.6816693544387817 0.2187138944864273 -1.0565723180770874 2.0529522895812988 -0.3935646414756775 -0.0623695738613605 0.0132549274712801 -0.1325395405292511 1.3210020065307617 -0.8746514916419983 0.4919355511665344 2.4075984954833984 -1.2538191080093384 -2.6405055522918701
-0.4340814054012299 -2.3027856349945068 -0.3027480542659760 -0.1372555941343307 0.3549355268478394 -0.7252004146575928 1.4601410627365112 -0.3302905857563019 1.9371794462203979 -1.7338914871215820 0.5854926109313965 1.5014415979385376 0.0354561954736710 -0.7340942621231079 0.5285138487815857 -0.5611941814422607 -0.7774493098258972 -0.6956857442855835 -0.1873800754547119 -0.2855142056941986 0.7928810715675354 0.1489150822162628 1.6211289167404175 0.2927834987640381 -0.8437430858612061 0.5568577051162720 2.2277631759643555 0.9144549965858459 -0.2709493637084961 -1.1836147308349609 -0.0797256678342819 -0.4476200640201569 0.2518829703330994 -0.8979006409645081 -1.1006979942321777 -1.2082433700561523 -0.7281967997550964 -0.1214902922511101 -0.1488553434610367 -1.4812587499618530 -1.4084252119064331 -2.2098906040191650 0.6011669039726257 -0.6106178164482117 -0.2849453389644623 1.1739983558654785 -0.1320779919624329 0.4926533699035645 0.2069377899169922 0.9613726735115051 0.7451087832450867 -0.1519811600446701 -0.4547253549098969 0.3611624836921692 1.2703684568405151 1.7857247591018677 -0.8370741605758667 0.1067817136645317 0.5912926793098450 -1.3370994329452515 0.0607079602777958 -1.2971422672271729 -1.0846409797668457 -0.2002162635326385 0.2194858342409134 0.3186963498592377 -0.6466992497444153 -0.2083936929702759 0.1356541067361832 -1.5785779953002930 -0.3416250348091125 1.3283507823944092 -1.1244120597839355 0.2499810308218002 -0.5778178572654724 0.6548785567283630 -0.9410055875778198 0.5079455971717834 -1.2707912921905518 0.5929619669914246 -1.5102652311325073 0.2645021378993988 -0.1104837730526924 -0.8299814462661743 0.8621058464050293 -0.0774600729346275 0.7947835922241211 1.2887003421783447 0.1509095579385757 -0.6848405003547668 -0.0526887439191341 -1.0649297237396240 -0.2119409888982773 0.4404209852218628 -0.5359748601913452 -0.5026243925094604 1.3439874649047852 -1.1885914802551270 -0.9147624373435974 -0.5088416934013367 -1.2106764316558838 0.8090676665306091 -1.2029327154159546 -1.1911505460739136 0.2578108906745911 0.4537421166896820 1.7004200220108032 -0.9350901842117310 -0.8611739873886108 -0.8137386441230774 -0.3261071145534515 3.0516951084136963 -0.4392535984516144 -0.8624285459518433 0.4414611458778381 1.1476541757583618 -1.2643405199050903 0.3831286132335663 0.5678604245185852 0.7580536603927612 1.2765687704086304 -0.3118804693222046 -0.5362820029258728 0.0161310620605946 -0.4840958714485168 -0.5025829076766968 0.6377469897270203 0.4180957973003387
0.9953033328056335 -0.8011655807495117 0.6208986639976501 -0.1509179025888443 -0.6484834551811218 1.0087733268737793 -0.6134066581726074 -0.2123837620019913 -0.5926415920257568 1.2508393526077271 0.6587129831314087 -2.6635773181915283 0.7238178849220276 0.9654651284217834 -1.2090704441070557 1.3087593317031860 -0.7425692677497864 1.1209470033645630 -0.0658627226948738 -0.3894828259944916 0.7332428097724915 2.1871762275695801 0.2572972178459167 -1.4172085523605347 0.2428109198808670 0.0280724167823792 -2.0026569366455078 0.6493860483169556 0.1095361262559891 -0.4597534835338593 1.0364878177642822 0.0841423422098160 0.5140076875686646 -0.7386463284492493 0.1746742427349091 -0.3794789314270020 -0.0362551435828209 -1.2858690023422241 -0.2849359810352325 -1.2015271186828613 -0.1944028884172440 -0.2780752182006836 -2.1624836921691895 -0.8466899394989014 0.4695364832878113 -0.1195086240768433 -0.0782851502299309 1.4930609464645386 -1.7509728670120239 1.9262729883193970 -0.1738432943820953 0.3379115760326385 0.1508568376302719 -0.0444895811378956 -1.2551472187042236 1.3416908979415894 0.0506472885608673 -0.8319757580757141 1.0460444688796997 1.6186932325363159 0.8646227121353149 -0.7735332250595093 -1.5045042037963867 -0.9437261819839478 1.6402167081832886 -1.0659983158111572 -1.0164453983306885 -0.1588745713233948 0.7058580517768860 0.3956502377986908 0.4354306757450104 -1.6437821388244629 -1.6513571739196777 -0.5684038400650024 -0.2226205915212631 0.9115985035896301 1.6299321651458740 1.2326316833496094 1.9371422529220581 -0.1357747912406921 0.3227056562900543 -0.1578588187694550 1.2772381305694580 0.4415762722492218 -1.6231687068939209 0.6733248829841614 0.1309527307748795 -0.0515398420393467 1.0487807989120483 0.5380837321281433 -1.6263782978057861 -1.1244879961013794 0.4538536965847015 0.7534033656120300 -1.1843920946121216 0.0738490447402000 -0.2164128869771957 -0.5911294221878052 1.4604042768478394 1.7037713527679443 -0.0367560349404812 -0.5673582553863525 0.0440530963242054 -1.3633838891983032 1.2241405248641968 0.2668906152248383 -0.1604084670543671 -0.4017359614372253 -1.3953005075454712 0.6708044409751892 0.6926294565200806 0.2941203415393829 0.2293665558099747 -0.8991183638572693 0.0074286232702434 1.5058768987655640 0.4070627987384796 0.5575438141822815 1.2782092094421387 0.6642897129058838 0.6697411537170410 -0.2820210158824921 0.3841558098793030 -1.2729201316833496 0.5969389081001282 1.3114260435104370 -1.3455582857131958 -0.2082549929618835
-0.0188981052488089 -1.2490432262420654 -0.4147945642471313 -0.7315294742584229 0.7124044895172119 -0.3730278313159943 0.7511487007141113 -1.4451847076416016 -0.8320400118827820 -0.7650481462478638 -2.0230460166931152 -1.0975861549377441 1.5483156442642212 -1.5431905984878540 0.8076643943786621 0.7041380405426025 1.5755832195281982 -1.9196039438247681 0.0129452664405107 0.1489103436470032 -1.2290145158767700 0.7816959619522095 0.1027089133858681 -1.9506775140762329 -0.7031626105308533 1.7896809577941895 0.8148416876792908 -1.7587839365005493 0.0104476390406489 0.3853873908519745 0.7508369684219360 0.7000648975372314 -0.2614855766296387 -0.0084809390828013 -0.7550106048583984 -0.2043174505233765 1.6074604988098145 1.4629782438278198 -0.1682286709547043 -0.7475637197494507 -0.1721684634685516 0.5066285133361816 0.9689128994941711 -0.1344996541738510 0.1576593071222305 -0.7181133031845093 -1.1682257652282715 -0.4222994446754456 -0.1052164807915688 1.1523449420928955 -0.4359125494956970 0.3927767872810364 0.2882236838340759 -1.4677906036376953 0.7664831280708313 1.1718155145645142 -1.0219911336898804 -0.6515469551086426 1.2211091518402100 0.6185400485992432 0.2674594521522522 -2.2029204368591309 -0.1361137330532074 -0.9704089760780334 0.1486470848321915 -0.7671929597854614 0.2181014567613602 -1.6475100517272949 -0.1981900483369827 -0.1977767199277878 1.6017771959304810 0.2585394084453583 -1.1563845872879028 0.2429330497980118 -0.4413005411624908 -0.3909813463687897 1.1772910356521606 -0.4809540510177612 1.6131112575531006 0.1389528214931488 -0.8762202262878418 -0.6158195137977600 -0.9384068846702576 -0.5943180322647095 0.5181382298469543 1.5478988885879517 -0.0704839751124382 1.3237390518188477 -1.0654931068420410 -0.6258978247642517 1.1577094793319702 0.2891247570514679 0.0832552760839462 1.4745160341262817 0.1450897604227066 -0.5485883951187134 0.5017658472061157 -0.6163508296012878 0.1563286483287811 -0.5666275024414062 0.1312371343374252 0.7315219044685364 0.3219721615314484 -0.6099022626876831 0.5658029317855835 -1.1379940509796143 -0.0170507244765759 1.2260348796844482 -0.3787265419960022 0.3398842513561249 -0.2477054446935654 -1.6547324657440186 -1.8095192909240723 -0.0336740687489510 1.7198445796966553 0.9345316886901855 -1.7385051250457764 0.8644971847534180 0.9752237796783447 1.5243539810180664 1.2756626605987549 -0.2489502578973770 -1.4875885248184204 0.2820940017700195 -0.1042656600475311 0.8209640383720398 2.1358895301818848 -0.4948728382587433
-0.7612804174423218 -0.9497784972190857 -1.5170421600341797 -0.0853690877556801 0.5739883780479431 -0.6084427237510681 -0.3699620962142944 0.4031063020229340 0.3791162073612213 -1.1204944849014282 0.8522225022315979 -1.1722782850265503 0.4421892166137695 -0.3084784746170044 -0.0218824911862612 0.4229914546012878 0.5002056956291199 -0.6707701683044434 -0.3532678186893463 -0.0836450830101967 -0.7739771008491516 -1.3077393770217896 0.2216629087924957 -0.1037557199597359 -0.1895533651113510 0.1258830279111862 -2.2937400341033936 0.5998595952987671 -0.2431118786334991 0.4179706871509552 0.6613008379936218 1.3410905599594116 -0.0434552319347858 -0.2947017848491669 0.3440884053707123 1.3406738042831421 1.4286552667617798 0.8278657793998718 0.8199915289878845 -0.1179094612598419 -0.1078018397092819 -1.6510444879531860 0.9673889279365540 0.2189716696739197 0.7179455161094666 -0.3960895538330078 1.7600270509719849 -0.9341875314712524 -0.1959947049617767 -1.3307349681854248 0.3570900559425354 -1.4573849439620972 0.7123691439628601 -0.1766879707574844 -0.5184536576271057 1.1548011302947998 -0.0678582936525345 -0.4684371948242188 2.3392391204833984 -1.9591710567474365 -0.5182669758796692 -0.6698170304298401 0.9088425636291504 -1.4147866964340210 0.3203011751174927 1.3951183557510376 1.8085558414459229 0.6071487069129944 -0.9287455677986145 0.0221242122352123 -0.3198873698711395 -0.1455274820327759 0.1678752154111862 -0.2154606431722641 -0.6057001352310181 0.3757126033306122 -0.2639636993408203 0.4419526159763336 -1.3124508857727051 -0.5115501880645752 0.1933619529008865 2.2105808258056641 -0.4980101883411407 0.1284444183111191 -2.7437653541564941 -0.9416823387145996 1.5999754667282104 -0.8636320233345032 0.8907283544540405 0.7539530992507935 0.3976134657859802 0.8551357984542847 -0.8400974273681641 -1.2103307247161865 -0.4419510960578918 -1.2027819156646729 1.1864019632339478 0.1499615907669067 0.2064429968595505 1.1608203649520874 -1.0295810699462891 -0.6223840713500977 1.3427063226699829 0.2395066469907761 -1.0993748903274536 0.2470197379589081 0.5327315330505371 -0.2619795799255371 -0.0545091591775417 -0.7209916710853577 0.6170959472656250 1.1354645490646362 -0.0238085947930813 0.5555623173713684 0.3508637249469757 0.3076445460319519 -2.7297093868255615 -1.1008746623992920 0.1034233868122101 -0.2097902446985245 -0.5503098368644714 0.1800232380628586 0.5467094779014587 -0.2360572814941406 -0.9311423301696777 0.8981484770774841 1.0956497192382812 -1.4477381706237793
-0.5832629799842834 -0.1471996754407883 0.8812741637229919 -1.0620850324630737 -0.3418271243572235 1.1451709270477295 -1.1530766487121582 0.6118605136871338 -1.7695469856262207 0.7320559024810791 -0.1406464278697968 -0.8687188625335693 0.7494826316833496 0.2941055595874786 -0.7995941638946533 -1.1014792919158936 -1.0598795413970947 0.9955375790596008 -0.3646793961524963 1.3309469223022461 -0.5675476193428040 -1.9115722179412842 -0.0718616172671318 -0.8642349839210510 0.2772462069988251 1.3205382823944092 -0.6796492934226990 -0.1477342247962952 -1.1298338174819946 1.6165809631347656 -0.9280732274055481 -0.7599651217460632 -1.3195461034774780 -0.2294667065143585 1.1120043992996216 -1.2141287326812744 -0.0236062258481979 -2.4548356533050537 -0.0747815519571304 0.6305072307586670 1.4050912857055664 -0.3245997428894043 -1.9775688648223877 -0.8340461850166321 1.1183146238327026 -1.0130736827850342 -0.6946473717689514 0.2654694616794586 -0.9469417333602905 -1.9323436021804810 1.2460581064224243 0.2694575488567352 0.7864406108856201 1.2921767234802246 0.0740785971283913 0.6553698182106018 -0.7113015055656433 -1.0478386878967285 0.0362080074846745 -1.3265951871871948 -0.5854699015617371 -0.4603103697299957 -0.6626470088958740 1.3521306514739990 -1.8312537670135498 -0.4243506789207458 -1.1872111558914185 -0.5714457631111145 0.7849616408348083 -0.5683263540267944 0.2127262800931931 -1.5237843990325928 -0.4598469436168671 2.3530931472778320 0.6852560639381409 1.4502335786819458 0.9665198326110840 0.1001377850770950 0.8610267639160156 0.9596890807151794 1.2482249736785889 -1.5819022655487061 0.3378058671951294 -0.3049949705600739 2.0310804843902588 -0.5322502255439758 0.1877065449953079 -0.0073514208197594 -0.3047108352184296 2.5502831935882568 0.2468094527721405 -0.2985324263572693 0.8452994823455811 -0.2572667002677917 -2.3152894973754883 -2.7243447303771973 0.2495668530464172 1.3435617685317993 0.5177164077758789 2.6247851848602295 -0.6542289257049561 0.1514559686183929 0.4178752899169922 0.2892755568027496 -0.4501331150531769 1.6721704006195068 1.5709264278411865 0.4464751183986664 0.7525731921195984 -0.2675619125366211 0.0029043408576399 -0.9922893047332764 -0.6214568018913269 -0.1326654106378555 0.3402783870697021 -1.8311178684234619 0.9876982569694519 -0.6288130879402161 0.1772664040327072 0.0747443884611130 1.7237012386322021 -1.3002432584762573 0.4038879573345184 1.1805479526519775 -2.1291918754577637 1.5907887220382690 -0.3176475465297699 0.2829865813255310
0.2865290343761444 -0.0463683828711510 -0.2218609154224396 -1.1733229160308838 0.1307985484600067 -0.3855676651000977 1.8777086734771729 -1.7677046060562134 2.0742371082305908 0.3086330592632294 0.0305471532046795 0.1574334502220154 -0.2665070891380310 -0.7614700794219971 1.1980690956115723 -0.8797424435615540 -1.2841151952743530 -0.1601505428552628 0.7888702750205994 -0.2412647306919098 0.8869093060493469 1.7255784273147583 0.0796434804797173 -0.6768435239791870 -0.5389865040779114 -0.2628906965255737 -0.6133337020874023 -1.2539604902267456 0.9188844561576843 -0.7880787849426270 -0.3364134132862091 -0.8701595067977905 1.1714991331100464 0.8483114242553711 -0.2487835139036179 -0.2225385010242462 0.5493600964546204 -0.1475443392992020 0.3545111417770386 1.1661989688873291 -1.4723222255706787 0.0661276578903198 -1.1146558523178101 -0.8406381011009216 -0.3899546563625336 -0.6585207581520081 0.6637752652168274 1.5813581943511963 -0.0411608703434467 0.0030665632802993 -0.5106128454208374 0.7199667692184448 0.6365148425102234 -1.6414879560470581 -0.1482802778482437 -0.4990762472152710 1.7328437566757202 -0.7339059114456177 -0.3029811978340149 -1.2479966878890991 0.1260406374931335 0.6773903369903564 1.5706565380096436 -0.5989000201225281 1.4353528022766113 -2.4101321697235107 -0.2164457589387894 -0.3039886057376862 1.6679147481918335 -0.3127136826515198 0.4476280212402344 -1.3867311477661133 -0.7672990560531616 0.1096167117357254 0.1867355406284332 0.3976240754127502 -0.6301720738410950 -1.2535392045974731 -0.4210957884788513 0.1382995694875717 -1.4651792049407959 0.2111671119928360 0.7586801648139954 0.4772358536720276 0.5548196434974670 2.2635052204132080 1.5648206472396851 -1.1933083534240723 1.3784328699111938 1.5442070960998535 1.0608768463134766 -0.9213136434555054 -1.6190237998962402 -0.6829807162284851 0.3566507399082184 0.6690853834152222 0.3297640085220337 -0.4568842351436615 1.1876099109649658 -0.1121987476944923 -1.1519448757171631 -0.2042373269796371 -0.3990887701511383 -0.1119271740317345 -0.5207209587097168 -0.8869132399559021 0.3671934604644775 0.2005162239074707 -0.0659561678767204 -0.0891849398612976 -0.2620454728603363 -0.7211994528770447 -1.3544937372207642 1.4869517087936401 -0.8132297992706299 0.7683839201927185 0.2948688566684723 -0.7544667720794678 0.1455252319574356 -1.7914452552795410 0.3272062838077545 -1.1056859493255615 -0.2602177858352661 -1.0129998922348022 0.2126397788524628 0.8836397528648376 -0.7031893730163574 -1.2875589132308960
-0.1314295232295990 0.0568397082388401 -0.5286647677421570 0.1793638765811920 -0.8595265150070190 -0.3577046990394592 -0.7470228075981140 0.1983048170804977 0.6184222698211670 1.2269448041915894 -2.3923692703247070 0.1123376190662384 0.3601497113704681 -1.1050312519073486 -0.7436069250106812 1.9872950315475464 0.1296015083789825 0.2124063968658447 0.6910951733589172 0.1331555247306824 1.9666730165481567 -1.7142794132232666 -1.0119469165802002 1.1581001281738281 -0.5288325548171997 -0.2831304967403412 0.0918899327516556 -0.0189229585230350 -0.2898534834384918 0.0334662161767483 1.4143464565277100 0.1244625821709633 -1.8408266305923462 0.4206317663192749 0.7070626020431519 0.3425571024417877 -1.7877385616302490 -0.3617203235626221 0.0243573058396578 0.3473889827728271 -1.2137920856475830 1.8810375928878784 -0.0352150127291679 0.3239641487598419 1.1690320968627930 -0.4283173978328705 -1.0415284633636475 -1.4564052820205688 2.1490731239318848 -0.5780277848243713 0.8021308779716492 -1.2236490249633789 1.7568440437316895 -0.3964931964874268 0.7766199707984924 0.5226235985755920 -0.3673575520515442 0.3059838414192200 -0.6483178138732910 -0.0452227555215359 1.3631421327590942 -1.4218246936798096 0.7908756136894226 -1.1293830871582031 0.1650616675615311 0.8532987236976624 0.1541718244552612 0.5594365596771240 -0.5468190908432007 0.5878414511680603 0.4155611991882324 -0.4346877634525299 -0.0865746662020683 0.4466012418270111 0.3102678060531616 0.4521935284137726 -0.6862132549285889 1.1410762071609497 1.4882141351699829 -1.1177052259445190 0.0937858074903488 0.6335036754608154 -0.2584738433361053 0.5305280089378357 -0.0490068010985851 -0.0996706485748291 1.1931326389312744 -1.0086091756820679 0.0624792054295540 0.8958892822265625 -0.3583258092403412 2.7109959125518799 -2.0412144660949707 -0.4727383553981781 -1.6822999715805054 1.0368123054504395 0.5995834469795227 -0.9888289570808411 -1.4179192781448364 -0.0359242036938667 -0.6281849741935730 -1.0949324369430542 0.7972331047058105 1.1098110675811768 0.7104991674423218 -0.5612357258796692 1.0680882930755615 0.4897035062313080 -0.5515473484992981 -0.7271678447723389 0.2025468349456787 -0.5591582059860229 -0.5774034857749939 1.4738968610763550 -1.7752487659454346 0.2385949492454529 1.2041238546371460 1.3689618110656738 0.3926959931850433 0.4885770976543427 -0.5074358582496643 -1.5011353492736816 -1.3359953165054321 2.6173760890960693 0.5930398702621460 0.3212715089321136 -0.2564428448677063 0.0574681535363197
0.0529261641204357 -0.4417788684368134 1.2435631752014160 -0.5980674028396606 0.3715038895606995 -0.0919395834207535 2.1836774349212646 -0.9801396727561951 -0.4007439315319061 1.0015631914138794 0.1354527771472931 -0.9348259568214417 -0.3730552196502686 0.1361517161130905 0.0331438705325127 -2.2280483245849609 0.3124512732028961 1.0611190795898438 -0.7457475066184998 -1.2858002185821533 -0.7215959429740906 0.7789971828460693 -0.4719209969043732 0.5751285552978516 0.0368068106472492 -0.9261511564254761 -1.1134675741195679 -0.1103465631604195 0.9254314303398132 -2.0916683673858643 0.4869983494281769 -0.0407439693808556 0.2100992500782013 -0.9090579152107239 2.5604591369628906 -0.8480396270751953 -0.2059243768453598 -0.7572463154792786 -0.2478251755237579 -0.1802029460668564 -0.0570289529860020 0.5754173994064331 0.6799123287200928 -0.0832950025796890 0.6956611871719360 0.4824166595935822 -0.0278391651809216 0.4271105229854584 -0.0166108328849077 0.7838966250419617 0.9563618898391724 -0.3521387279033661 0.6801261901855469 -0.7549102902412415 0.1980623602867126 -0.2094815224409103 -0.1767465025186539 1.6725311279296875 -1.6179692745208740 -0.6397907733917236 -0.7254314422607422 0.2491736859083176 1.4265834093093872 0.0912651196122169 0.2680023014545441 0.0027022382710129 0.4957373142242432 -0.6908652186393738 -0.6116720438003540 0.5859105587005615 -0.0916894897818565 -0.9981546401977539 -0.5873212218284607 -0.3498599231243134 1.7693216800689697 0.1678319275379181 0.2294486463069916 0.5054474472999573 0.2772410213947296 0.0969249829649925 -0.2701708674430847 1.0461897850036621 -0.2119200527667999 1.5260429382324219 -1.6696109771728516 1.2161766290664673 -0.1719053685665131 -0.1109095737338066 -1.0879162549972534 -0.6813360452651978 0.3077085316181183 -0.9532502293586731 -0.5280584096908569 0.0006184127414599 1.1590306758880615 -0.5075022578239441 0.1507030874490738 -0.2957811057567596 -0.9906846880912781 0.4246205389499664 -0.5339456796646118 -0.1485288441181183 0.1434127688407898 0.9367542266845703 1.1856498718261719 2.1867754459381104 -0.6095812320709229 1.2694545984268188 -0.9310634732246399 2.2290875911712646 0.2241521477699280 1.1691741943359375 -0.9743525385856628 -0.7587584257125854 1.7135312557220459 -0.2706930041313171 -0.2753783166408539 1.4743773937225342 -1.0094665288925171 0.0642343536019325 0.4056711494922638 0.4168289601802826 0.0529136098921299 -0.8004423379898071 -0.7929463982582092 -0.2711312770843506 0.5033691525459290 0.5562174320220947
1.1365998983383179 0.1269618719816208 0.3254767954349518 -0.0342162512242794 -0.7048558592796326 0.9040342569351196 -0.1499660313129425 -0.7878397703170776 0.3264110684394836 -1.3477742671966553 -0.0663218945264816 1.6723088026046753 2.3313460350036621 -0.0125429909676313 0.6307086944580078 -0.6712771654129028 -0.4104381799697876 1.3083727359771729 -0.3587669134140015 -0.8424137234687805 -0.4878002405166626 0.3244146704673767 1.0568320751190186 -1.3025165796279907 -0.3880069255828857 -0.1491679698228836 0.8031445145606995 -0.1556391716003418 1.8730143308639526 -0.2658275365829468 -0.6550325751304626 0.6709533929824829 2.8966262340545654 -0.2153306007385254 1.3851218223571777 0.9582071900367737 -0.2695697247982025 -0.3195974528789520 -2.3220565319061279 0.9579546451568604 -1.4200146198272705 1.0190527439117432 1.1020921468734741 -1.0257965326309204 0.7536507844924927 0.0135998958721757 0.2237051129341125 0.0501371137797832 0.6643971800804138 0.6798508167266846 -0.2859255969524384 1.0200372934341431 -0.4875519573688507 -0.6197295188903809 -0.9885923266410828 1.4915956258773804 0.1903140991926193 -0.4980644583702087 -0.6743309497833252 1.0407669544219971 0.2786334455013275 -0.2268912047147751 0.0378229804337025 -0.1478838324546814 0.6601368784904480 0.7676283717155457 0.7502019405364990 0.1962812691926956 -0.2819628715515137 1.2858216762542725 0.8253559470176697 -0.4244744479656219 -0.7440601587295532 -3.1603679656982422 -1.1653778553009033 1.4840648174285889 0.7571876645088196 -1.8161618709564209 -0.5969903469085693 -0.3303827047348022 -0.1812008470296860 -0.7577716708183289 0.0769914910197258 0.2973833680152893 -0.4739439487457275 0.7534636855125427 0.4974470436573029 -0.4724015593528748 -0.6897099018096924 0.2639735937118530 -0.2830900251865387 0.2491915971040726 0.4372797906398773 -0.1307109743356705 -0.8619273900985718 0.7467111945152283 1.6886789798736572 1.6470210552215576 -0.4022220671176910 1.1894150972366333 1.4299697875976562 -0.4030559360980988 0.3841299712657928 0.9380095601081848 0.3338754475116730 -0.4957692027091980 -0.1369582563638687 -0.3876073658466339 -0.1103363335132599 0.4218864440917969 -0.9493128061294556 0.5235813856124878 1.7167434692382812 1.1861348152160645 0.2672364115715027 -0.2328454554080963 0.6383173465728760 2.8532040119171143 -0.6313489079475403 -0.7094137668609619 -0.2931046485900879 -0.0403968095779419 -0.3187026977539062 0.7346335053443909 0.4976156651973724 -0.2951402366161346 0.0398114658892155 1.9701448678970337
-0.5723312497138977 -0.5651229619979858 -1.5249145030975342 0.2565944790840149 -0.3083830475807190 1.7349736690521240 0.3601553738117218 -0.9176521301269531 0.4580270349979401 -1.1621477603912354 -1.1124639511108398 0.6273592114448547 -0.1468591690063477 0.4340590834617615 0.7070236206054688 -0.7526202797889709 0.6291918754577637 0.3375911712646484 0.1399833709001541 0.4130502045154572 -1.9725389480590820 1.1617125272750854 -0.4694917201995850 0.2953462004661560 -0.7566510438919067 2.2926707267761230 1.1857678890228271 -0.3665687143802643 1.5790891647338867 0.1166593059897423 -0.5978223085403442 0.9663104414939880 -0.4889414906501770 -1.3064080476760864 -1.7337999343872070 0.3297397792339325 -0.0924257785081863 -0.0134477615356445 0.8720940351486206 0.6306352019309998 0.9474925398826599 0.9249679446220398 -0.6854697465896606 -0.8930145502090454 0.5845813155174255 0.6439512372016907 -1.7401083707809448 0.7116762995719910 1.0611215829849243 0.4293874204158783 0.2373739928007126 1.1620386838912964 1.1961213350296021 -0.3609220981597900 -0.2570006251335144 0.7879015207290649 0.9382018446922302 -0.7368689179420471 -0.2661612927913666 0.5942013859748840 -0.1647089421749115 1.1056529283523560 0.1834550201892853 -0.7895938158035278 0.3103384077548981 -0.4241864681243896 0.3765279352664948 -0.2063721716403961 -0.5924545526504517 -2.0288987159729004 -0.9353590607643127 1.0911865234375000 0.1970028579235077 -0.0531311817467213 0.3799315690994263 0.7237658500671387 0.6357665657997131 -0.3833372890949249 0.1683344691991806 1.4015851020812988 2.2221601009368896 -0.2887898087501526 -0.2949820458889008 1.7629152536392212 1.6088541746139526 1.3068172931671143 -0.0633038282394409 0.7356051206588745 0.4956447780132294 -0.1944062858819962 1.3136483430862427 0.8229382038116455 0.0485782548785210 -0.7616468071937561 0.8612341880798340 0.3300498723983765 -1.1450833082199097 -0.3000590503215790 -0.7718235254287720 0.6481135487556458 -0.6117569208145142 2.1567277908325195 0.9956174492835999 0.2157969325780869 1.0161246061325073 -0.6014270782470703 1.4009077548980713 0.0804455131292343 -0.0804773718118668 1.0680733919143677 -0.1006424129009247 -0.2829769253730774 0.4762221574783325 1.5406657457351685 0.9825586676597595 -1.3245155811309814 -0.6224285364151001 2.2758650779724121 -0.5365766286849976 -0.2880085706710815 -0.3969971835613251 0.3224936425685883 1.1085408926010132 0.9325349926948547 0.8918683528900146 1.2229278087615967 0.0001413164718542 -0.0736888274550438
0.4661072492599487 0.8851132392883301 0.6557126641273499 0.0691211819648743 -1.0067760944366455 1.7928379774093628 -0.4566577374935150 0.3861253857612610 1.0450828075408936 1.5997501611709595 2.8154985904693604 1.7239897251129150 0.2133990079164505 1.5912286043167114 0.4500802457332611 1.1056591272354126 0.1156267747282982 1.1828006505966187 -1.0505053997039795 1.5304174423217773 -1.3758879899978638 0.6121248602867126 1.0864791870117188 0.5502946972846985 -0.1989410668611526 -0.3707814514636993 2.6041843891143799 -0.3987222611904144 1.2728027105331421 -0.9421451091766357 -0.7877486348152161 -0.2404625564813614 -0.9726021885871887 -0.9687961339950562 0.5056731104850769 1.1172626018524170 -0.2275329977273941 0.6467775702476501 -1.2883632183074951 -1.4628596305847168 -1.0690566301345825 0.2616323232650757 -0.3763727545738220 1.4755190610885620 0.2896866500377655 1.6111453771591187 -0.8701472878456116 -0.2843986153602600 -1.4356400966644287 -1.0383133888244629 1.1362254619598389 -2.0754768848419189 0.6692916154861450 -0.1556054949760437 0.1337898820638657 -1.2982251644134521 0.0234589949250221 -1.3678306341171265 -0.6164263486862183 0.6817584037780762 -0.5313661098480225 1.3377077579498291 0.2159905880689621 -0.2815086841583252 -1.0426943302154541 -0.1540153771638870 2.0440139770507812 -0.0044516134075820 2.1741178035736084 1.2610555887222290 1.2919059991836548 0.1766533553600311 -0.0931154787540436 1.9561871290206909 -0.1112797856330872 -0.5666791200637817 -2.0696322917938232 -1.3907825946807861 1.4732236862182617 -0.7977259755134583 0.1545616835355759 -0.6109958887100220 1.1367726325988770 1.2257376909255981 0.1559600830078125 2.4967122077941895 2.2449483871459961 -0.0525925308465958 0.3102023303508759 -1.0918463468551636 0.2295317053794861 -0.7164301276206970 0.5151538848876953 -0.2136640250682831 -2.2547433376312256 -1.0535577535629272 1.4629057645797729 0.4903884232044220 1.9814248085021973 0.0342059694230556 -0.7278156876564026 0.9510910511016846 0.4154697060585022 0.6738802194595337 0.1775590479373932 1.7112525701522827 1.3388309478759766 0.1240111142396927 -1.3085300922393799 -1.6681427955627441 -1.5619182586669922 -0.6516047120094299 -0.2449013292789459 0.2042698562145233 0.0720973983407021 -0.0732453167438507 0.7799075245857239 0.6749594807624817 0.3906955122947693 1.4680191278457642 -0.6619219183921814 -0.0379027239978313 0.7765148282051086 1.0621322393417358 -0.4225512146949768 -1.4381901025772095 -0.4196287989616394 0.7405359148979187
2.0193018913269043 -0.6226391196250916 -0.5887115597724915 0.1328942030668259 0.3223039805889130 0.8107036948204041 -0.9600716829299927 -0.2931341230869293 -1.8842605352401733 0.4893234670162201 0.2134642452001572 0.5745520591735840 -0.8675791025161743 0.0277393776923418 0.0273596588522196 -0.3966027796268463 1.3696655035018921 -1.8101541996002197 -0.8139671683311462 0.5833755135536194 1.5245018005371094 0.8378802537918091 -0.6512177586555481 1.4683617353439331 2.0324954986572266 1.5771315097808838 1.3831591606140137 0.8346207141876221 1.1460446119308472 1.1574889421463013 0.9180965423583984 0.7726902365684509 -0.3101473450660706 -2.4140019416809082 -0.0717029497027397 1.4912527799606323 1.2201691865921021 -1.4408655166625977 0.7636219263076782 -0.3451184630393982 0.4579561352729797 -0.0358930267393589 0.5248001813888550 -0.4734351038932800 -0.3495399653911591 0.9203616380691528 1.0104178190231323 0.5893232226371765 0.5928810238838196 0.0788687840104103 2.7061843872070312 -0.3127601444721222 2.3490788936614990 -0.4817427098751068 -0.2599779665470123 0.2388089448213577 0.6242155432701111 -0.4523942768573761 -1.4190889596939087 1.2691256999969482 0.3476950824260712 -2.1500456333160400 0.4217437505722046 0.6455516219139099 0.5863822698593140 -0.6250717043876648 -0.7149122357368469 0.0007583058322780 2.3071389198303223 -1.0499593019485474 0.2615520060062408 -0.7614736557006836 -0.1383701115846634 -0.4864116609096527 -0.7795668840408325 -0.0162829402834177 -0.0377413332462311 -2.5016248226165771 -0.6937528848648071 -0.6441699266433716 -0.3547916412353516 -0.3811946511268616 -2.3152406215667725 -0.2054921537637711 0.1180533096194267 0.0317320749163628 -0.5864458084106445 -0.7014213204383850 -0.2575003504753113 -0.4475081562995911 1.2571792602539062 1.4241558313369751 0.9482688903808594 1.8800733089447021 -1.4975287914276123 0.8355005383491516 -0.5553172826766968 -1.7991402149200439 -1.2059941291809082 1.5899338722229004 -0.0272590741515160 0.7192981839179993 0.4021012187004089 0.4369051158428192 0.7708864212036133 -0.8783062696456909 2.0702369213104248 1.6544427871704102 -0.4715134501457214 1.9099285602569580 -0.2207938879728317 -0.2319551259279251 -0.9177503585815430 0.5457552075386047 -1.1788687705993652 -0.5590247511863708 -0.6461392045021057 1.2204637527465820 -0.3405145108699799 -0.7828162908554077 0.4376423656940460 0.1005576401948929 -1.0744186639785767 0.9072715640068054 0.3132840991020203 1.8992965221405029 1.1708407402038574 0.0958413034677505
0.8128476142883301 -0.3204029500484467 0.5571259260177612 -0.0660190656781197 0.0565534196794033 2.5366723537445068 -0.9042354822158813 -1.2744268178939819 -0.2681981623172760 -2.5274028778076172 0.4577756822109222 -0.6572596430778503 -0.5434637665748596 1.5264087915420532 -0.0874187946319580 0.6210038661956787 0.5504899621009827 -0.0030636144801974 -0.6756955981254578 -0.6358988881111145 -0.5140635371208191 -0.4409900903701782 -2.4244611263275146 1.5782145261764526 -0.3753777444362640 -1.2585698366165161 0.8979307413101196 -0.1681900620460510 -0.0559851974248886 0.6735311746597290 0.4874345064163208 0.9110931754112244 0.2562052607536316 0.0144749982282519 0.1345685124397278 -2.6828799247741699 1.5355392694473267 0.1212901473045349 0.0475994311273098 -0.4598002433776855 -0.0790178924798965 -1.3643298149108887 -0.0743610858917236 -0.1056022420525551 -0.5798238515853882 -0.5409854054450989 -2.0309743881225586 -0.3666909337043762 0.2457851618528366 0.5425046682357788 -1.4272302389144897 -0.5037122964859009 -0.1144274845719337 0.1098606139421463 0.1519524455070496 -1.3743402957916260 1.6782993078231812 2.0446774959564209 -0.0368019826710224 1.2651772499084473 0.3151288032531738 0.5538222789764404 0.5738908052444458 -0.2078533768653870 0.2703820765018463 0.8364173173904419 0.2740679681301117 0.8004320859909058 1.5131235122680664 0.2123499810695648 2.7943098545074463 0.7774619460105896 0.0783355385065079 0.1779858916997910 -0.8495495915412903 -1.9424192905426025 2.2555935382843018 0.3539596498012543 1.1388393640518188 0.0155697390437126 -0.5493888258934021 1.0772984027862549 -0.4672054946422577 1.9478614330291748 -0.0576313100755215 2.0877823829650879 -1.6011941432952881 -1.5485805273056030 -0.9336526989936829 0.1654457598924637 0.6619265079498291 0.8385621309280396 1.6695010662078857 -0.4020259678363800 -0.8170956969261169 0.1579139381647110 0.4667127728462219 0.2979886531829834 -0.4518221318721771 0.7689923048019409 -0.9457468390464783 0.3891278207302094 0.8974088430404663 0.9890406727790833 -1.5599393844604492 -2.2493078708648682 0.9589897394180298 0.3170294463634491 0.2100861519575119 -0.4733614027500153 0.5829353332519531 0.1162161380052567 -0.8234266638755798 -1.3957928419113159 0.8240736722946167 0.0503267422318459 0.5009487271308899 2.0828456878662109 -1.7328035831451416 0.9006746411323547 0.0474992655217648 1.6610790491104126 -1.5395869016647339 -0.2639447152614594 0.8103477954864502 0.3916698098182678 0.3047756552696228 -1.0260436534881592
-0.0356866642832756 0.1618761420249939 -1.4325793981552124 -0.0780118033289909 -1.1724473237991333 0.3499445319175720 0.2253868728876114 0.1259560734033585 -0.1641534715890884 -0.1566688716411591 0.9251105189323425 0.4195169806480408 -2.7856886386871338 -0.6165767312049866 1.1546826362609863 1.1985938549041748 1.7495669126510620 -0.5613430142402649 -0.0403525494039059 0.0956281721591949 -0.6232886910438538 0.2700299620628357 1.2978216409683228 0.3780654370784760 1.2331345081329346 0.8257989287376404 0.6112443208694458 0.1485950350761414 -2.6300714015960693 2.6168470382690430 0.6480752825737000 0.7064101099967957 0.2635592222213745 1.3163576126098633 -1.2671675682067871 2.1493039131164551 1.0416228771209717 -0.3154679834842682 -0.4241072237491608 0.9019776582717896 1.1914436817169189 0.2971591651439667 0.5213985443115234 -0.5068742632865906 -0.2286120951175690 0.3929018080234528 0.3827847838401794 -0.6933602690696716 -1.2776870727539062 -0.2463493347167969 -0.0680760070681572 -0.6124355792999268 0.5265231728553772 0.7413164377212524 0.7981837391853333 -1.0210187435150146 0.3190996646881104 -0.2456703633069992 0.6572739481925964 -1.9487591981887817 -0.6078904867172241 0.8195147514343262 0.7907631397247314 -2.0496900081634521 -0.0703701451420784 0.3076847195625305 -1.4403865337371826 1.0433914661407471 0.9687860012054443 0.5494526624679565 -0.5903360247612000 0.5539968609809875 -0.3698718845844269 0.2231236845254898 -0.9374607205390930 1.5371438264846802 -0.4472429156303406 0.2648787498474121 0.0053028948605061 -0.6021122336387634 -1.0460448265075684 -1.0144370794296265 0.1114212721586227 -0.0034806532785296 0.4280677139759064 -1.0653202533721924 1.6334494352340698 0.0505584515631199 0.7979515790939331 1.4036954641342163 -1.7062354087829590 0.6967005133628845 -1.7361284494400024 0.6704568862915039 0.9758000969886780 -0.0094259111210704 -0.9677898883819580 0.5443398356437683 -0.8864232301712036 0.4137226343154907 -0.4622067213058472 0.3543539345264435 -0.6095474362373352 -0.0857051014900208 -0.7200286388397217 0.2582455575466156 0.5189012289047241 0.9272493124008179 -0.8761423826217651 -0.6692192554473877 1.3695292472839355 0.0213660337030888 2.1614022254943848 -0.7827947139739990 -0.3198608458042145 1.0588332414627075 0.0110759306699038 -1.2099523544311523 0.2929551303386688 0.6736624836921692 1.7728127241134644 0.8716385960578918 -0.9929800629615784 1.2390630245208740 -0.3904789388179779 0.5992146730422974 1.0154631137847900 -0.9488717317581177
-1.2575674057006836 -0.0324259325861931 -1.8912817239761353 1.2260036468505859 -2.1363599300384521 0.2083346843719482 -1.7462538480758667 0.2762175500392914 0.2198830097913742 0.0121727921068668 1.2569379806518555 -0.8848327994346619 -0.1224139183759689 0.9131461977958679 -0.6218191981315613 -1.6543403863906860 -1.1550375223159790 1.1204164028167725 0.9273271560668945 -1.0017488002777100 0.5694155693054199 -0.9309359788894653 0.8876986503601074 -0.8448312878608704 0.1759114265441895 0.8499539494514465 0.0940440744161606 -1.0957688093185425 -0.2140419334173203 -0.1167038232088089 0.0009814158547670 -1.4654824733734131 0.4141505658626556 1.0143334865570068 0.0309963207691908 0.0794519856572151 1.4267653226852417 0.3168811500072479 1.9997019767761230 0.2051618546247482 -0.4861165583133698 0.5714989304542542 -1.8812721967697144 0.2236348688602448 -0.5575282573699951 0.8118949532508850 2.0479586124420166 0.2418403327465057 0.3639501929283142 -0.0979344472289085 0.4188876450061798 0.0566108338534832 1.7763823270797729 -0.6076545119285583 -0.9587757587432861 1.3847565650939941 -1.8956496715545654 0.0783159732818604 -0.3544531762599945 2.1084012985229492 0.1074672788381577 -0.0259635150432587 0.8364766240119934 0.4562487006187439 0.0399200879037380 1.1745396852493286 -0.9810780286788940 0.8023348450660706 -0.8912680149078369 -0.8812141418457031 1.2572746276855469 0.8788745403289795 0.4063886404037476 0.4710434675216675 -0.6936234235763550 -0.2776169478893280 0.3386049270629883 -0.2530548274517059 0.3866820633411407 -0.9521971940994263 1.7327866554260254 -0.8987808823585510 0.6012219190597534 1.2950409650802612 0.2774951756000519 0.1324553787708282 -0.1814185976982117 -0.6477714180946350 -0.7286397218704224 1.2769205570220947 0.1347886621952057 -1.5026293992996216 0.1436119526624680 0.9425804615020752 -1.5758833885192871 0.2445112615823746 1.3315113782882690 -0.6706921458244324 -0.2534821033477783 1.8377666473388672 -1.0811352729797363 -1.9283872842788696 1.5457594394683838 -1.6714892387390137 0.2153270393610001 0.7155191302299500 -0.6549299955368042 0.6066392064094543 -0.0143849514424801 -0.9266046285629272 0.7293015718460083 -0.5046368837356567 0.8505724072456360 -1.4785959720611572 1.1513994932174683 2.3213593959808350 0.8770633935928345 1.9394592046737671 -0.8291999101638794 -0.3253523111343384 -0.4635013341903687 0.2964982986450195 -0.5311285257339478 0.4803995192050934 -0.6058711409568787 0.0476311370730400 -1.4996612071990967 -1.1363160610198975
0.9342650175094604 -1.3787846565246582 -0.9718893766403198 0.0785690248012543 0.6559485197067261 1.1822491884231567 0.0054807411506772 2.1471507549285889 -0.7261834740638733 -0.5441800951957703 1.6958193778991699 -1.4494386911392212 -0.1516247093677521 -2.1299121379852295 -0.4083659052848816 0.2346173971891403 0.4048073887825012 -0.9296593666076660 -0.2151052355766296 -0.1098780408501625 -0.1905655711889267 -0.4713244438171387 -0.6333190798759460 0.5915607810020447 0.2345308959484100 -0.2350519299507141 0.8215600252151489 0.5767439603805542 -0.6516687870025635 -0.7932116389274597 0.4474805593490601 0.1264422982931137 -0.3892541229724884 1.5576999187469482 0.7098048329353333 0.3766602575778961 -0.3503181338310242 0.5952413678169250 1.1117506027221680 -0.1606900095939636 -0.3907016217708588 -0.4069543182849884 -0.6567333936691284 -0.5019752383232117 -1.5707399845123291 0.6738600730895996 1.0732039213180542 -0.2287341952323914 1.6059730052947998 0.0895376503467560 1.4099782705307007 -0.1351311504840851 -1.0165333747863770 -0.0351388379931450 -0.9039313197135925 -0.4748618900775909 -0.6103460788726807 0.8713337182998657 0.2585621476173401 -0.7703332304954529 -1.2164995670318604 1.3854979276657104 -0.8958481550216675 0.8057941198348999 0.2301444411277771 -1.4159666299819946 -0.4207230806350708 0.6519832015037537 -1.7527178525924683 -0.4186558127403259 0.4481063187122345 -1.1193749904632568 -0.5158294439315796 0.2435097992420197 1.0615122318267822 -0.0785247609019279 0.3064700067043304 0.4615312516689301 -1.2949587106704712 -0.2491310387849808 0.6088417172431946 -1.0076760053634644 1.4805502891540527 -1.1572240591049194 -1.0878266096115112 -0.9907490015029907 -1.1617139577865601 -1.4658964872360229 1.1601248979568481 -0.0403028503060341 -0.0294844191521406 -0.9506648182868958 -1.3989665508270264 0.0352850556373596 -1.0429111719131470 -1.7592408657073975 -0.0242320708930492 -0.2299079895019531 0.5577945113182068 -0.3953547477722168 -1.3927507400512695 -0.7445681691169739 -1.4364441633224487 1.4906561374664307 1.0869405269622803 -2.0094647407531738 0.3461039066314697 -0.3134420514106750 -1.1743373870849609 1.0487893819808960 1.2470673322677612 0.0764009058475494 0.5126478075981140 -0.9209655523300171 0.6173679828643799 1.8296433687210083 1.2780901193618774 1.2841624021530151 2.1831514835357666 -0.9226051568984985 0.0376273877918720 -0.0063879415392876 -0.2805887162685394 -1.6070342063903809 -0.0837616026401520 0.1616620123386383 -1.6968824863433838 -0.0954270064830780
-0.0274945460259914 -0.6446712613105774 1.6174542903900146 1.9960815906524658 -0.7799087762832642 0.5850290060043335 -1.1404539346694946 1.9311378002166748 -0.2719755768775940 -0.6016543507575989 -0.1952379643917084 0.5480251312255859 -0.4778310358524323 -0.5816798210144043 0.4542828202247620 1.3035243749618530 -0.8805956840515137 -0.9092234969139099 -0.4915163218975067 1.1009106636047363 -0.3992120325565338 1.5984903573989868 -0.6038817763328552 0.9654519557952881 -0.7315095663070679 1.1356915235519409 1.8726855516433716 -1.3348975181579590 0.3136194050312042 -0.0234019123017788 0.8248907923698425 0.7926068902015686 -0.4783430993556976 -1.2904019355773926 0.9126870036125183 -0.4331004619598389 0.2871099710464478 0.3885992169380188 -0.2345022708177567 0.1680027693510056 -0.6757622361183167 0.0545740537345409 0.7514345049858093 0.7540288567543030 0.2971234023571014 0.9117071628570557 -0.1292550563812256 1.0999150276184082 1.5350384712219238 0.4330240488052368 0.9147136211395264 0.4367595911026001 -2.0823445320129395 0.3312883079051971 -1.1201746463775635 0.9329137206077576 0.2079917639493942 1.4524912834167480 -1.0994052886962891 -2.8455710411071777 0.6996239423751831 -0.6006208062171936 1.4346195459365845 -1.4179575443267822 0.2891885340213776 0.2017743438482285 0.1519065946340561 -0.5876021385192871 -0.2837907075881958 -0.1122146919369698 -0.0237774513661861 0.2109866589307785 1.0086308717727661 -0.9654868245124817 -2.0095305442810059 1.5777330398559570 0.2162085324525833 0.8341444730758667 0.6804723739624023 0.8254680633544922 -0.6784197688102722 -0.7199524641036987 0.2536472380161285 1.4749717712402344 0.1389830112457275 2.2838876247406006 1.8828946352005005 1.4923206567764282 -0.5444359779357910 0.2381418198347092 2.2539722919464111 0.4949008822441101 1.2648881673812866 -0.2268453538417816 0.8714631199836731 0.1038034483790398 -1.0887583494186401 0.7039582133293152 1.5526734590530396 1.3972184658050537 0.0587041825056076 -1.0409282445907593 -0.2342554032802582 0.1735434532165527 0.1735790371894836 1.7299152612686157 -0.2969991862773895 -0.0489380061626434 0.9951103925704956 1.6712087392807007 0.2356637418270111 -0.3551017642021179 -0.3143273293972015 -0.4675543606281281 0.8185280561447144 -0.8666465282440186 0.6231873035430908 -1.4705865383148193 -0.5613473057746887 -1.6768168210983276 0.1985087841749191 1.5505244731903076 0.4152079224586487 1.9100524187088013 1.5620379447937012 -1.9012260437011719 -0.7978048324584961 1.0699669122695923
-0.9675738215446472 -1.2108464241027832 -0.6229959726333618 -0.5163893699645996 0.2520979642868042 0.7299080491065979 1.1739792823791504 -0.3186498284339905 0.2786682248115540 0.0496475212275982 0.9584734439849854 2.0414404869079590 -0.1572508066892624 0.5558277368545532 0.5781943798065186 -1.0112636089324951 0.8390759229660034 0.5346593260765076 -0.3156293630599976 0.6922127604484558 -1.3803931474685669 0.1488545238971710 0.5528961420059204 0.0158061776310205 -1.6429759263992310 0.2865338325500488 -0.5561491847038269 -0.4106516838073730 -1.0638000965118408 0.4115002453327179 0.4699649810791016 -1.0575516223907471 1.7543681859970093 0.2163574546575546 0.9445767998695374 0.3568484187126160 -0.4626750946044922 -0.6214357018470764 -1.4740926027297974 -0.3935470283031464 0.1638901531696320 1.7285734415054321 1.7817831039428711 -0.3740174174308777 1.1780868768692017 0.0570392608642578 1.4306112527847290 2.6885433197021484 0.6565364003181458 -1.0508120059967041 -1.1066323518753052 -0.5196343064308167 0.3280684351921082 -0.0424880869686604 1.4210436344146729 -0.0958657711744308 0.7380568385124207 -0.7366957664489746 1.4573942422866821 -1.6841322183609009 -0.0071697300300002 -0.5195904374122620 0.0995605289936066 0.1915344744920731 -0.7292312979698181 -0.6375326514244080 0.2577574253082275 0.5035598874092102 0.3552652895450592 0.5704795122146606 -1.0189738273620605 0.1974759697914124 -0.1922533959150314 0.8744260072708130 1.8352649211883545 0.0035170749761164 -0.2134605795145035 0.7028089761734009 0.7977710366249084 -2.9278266429901123 1.7762832641601562 0.5375331640243530 -0.3874183297157288 -0.1554306745529175 -0.0168511215597391 -2.2735743522644043 1.5172772407531738 -0.0506771653890610 0.8534245491027832 -1.0653929710388184 0.3790861666202545 -2.5343220233917236 -0.9391389489173889 -0.4372033476829529 1.6617596149444580 -1.4483537673950195 -1.0410110950469971 -0.5904664993286133 0.6803230047225952 -1.2235760688781738 1.6908594369888306 0.1602137237787247 0.1500375866889954 0.0203000213950872 1.6498061418533325 1.4428216218948364 1.5054078102111816 -1.1752648353576660 -2.0752785205841064 -0.4426466524600983 -0.3652488291263580 -0.4807858467102051 0.7953408360481262 0.5741436481475830 -0.5528714060783386 0.7185746431350708 -1.1564029455184937 -0.1404716670513153 -0.4548434317111969 2.0574011802673340 0.4066165685653687 0.6063053011894226 0.2206000089645386 -1.1561567783355713 -0.2253732234239578 0.3823803961277008 0.8095412254333496 -1.5974395275115967
