0.1132597848773003 0.2277594059705734 0.3147137165069580 0.0844179615378380 0.0725031420588493 -0.0313899256289005 -0.0173919033259153 0.1061543151736259 0.1076864078640938 0.3377273976802826 0.0039293491281569 -0.2181011289358139 0.1123355180025101 0.1234174743294716 0.0633531212806702 0.1357738375663757 0.1813791394233704 0.2136681824922562 0.1372259259223938 0.2013485729694366 0.0936169028282166 0.0874544754624367 0.1857587993144989 0.0591721832752228 0.1103368774056435 0.0050080004148185 0.1421100646257401 0.1219251900911331 0.1298360228538513 0.2856297791004181 0.2684137523174286 -0.0492643862962723 0.1017924249172211 0.1188102364540100 0.2372856736183167 0.2411897182464600 0.1364769786596298 0.2683563828468323 0.2267213165760040 -0.0469551496207714 0.0527668818831444 0.0777517855167389 0.0961102023720741 0.1626872718334198 0.1924827098846436 0.0702507868409157 0.1698603332042694 0.2528717517852783 0.1940435767173767 0.2622889876365662 0.3159940242767334 0.0292739234864712 0.2666727304458618 0.1462558060884476 0.1406741738319397 0.1387781053781509 0.1040880531072617 -0.0317958630621433 0.1608539223670959 0.1451306641101837 0.1584314554929733 0.1114573329687119 0.1631334573030472 0.1824001967906952 0.0266015268862247 -0.0111592225730419 0.0173621568828821 0.0926219448447227 0.1108603850007057 0.2181888669729233 0.1747705936431885 0.1219924315810204 0.1737241148948669 0.1132522374391556 0.1566911488771439 0.1470510512590408 0.1877040416002274 0.1695654690265656 0.0675648003816605 0.2444363981485367 0.0710789114236832 -0.0228869132697582 0.1613811701536179 0.1370714306831360 0.0299064386636019 0.1275855898857117 0.2268681526184082 0.1920430958271027 0.1933123171329498 0.1263236403465271 0.3447702825069427 0.0215754620730877 0.0575383007526398 0.2570086717605591 0.0466483496129513 0.2760505080223083 0.4287191629409790 0.3370323479175568 0.2297840565443039 0.3002697825431824
0.1187940165400505 0.0044075250625610 -0.1060774922370911 -0.1569595932960510 -0.2378376573324203 -0.3238927423954010 -0.1987887471914291 -0.0177704021334648 -0.0399051643908024 0.1594579964876175 -0.2018603831529617 0.0516026020050049 -0.0925513952970505 -0.1229605749249458 -0.2269897609949112 -0.1123960167169571 -0.1574666947126389 -0.0551654063165188 0.2380292713642120 -0.1388775855302811 -0.0367727726697922 -0.2708612680435181 -0.1982885152101517 -0.0943149253726006 -0.2540812790393829 -0.2665639817714691 -0.2245770841836929 0.0532566010951996 0.1255161464214325 0.0390888899564743 -0.2450677454471588 -0.1651220172643661 -0.1500181555747986 -0.0909582450985909 -0.0742118656635284 -0.1963830888271332 -0.0815422907471657 -0.1102092266082764 0.1953069567680359 -0.0691945850849152 -0.1763706058263779 -0.1685974895954132 -0.1175013408064842 0.0097665954381227 -0.0394156761467457 -0.2600065171718597 -0.0824635326862335 0.0067987428046763 0.1173774451017380 -0.2572443485260010 -0.0054584797471762 -0.0105238566175103 0.0233946871012449 -0.0807354301214218 -0.0549341626465321 -0.0308355297893286 -0.1660086214542389 -0.1685006022453308 0.0115003176033497 -0.0840163230895996 -0.1427159756422043 0.0331016071140766 -0.0822459682822227 0.0304467249661684 -0.0544271580874920 -0.0263130217790604 -0.1479265093803406 -0.2296627163887024 0.1128105372190475 0.0132861975580454 -0.0399571768939495 -0.0637040063738823 -0.0517521239817142 -0.1110448837280273 -0.0645307973027229 -0.1781742721796036 -0.0484400242567062 -0.2886208295822144 -0.0395037457346916 0.0777529850602150 0.0421745739877224 -0.0362095423042774 0.0840747803449631 0.0521386004984379 -0.1077757850289345 -0.0222977604717016 -0.0036730675492436 -0.1028320267796516 -0.0385616384446621 0.1648826301097870 -0.1424465328454971 -0.0538679733872414 -0.0865203514695168 0.4648368954658508 0.0408571660518646 -0.4118264317512512 0.3849976956844330 -0.0906547680497169 -0.0461445562541485 -0.0853314623236656
-0.0510932207107544 -0.0057479562237859 0.0123762404546142 0.0300334561616182 -0.0832284167408943 0.0755748376250267 -0.0935141295194626 0.0786706060171127 -0.0645957365632057 -0.0779361575841904 -0.1600265502929688 -0.0790596082806587 0.1534713655710220 0.0948490425944328 0.1817820221185684 -0.0506827607750893 0.0019954047165811 -0.0555003508925438 -0.0598581843078136 0.0413263514637947 -0.0085721900686622 -0.0313309468328953 0.0824925005435944 0.1639641672372818 0.3356590867042542 0.1658733636140823 0.1035046130418777 0.1376602649688721 -0.1031224578619003 -0.1499066352844238 0.0284737143665552 -0.0007643729913980 0.1844429969787598 0.1611870974302292 0.0456904545426369 0.1477969288825989 0.0545032918453217 0.0329557955265045 0.1626657992601395 0.1277763694524765 0.1148702725768089 0.1094748973846436 0.2441633492708206 0.0017087768064812 -0.0086333397775888 -0.0633695423603058 -0.1775215864181519 -0.0288963560014963 0.0014410219155252 0.2663787603378296 -0.0292746685445309 0.0362017974257469 -0.1310972869396210 -0.0636264234781265 -0.1094416603446007 -0.1709349602460861 0.1061800867319107 0.0567269623279572 0.1839405298233032 0.0821567997336388 -0.1036942601203918 -0.0284858215600252 -0.0483249872922897 -0.0774550214409828 -0.0998817533254623 0.0109330862760544 0.0352393910288811 0.2668196856975555 -0.0329386889934540 0.1716559976339340 0.0760066583752632 0.0645443573594093 0.1431269198656082 -0.1069688647985458 0.0310260150581598 -0.1046097129583359 -0.1153008267283440 0.1050263121724129 0.0550342835485935 -0.1559938937425613 0.0777747035026550 -0.0099733360111713 0.1094304472208023 0.0999936237931252 -0.0091166757047176 -0.0132304122671485 -0.0608772598206997 0.0491076111793518 -0.1395466029644012 0.0545653887093067 -0.4061267971992493 -0.4877873063087463 0.0270084831863642 -0.3828753232955933 0.1492921710014343 -0.2037601768970490 0.2090435624122620 -0.0720378831028938 -0.0263674221932888 -0.3905273079872131
0.0910764709115028 0.2965897321701050 0.1091176569461823 0.0293493829667568 0.1402050703763962 -0.0910178720951080 -0.0420870445668697 -0.3857216536998749 -0.2736908197402954 -0.0790586471557617 -0.2343305498361588 -0.1980323046445847 0.1110134199261665 -0.5243970751762390 -0.2370323389768600 -0.8695210218429565 -0.1990204900503159 -0.1026348248124123 -0.1977190822362900 0.0668696984648705 -0.0079879835247993 -0.0984471961855888 -0.1011593863368034 -0.0914473980665207 0.0001633588399272 -0.0759555473923683 -0.2350821793079376 -0.2058399319648743 -0.2474721819162369 -0.0585371702909470 -0.1545515358448029 -0.0996746569871902 -0.1800148040056229 -0.0819523856043816 0.0581183098256588 0.0909084379673004 -0.3645989596843719 -0.1764724552631378 -0.0034005236811936 -0.1793154329061508 -0.0427785776555538 0.1488317400217056 0.0671153068542480 0.0080771846696734 -0.1967527270317078 -0.0547745451331139 -0.1652203202247620 -0.3492081463336945 -0.0062342588789761 -0.3092935383319855 -0.2191021293401718 -0.0651110261678696 -0.7124131321907043 -0.2078794538974762 -0.3723078370094299 -0.0872255116701126 -0.0709761604666710 -0.3828760683536530 -0.2490921765565872 -0.5404144525527954 -0.4594619572162628 0.1752922832965851 0.0986623466014862 -0.0430063083767891 -0.5526372790336609 -0.2183860093355179 -0.1784870475530624 -0.2995048463344574 -0.4884233772754669 -0.4917434453964233 -0.1442532688379288 -0.0137545438483357 0.0605153106153011 -0.0391252562403679 -0.2722915112972260 -0.2998742163181305 -0.0651355609297752 -0.1828477233648300 -0.1919346153736115 -0.6392258405685425 -0.3646048009395599 0.0132920825853944 -0.1173741519451141 -0.3646557033061981 -0.2880440056324005 -0.4860064685344696 -0.1468952447175980 0.0523582361638546 0.0022544888779521 -0.6856729984283447 0.4371783435344696 0.0098131634294987 0.2555013597011566 0.1684110462665558 -0.1242372766137123 0.8369902372360229 0.6720265746116638 0.4080619812011719 -0.3983337283134460 -0.5296007394790649
0.0809276849031448 -0.2079891413450241 -0.0680288150906563 -0.0350091271102428 -0.0161221902817488 -0.1079845428466797 -0.0788021683692932 -0.1745627671480179 -0.1983040869235992 0.0317214243113995 -0.1285759508609772 -0.1542543321847916 -0.1077428013086319 -0.2102812975645065 -0.1692557781934738 -0.2068230509757996 -0.1835427880287170 -0.1007330790162086 -0.1572598069906235 -0.1205127835273743 -0.0965698435902596 -0.0985975712537766 -0.1454196125268936 -0.1360434144735336 -0.1677024215459824 -0.1214689165353775 -0.0975386202335358 -0.1501779556274414 -0.1614588797092438 -0.0270106159150600 -0.1488036811351776 -0.1536458283662796 -0.1582736223936081 -0.1399936228990555 -0.2686306536197662 -0.1658539175987244 -0.3267123997211456 -0.0310134943574667 -0.1954821646213531 -0.1165284141898155 -0.1388946324586868 -0.1146186888217926 -0.1259647756814957 -0.2861106693744659 -0.1212299838662148 -0.3456609845161438 -0.1814269125461578 -0.2554637193679810 -0.0624070093035698 -0.3911611735820770 -0.1913813948631287 -0.2606782913208008 -0.2038744688034058 -0.1493753790855408 -0.2807631790637970 -0.2635828256607056 -0.2345353960990906 -0.2926918566226959 -0.0236475151032209 -0.0800400525331497 -0.2069651335477829 -0.1423753201961517 -0.2248282879590988 -0.1555687189102173 -0.2182082086801529 -0.1816420406103134 -0.3550818860530853 -0.0409866198897362 -0.1067182496190071 -0.1795126348733902 -0.2538280189037323 -0.3580931723117828 -0.1935881525278091 -0.2609043717384338 -0.1476296037435532 -0.3707988858222961 -0.1514172255992889 -0.2916368246078491 -0.1159265860915184 -0.1106901317834854 -0.3689536154270172 -0.2124935686588287 -0.3752575814723969 -0.1265451759099960 -0.3155648410320282 -0.1414921432733536 -0.3616389036178589 -0.1550788879394531 -0.1222411990165710 -0.1956112533807755 0.0740450322628021 -0.2455528825521469 -0.3163498342037201 -0.0930295139551163 -0.2541872262954712 -0.6819548606872559 0.1864787787199020 -0.2707906067371368 -0.2208213806152344 -0.0163490604609251
-0.0532205142080784 0.0281016770750284 0.0500844009220600 0.0381415300071239 -0.0389590188860893 -0.2153852432966232 -0.1483227312564850 -0.0622805915772915 -0.2475503534078598 0.0022433046251535 -0.1434692442417145 -0.2151189297437668 -0.0863541588187218 -0.1903536468744278 -0.2856774032115936 -0.2316360473632812 -0.1572602689266205 -0.2336133122444153 0.0752147063612938 -0.1569885313510895 0.0432255417108536 -0.0232742968946695 -0.0517869703471661 -0.0645826831459999 -0.1506435424089432 -0.2005784958600998 -0.1074665114283562 -0.2682957053184509 -0.1706341803073883 -0.0480531565845013 -0.0526409596204758 -0.0772752687335014 -0.1132148802280426 -0.0596979409456253 -0.1693440079689026 -0.0288708545267582 -0.0731180161237717 -0.0837633907794952 -0.1135725602507591 -0.1650087982416153 -0.0918256640434265 -0.1549369543790817 -0.1833502650260925 -0.1575381010770798 -0.0921711996197701 -0.2164971083402634 -0.1058379858732224 -0.2567130625247955 0.1832195520401001 -0.1665749102830887 -0.0307321790605783 -0.1517072021961212 -0.2078711986541748 -0.0406897887587547 -0.1788745373487473 -0.2854909002780914 -0.0948872268199921 -0.0784280225634575 -0.0304367635399103 -0.0781798511743546 -0.0890024080872536 -0.1758031249046326 -0.0262056477367878 -0.0648223236203194 -0.0267544966191053 -0.1016160473227501 -0.0591465830802917 -0.0155469831079245 0.0003165765374433 0.1346580833196640 0.0140254069119692 -0.0239379089325666 -0.0397710725665092 0.0424304082989693 -0.1074399203062057 -0.0788400769233704 -0.1164881065487862 0.0336992219090462 -0.0080479020252824 -0.0389842018485069 -0.0796337798237801 -0.2793212234973907 -0.0519653931260109 0.0805529132485390 -0.2044915705919266 -0.2586221694946289 -0.0636624395847321 -0.1183486953377724 -0.1053221896290779 0.1566001474857330 -0.2009546607732773 -0.0617171227931976 -0.4392367005348206 0.1774306744337082 -0.2562910020351410 -0.7358496785163879 -0.1129368990659714 -0.1745979040861130 -0.4437457621097565 -0.0510932020843029
0.1103468313813210 0.1056144237518311 -0.0888916850090027 -0.1114003583788872 0.1324342042207718 0.0819175690412521 0.0575929544866085 0.0156326647847891 0.1892991214990616 -0.0030523885507137 -0.1739141792058945 0.0645089223980904 -0.1370251625776291 0.0052114468999207 -0.1450508832931519 0.0201792828738689 -0.0503613911569118 -0.0918551683425903 -0.0451806932687759 0.1680228710174561 -0.0622644200921059 0.1205066666007042 0.1259323805570602 -0.1359582990407944 0.1479360461235046 -0.0634592100977898 -0.0380069464445114 -0.0010492084547877 0.0691393092274666 -0.1301096826791763 0.1970625072717667 0.1575582176446915 0.1309751123189926 0.1755781769752502 -0.1964309215545654 0.1077751889824867 -0.0346007086336613 0.1083434373140335 0.0216435194015503 0.0951807945966721 0.0448979064822197 0.1870280951261520 0.0063543650321662 -0.0317091383039951 0.1235496029257774 -0.0190548449754715 -0.0673302635550499 0.1970098465681076 0.0016946926480159 0.2334612458944321 0.0973155722022057 -0.0069425343535841 0.0126315373927355 0.0740628018975258 -0.0181358661502600 -0.0599748380482197 -0.1743013411760330 -0.0044203842990100 0.0096885906532407 -0.0824929326772690 -0.1792730689048767 0.0090992879122496 -0.0352726876735687 -0.0162769407033920 0.0539645850658417 0.0538084656000137 -0.0339550264179707 -0.0075621455907822 0.0313202366232872 -0.0983052104711533 -0.1487227976322174 0.0862572267651558 0.0197002142667770 -0.0897957310080528 0.0691324546933174 -0.0129858553409576 -0.0669831931591034 0.0093496711924672 0.0059297364205122 -0.0551443509757519 -0.0301338732242584 0.0085735432803631 -0.0625905096530914 0.0554639920592308 -0.0439929664134979 -0.0004025213420391 0.0248552262783051 0.0572732947766781 0.0083243744447827 0.0858266055583954 -0.1085718199610710 0.2597006559371948 -0.1085470169782639 -0.1343621909618378 0.2829459905624390 -0.1331301033496857 0.4930326640605927 0.2779598832130432 -0.0990142747759819 -0.1330518424510956
-0.0535530187189579 -0.0146431839093566 -0.0853400230407715 0.0968836024403572 0.0330693162977695 0.0847856104373932 0.1162120029330254 0.0372450463473797 0.1288225203752518 -0.0769437029957771 0.1830088645219803 0.0569140315055847 0.0668942630290985 -0.0074406485073268 0.0007618610397913 -0.1720115393400192 0.0627598613500595 0.1710740476846695 0.0359746441245079 0.0187559891492128 0.1531961411237717 0.2067123204469681 0.0554768517613411 -0.0024563486222178 -0.1082090139389038 -0.1931823343038559 -0.0974086374044418 -0.0271284040063620 0.0528677701950073 0.0488546490669250 0.0781955197453499 0.0659550726413727 -0.0026917837094516 -0.0739997178316116 0.0062865009531379 -0.0600927099585533 -0.2235555052757263 -0.0473807752132416 -0.2913941442966461 0.0137606104835868 -0.0428775995969772 -0.0130615280941129 -0.1686648577451706 -0.0494251474738121 -0.0777756199240685 -0.1497305333614349 -0.0490333810448647 0.0374186225235462 -0.1854930669069290 0.0847637504339218 0.0396741144359112 -0.0559510625898838 -0.0730949342250824 -0.1075889021158218 0.0592882409691811 -0.1136825531721115 -0.1638621389865875 -0.0345761589705944 -0.1215357705950737 -0.0194260943681002 -0.0914495512843132 0.0076423175632954 0.0095325773581862 -0.0051848809234798 -0.0671447291970253 0.0761228799819946 0.0493883267045021 -0.0278838351368904 -0.0480904914438725 0.0531245432794094 0.0085575897246599 -0.0123305525630713 -0.0391570478677750 -0.0722828283905983 0.1791921257972717 0.0803694576025009 0.0709494948387146 -0.0580335743725300 0.0156687479466200 -0.0215779934078455 -0.2787653505802155 -0.0433489307761192 -0.0257253423333168 -0.1926070302724838 0.0522634349763393 0.0605071932077408 0.0011098979739472 0.0275640934705734 0.2065800279378891 0.1228272020816803 -0.2199549078941345 0.0683285146951675 0.1257593929767609 -0.5166606903076172 0.4277839064598083 0.3444437086582184 0.2381017804145813 -0.0070519112050533 -0.1614622324705124 0.2304846644401550
0.0776446312665939 0.0656335130333900 -0.0677354261279106 -0.1854099780321121 -0.1765372902154922 -0.1505747735500336 -0.0785312205553055 0.0401555933058262 -0.0411346293985844 0.1321564167737961 -0.0762839689850807 0.0248475801199675 -0.1089314073324203 -0.0592226721346378 -0.1102688461542130 -0.0389556288719177 -0.0271901860833168 -0.0907229930162430 -0.0988815203309059 0.0721209198236465 0.0206517148762941 0.0987181067466736 0.0031564384698868 -0.0104539692401886 0.0965494662523270 0.0286301765590906 -0.0154665922746062 -0.0798551291227341 -0.2085844427347183 -0.0413926951587200 0.0329214334487915 0.1094469949603081 0.1203560978174210 0.1022285893559456 0.0651050433516502 0.1265806853771210 0.0517821982502937 0.0824365243315697 -0.0798226296901703 0.1770654320716858 -0.0335937291383743 0.0454040803015232 0.0918695330619812 -0.0074004372581840 -0.0207516066730022 0.0295182727277279 0.0476636588573456 0.1823276132345200 0.1339513212442398 -0.2268522083759308 0.0134493494406343 0.0240502376109362 0.1541047543287277 -0.0288849286735058 0.0062161237001419 0.1202346161007881 0.1274923980236053 0.0095612024888396 -0.0550011694431305 0.0524690374732018 0.0257252585142851 0.1134825572371483 0.0207661222666502 0.0760612711310387 0.0339005813002586 0.0053363172337413 0.0249427035450935 -0.0348332598805428 0.2193628400564194 -0.1145706400275230 0.0409716106951237 0.0817201361060143 0.0063676042482257 0.0698169842362404 0.0464212559163570 0.0797219797968864 -0.0356244333088398 0.0765945091843605 0.2739560902118683 0.1581873446702957 -0.0327659584581852 -0.0791788473725319 0.0120301917195320 -0.0082095237448812 0.0937870964407921 0.1105057224631310 0.1931636035442352 0.1135803014039993 0.2778515815734863 0.1390103697776794 -0.1102092862129211 0.5300629138946533 -0.0026099875103682 0.0458631180226803 0.1446819454431534 0.1515121012926102 0.2365342527627945 0.0442731045186520 0.5883290767669678 -0.1653029322624207
0.0728167369961739 0.0078569147735834 -0.1416275054216385 -0.1047398671507835 -0.1480595022439957 -0.0938638299703598 -0.1281877011060715 -0.0822974443435669 -0.0695072188973427 -0.3072707355022430 -0.1242671310901642 -0.0581390038132668 -0.0477938838303089 -0.0512685813009739 -0.0954853817820549 -0.0755348205566406 -0.1195339858531952 -0.1719273179769516 -0.0458669140934944 -0.2996990084648132 -0.0910752862691879 0.0262552313506603 -0.1317143738269806 -0.0682780370116234 -0.0491507947444916 0.0594148449599743 0.1962179988622665 -0.0458484627306461 -0.0811289250850677 -0.4369562864303589 0.0082721300423145 -0.0344458594918251 0.0092872614040971 0.0047472584992647 -0.1601716876029968 0.1668608188629150 -0.0276329424232244 0.2725033164024353 -0.1794808804988861 -0.0887216255068779 -0.0710993558168411 0.0339957587420940 0.0566725544631481 -0.0990221276879311 -0.0105887241661549 -0.1812248080968857 0.1163151264190674 -0.0743771195411682 0.0160280913114548 -0.2300641387701035 0.0300793908536434 -0.0639801472425461 -0.0535239651799202 -0.0701576396822929 -0.1434717923402786 -0.0583603233098984 -0.0193894859403372 0.1197525635361671 -0.1680730879306793 0.0028299766127020 -0.0901404097676277 0.0553438402712345 -0.0067626880481839 -0.0439953431487083 -0.1254993081092834 -0.1475524902343750 -0.1716907471418381 -0.0040808743797243 -0.1265623420476913 -0.2080773860216141 0.0328871160745621 -0.0172205083072186 0.0161524694412947 -0.1206794381141663 -0.0840594172477722 -0.1536099314689636 -0.1755854934453964 -0.0983083099126816 -0.1671921908855438 -0.1111779287457466 -0.1342044770717621 -0.1337604373693466 0.0454438030719757 0.1032412275671959 -0.1135447025299072 0.0708684250712395 -0.1201565042138100 -0.0186631921678782 -0.0662718713283539 -0.2039185762405396 -0.1517468392848969 0.0224466957151890 0.4245022535324097 0.3634664416313171 0.1050908267498016 -0.3077712953090668 0.1521535217761993 -0.2456549704074860 -0.0612340942025185 0.0187626183032990
0.4648282527923584 0.1489506065845490 0.1593787521123886 0.1456247419118881 0.3521054685115814 0.1777963191270828 0.3678683638572693 -0.0087741035968065 0.2755107581615448 -0.1548196077346802 0.2446362376213074 0.2101145237684250 0.1698877215385437 0.2117617875337601 0.2537479102611542 0.3026952147483826 0.1754157543182373 0.1580486297607422 0.0768355131149292 0.0425912328064442 0.4671073555946350 0.1312270015478134 0.2143595069646835 0.1940063685178757 0.3322882950305939 0.2638753354549408 0.2789273262023926 0.0554390028119087 0.1115136966109276 -0.0530346259474754 0.1690333187580109 0.2806213796138763 0.1068952381610870 0.2289892882108688 0.1693288385868073 0.1653231829404831 0.1311558187007904 0.1253417730331421 0.0872102603316307 0.0278038084506989 0.3275090754032135 0.2871031761169434 0.1025337427854538 0.2404514253139496 0.1547881215810776 0.1344360709190369 0.0736059248447418 0.0457206778228283 0.0873282402753830 0.0501326993107796 0.2852056920528412 0.1708143502473831 0.2432435154914856 0.1675832718610764 0.0490943454205990 0.1272656619548798 0.1747630387544632 0.1971713453531265 0.1605659127235413 0.0365346111357212 0.2595028877258301 0.2579892873764038 0.1876834332942963 0.1466750204563141 0.0426274128258228 0.0408632308244705 0.1687364280223846 0.0643415004014969 0.0258432626724243 0.1291959434747696 0.1380299329757690 0.1317601650953293 0.1230065524578094 0.1085366234183311 -0.0267851762473583 0.0251209437847137 -0.0540190301835537 0.2234178781509399 0.1888440102338791 0.0595412813127041 -0.0229177139699459 -0.0298860874027014 0.1547388434410095 -0.0084424121305346 0.0739695131778717 0.0073353718034923 0.1937044262886047 0.0315863043069839 -0.0380277782678604 0.1931462883949280 -0.6690180897712708 0.0282594524323940 0.0156602934002876 0.4008631408214569 0.0580128394067287 0.0064901034347713 -0.0816933885216713 0.4099768400192261 0.2992123961448669 0.1101886779069901
-0.2412522286176682 -0.4571775197982788 -0.1090976595878601 -0.0864668637514114 -0.2955207824707031 -0.1410129666328430 0.0080229919403791 -0.0273408479988575 0.0729693993926048 0.0400081425905228 -0.0420551225543022 -0.2723937630653381 -0.1195844337344170 0.0080852415412664 -0.0518335327506065 -0.3960824012756348 -0.1111538484692574 0.0038336461875588 -0.7704275846481323 -0.2387922555208206 -0.3389410972595215 -0.4140241146087646 -0.1211703419685364 -0.0042840037494898 -0.0933342278003693 -0.5518617033958435 -0.1436135619878769 -0.1052999123930931 -0.3313336372375488 -0.1484249681234360 -0.1168563812971115 -0.3053137958049774 0.0556352213025093 -0.0518788732588291 -0.6010425686836243 -0.3295891284942627 -0.3566464185714722 0.1219930872321129 -0.3138463497161865 0.0047062388621271 -0.0649161264300346 -0.3136404752731323 -0.0876806825399399 -0.0815031602978706 0.0250271297991276 -0.4019589722156525 -0.2183976322412491 -0.1373146027326584 -0.2288114279508591 0.1112779378890991 -0.5300198197364807 -0.3492313623428345 -0.4372687041759491 -0.1702604889869690 0.0507203936576843 -0.2545388936996460 -0.3520778417587280 0.0838154181838036 -0.0453790314495564 0.2867814600467682 -0.2568181455135345 -0.5448482632637024 -0.0478232838213444 -0.1480171382427216 0.0451039858162403 -0.1500834673643112 -0.1319527626037598 -0.2223742753267288 -0.0283986199647188 -0.1895101517438889 -0.5334930419921875 -0.4073911309242249 0.0488088317215443 -0.3401551842689514 -0.0662954151630402 -0.0440876260399818 -0.1521411687135696 -0.3614203333854675 -0.5780048370361328 -0.3400198221206665 -0.2008172869682312 -0.3712656199932098 0.2489341795444489 -0.1931783705949783 -0.2829430103302002 -0.3467473685741425 -0.4821409583091736 -0.3876496255397797 -0.1316691190004349 -0.3132436871528625 0.4495231807231903 0.9051166772842407 0.1897293925285339 0.7341575026512146 0.0812024176120758 0.7795102596282959 0.4582150578498840 -0.3444469571113586 0.2321472913026810 -0.1303030252456665
-0.1218155026435852 0.1380616128444672 -0.0089222081005573 -0.0018644140800461 0.0809179246425629 0.2697284817695618 0.0811882093548775 0.0568823218345642 0.1047336608171463 0.0739190429449081 -0.1229568421840668 0.0351875163614750 -0.0174658726900816 0.0227895807474852 0.0105123585090041 0.0269977003335953 0.2145341038703918 0.0783501416444778 0.2705241739749908 -0.0151667064055800 0.0274928808212280 0.1266188621520996 0.0643553808331490 0.0817015841603279 0.0256890803575516 0.2832980453968048 0.0207953955978155 0.1605965942144394 0.0671312287449837 0.0892517864704132 -0.0015271515585482 0.0834245234727859 0.0969235450029373 0.1053682640194893 0.1072055771946907 0.1903312504291534 0.1831477880477905 -0.1118229031562805 -0.0654161423444748 -0.1099083647131920 0.1707614511251450 0.0029323131311685 0.0016559226205572 0.2203386873006821 0.2106021642684937 0.4486385583877563 0.2468468546867371 0.3303793966770172 0.0069954078644514 -0.0533775314688683 -0.0019482002826408 0.0685165748000145 0.0353250503540039 0.1585700511932373 0.1768648773431778 0.1265888959169388 0.1386466771364212 0.1156494840979576 -0.1182305663824081 -0.1720911264419556 0.1512286514043808 0.2932424843311310 0.0936689749360085 0.1948318928480148 0.1891693174839020 0.1639082431793213 0.1601305156946182 -0.0774570330977440 -0.2169444561004639 -0.2243179231882095 0.2093648165464401 0.1254453659057617 0.2467843741178513 0.0703880339860916 0.1668412089347839 0.1946615576744080 0.0682122260332108 -0.0419837012887001 -0.1030493378639221 -0.1838775277137756 0.1738885492086411 0.1820490509271622 0.1812017112970352 0.2481105774641037 0.1967856884002686 0.2438853979110718 0.0872344300150871 0.0354462228715420 -0.1502548903226852 -0.1778175830841064 -0.1429512202739716 0.4341842830181122 0.5044848322868347 0.0821563825011253 0.2742165625095367 0.2279124706983566 -0.0579187050461769 -0.1263728290796280 0.1198131814599037 0.3380303084850311
0.2238603532314301 -0.0779078751802444 0.0263365563005209 0.2948028147220612 0.1533366292715073 0.0451252907514572 0.1124062985181808 -0.0305842235684395 0.1389138400554657 0.0534375645220280 0.0326220914721489 -0.0604746155440807 0.1943768560886383 0.1835728287696838 0.1265135109424591 0.1645659357309341 0.0454078614711761 0.1543467938899994 0.1324363499879837 0.0050382306799293 0.0309801101684570 0.0176268834620714 0.1140656024217606 0.0948015153408051 0.1313282698392868 -0.1198094487190247 0.0596398301422596 -0.0328231230378151 0.3810012936592102 0.0095785269513726 0.0912650525569916 0.0168223194777966 0.1051543802022934 0.1413879990577698 0.0673902332782745 -0.0695822238922119 -0.0836885049939156 0.0378479324281216 0.1929169744253159 -0.0097420876845717 -0.0474986769258976 0.0441597960889339 0.1262208968400955 0.0637649148702621 0.0709522888064384 -0.0410666018724442 0.0471665486693382 -0.0431212559342384 0.2337571978569031 0.2548308670520782 0.2210927158594131 0.0109806554391980 0.0903437733650208 -0.0558093450963497 -0.0054457858204842 -0.0161646250635386 -0.1118121072649956 -0.0204875972121954 0.0394339784979820 0.0160108171403408 0.1503155529499054 0.2798373997211456 0.1154955923557281 0.1183942034840584 0.1651814281940460 0.0279025323688984 0.0567991584539413 -0.0049691642634571 0.0537636876106262 0.1502966880798340 0.2896440327167511 0.0392791815102100 0.2844819426536560 0.0613363943994045 0.0624103993177414 0.1286876797676086 0.1316197365522385 -0.0189785324037075 0.0060451300814748 0.0214140024036169 0.0644618421792984 0.2044809609651566 -0.0692137628793716 -0.0216794908046722 0.0590045154094696 0.1623428314924240 0.0405295528471470 0.1915320307016373 -0.1961670517921448 0.1008241400122643 0.0538526475429535 0.2337339520454407 0.2111599296331406 0.1530150026082993 -0.1409555375576019 0.1397043317556381 0.5198493599891663 0.1108311563730240 -0.2771542072296143 0.1212906241416931
0.0849469006061554 -0.0105288131162524 0.3272490203380585 0.2148272693157196 0.1923443973064423 0.2468868643045425 0.0933974608778954 0.0391545407474041 -0.1165777146816254 -0.0726266503334045 -0.0181179326027632 -0.0742723122239113 -0.0146841360256076 0.0117388591170311 -0.0535099208354950 -0.1500666737556458 -0.0031329828780144 -0.0758799687027931 -0.1019018441438675 -0.1810432374477386 0.0232031159102917 -0.0917924717068672 -0.0641570538282394 -0.0294240768998861 -0.0312011167407036 -0.1390476971864700 -0.0939076840877533 -0.1935867667198181 0.0543864555656910 -0.0012477434938774 -0.2300294488668442 -0.0853428393602371 0.0012510445667431 0.0615616478025913 -0.0621458739042282 0.0328354761004448 -0.0113729098811746 -0.0550712123513222 0.0720527172088623 0.1046466678380966 0.0019100611098111 -0.1204563602805138 -0.0208222996443510 0.0033025073353201 -0.1006989330053329 -0.0154918860644102 -0.0411671437323093 -0.0439685955643654 0.0652295798063278 -0.1367175281047821 -0.1538456231355667 -0.0377591215074062 -0.0128957796841860 -0.0391227751970291 -0.0471043922007084 -0.0671621412038803 0.1295524984598160 -0.0117886113002896 0.1042681336402893 0.1140323579311371 -0.0104363532736897 -0.1193069368600845 0.0115592051297426 -0.1505002379417419 -0.0676968768239021 -0.0023424222599715 0.1310347318649292 -0.0735522061586380 0.0562666542828083 -0.1160796284675598 -0.1958890110254288 0.2722451984882355 -0.0997100248932838 -0.0034687940496951 -0.1915172487497330 -0.0399775207042694 0.0136211011558771 -0.0753966495394707 -0.1488640308380127 0.0473334640264511 -0.0761478394269943 0.0540175773203373 0.0249604247510433 -0.1504766047000885 -0.1371808797121048 -0.0620031133294106 -0.1281464844942093 -0.0228982008993626 -0.1987822055816650 -0.3753359019756317 -0.3296746015548706 0.1115839332342148 -0.3974401056766510 0.1903603971004486 -0.1419645696878433 -0.3126714527606964 -0.0656027272343636 -0.2780311703681946 -0.0576743558049202 -0.1106195226311684
-0.0146563882008195 0.1212790980935097 0.1265074014663696 0.0849346444010735 0.0880098715424538 -0.0043634306639433 -0.0011801620712504 -0.0399652943015099 0.1147719472646713 -0.4018437862396240 0.1841787397861481 0.1357273906469345 0.1851761043071747 0.1623599827289581 0.1162735745310783 0.1461988240480423 0.1227178797125816 0.0152453016489744 -0.1200053095817566 0.1156493201851845 0.1289805471897125 0.1722455918788910 0.2069462239742279 0.1973851174116135 0.2310850322246552 -0.0552546493709087 -0.0234876759350300 0.1289103776216507 0.0135729052126408 0.0149869276210666 0.2537571787834167 0.1993603557348251 0.1973632723093033 0.1840239018201828 0.1967758536338806 0.2162912487983704 0.1378339827060699 0.1764179617166519 0.2120333015918732 0.2122096270322800 -0.0019567557610571 0.1808242946863174 0.1850300133228302 0.0487674139440060 0.1749923378229141 0.1893094629049301 0.0606169179081917 0.1480868905782700 0.1090839281678200 0.1880469620227814 0.2261695116758347 0.0287146419286728 0.1808518767356873 0.0827037841081619 0.0830265581607819 0.2798858880996704 0.1480414867401123 0.0583898574113846 -0.0708035305142403 0.0624803788959980 -0.0183548536151648 0.0577954724431038 -0.0888975337147713 -0.0710265934467316 0.0718322694301605 0.1367222815752029 0.2302384674549103 -0.0066201323643327 0.1236573010683060 0.0655285120010376 0.1365892142057419 0.1022383496165276 0.0460113622248173 0.0664997920393944 0.0476564094424248 0.0895572677254677 0.1660270094871521 0.0387987196445465 0.2544792592525482 -0.0199638791382313 0.2976500988006592 0.1658304184675217 0.0798514336347580 0.0376181975007057 0.1238214820623398 0.0879213809967041 0.1199210807681084 0.1028614342212677 0.1932249218225479 0.1834386438131332 -0.1997569501399994 0.5771728754043579 0.0002249727986054 -0.2161693423986435 0.1015095412731171 0.5818254351615906 0.2227066159248352 0.1794610321521759 -0.0110549805685878 0.0152270365506411
-0.2140877842903137 0.1714105010032654 -0.1349996179342270 -0.0530958287417889 -0.1267267614603043 -0.1430194377899170 -0.1772904843091965 0.0935997664928436 -0.0090519553050399 0.1402571499347687 -0.1861464828252792 -0.0488598644733429 0.0579977370798588 -0.0793683677911758 -0.0153797930106521 0.0418344885110855 -0.1171478033065796 -0.1045859232544899 -0.0057059368118644 -0.1955670267343521 -0.0811832994222641 -0.0314096473157406 -0.0347999781370163 -0.0332402735948563 0.0552836507558823 -0.0085296202450991 -0.0338914468884468 -0.0070817042142153 -0.1201618239283562 -0.1031983718276024 -0.2804432511329651 -0.0795377716422081 -0.0033193966373801 -0.0928637310862541 0.0605794638395309 -0.0894200354814529 -0.1040583103895187 0.0476896129548550 0.1732824444770813 -0.1401614248752594 -0.0556077696382999 -0.2134914547204971 0.0373228304088116 -0.1122103035449982 -0.2440616786479950 -0.1226401329040527 -0.1128090843558311 0.0338095836341381 0.1085306033492088 0.0675924718379974 -0.0668763816356659 -0.0001310736988671 -0.1296681910753250 -0.0893409699201584 -0.3006422519683838 -0.1743346154689789 -0.1270248740911484 0.0184185244143009 0.0511614568531513 -0.1346728950738907 -0.0253333263099194 -0.1122029796242714 0.0392775088548660 -0.0864987075328827 -0.2435545623302460 -0.2211889475584030 -0.2156178951263428 -0.2191706597805023 -0.0640533044934273 -0.1642139106988907 -0.0012266519479454 -0.0286273434758186 -0.0513537637889385 -0.0538909956812859 0.0316748842597008 -0.0731232017278671 -0.1521972864866257 0.0332139618694782 -0.0545185655355453 -0.3824578523635864 -0.2178490459918976 -0.0895344465970993 -0.1579398810863495 -0.0137535501271486 -0.0220382455736399 0.0424186438322067 0.0269322339445353 0.0234760232269764 -0.0204427558928728 0.0289153363555670 -0.2982880771160126 -0.0512454062700272 -0.1029135435819626 -0.0907507762312889 0.0303064528852701 -0.3914872407913208 0.0459003299474716 0.2911890149116516 0.0313498340547085 -0.3202424645423889
0.0603104196488857 -0.2633641958236694 -0.0153357274830341 -0.0974803566932678 0.0501646026968956 -0.1548666656017303 -0.1627296507358551 -0.2369081676006317 -0.0932159349322319 -0.1866671442985535 -0.3302288055419922 -0.1054158955812454 -0.2650773227214813 -0.1393380463123322 -0.2556132376194000 -0.1323850601911545 -0.1525228768587112 -0.2470563352108002 -0.1509433090686798 -0.1935829520225525 -0.0275708474218845 -0.2665553689002991 -0.1047824770212173 -0.2485669404268265 -0.0978642329573631 -0.2295356094837189 -0.2533757686614990 -0.3937659561634064 -0.0740417093038559 -0.0435328595340252 -0.1190078929066658 -0.1475800722837448 -0.3358795046806335 -0.2458862513303757 -0.2703996598720551 -0.1831083297729492 -0.2982672452926636 -0.4048388004302979 -0.2480070441961288 -0.0989204123616219 -0.1548660248517990 -0.3373396694660187 -0.2736970484256744 -0.2861773371696472 -0.0499927364289761 -0.1989681720733643 -0.1236870810389519 -0.2313267886638641 -0.0376546159386635 -0.0279342103749514 0.0060821808874607 -0.1484049707651138 -0.3641736507415771 -0.1882594525814056 -0.2498164325952530 -0.2544810175895691 -0.1595971435308456 -0.3122818768024445 -0.1638822555541992 -0.0289192963391542 -0.1620825678110123 -0.3521272242069244 -0.2767401337623596 -0.3962632119655609 -0.2251074612140656 -0.0383152514696121 -0.1704206764698029 -0.2067904323339462 -0.0810013785958290 0.0013512601144612 -0.0948986187577248 -0.2135802805423737 -0.3461759686470032 -0.2784728705883026 -0.1658172160387039 -0.1829982399940491 -0.1552558839321136 -0.2027165889739990 -0.2422160208225250 0.0111955348402262 -0.0120416991412640 -0.1383196115493774 -0.2743955254554749 -0.3168874979019165 -0.1990181505680084 -0.1707529425621033 -0.2019928693771362 -0.1733347326517105 -0.0873718485236168 -0.0853524878621101 -0.4993217289447784 0.1102705597877502 -0.1959132403135300 0.0898609608411789 0.0021998148877174 0.0037491230759770 -0.1673596352338791 -0.0581770837306976 -0.1933402270078659 0.1036937609314919
0.3601101338863373 0.2966745495796204 0.1398910731077194 0.0664901360869408 0.1085750609636307 0.0531340800225735 0.1746730804443359 0.3097185194492340 0.4430879652500153 -0.0982668995857239 0.2107531130313873 0.3912396728992462 0.3117735981941223 0.2470916211605072 0.1443617790937424 0.1822713166475296 0.1557247787714005 0.1253372281789780 0.0483005382120609 0.0748447030782700 0.2211145311594009 0.2904662489891052 0.3237163722515106 0.1705234199762344 0.1628434807062149 0.0575733408331871 0.2227929681539536 0.0901534333825111 0.2413114011287689 -0.0462302193045616 0.2125747650861740 0.1773741990327835 0.0868216380476952 0.1254241168498993 0.1637903749942780 0.2837122082710266 0.1518707722425461 0.1827693730592728 0.1156730875372887 0.1206314191222191 -0.0251104440540075 0.2587944567203522 0.1787675917148590 0.0287525225430727 0.0409815013408661 0.2076215445995331 0.3226031064987183 0.0503816604614258 0.3680568039417267 0.0373855531215668 0.1841737776994705 0.3376246094703674 0.1733559668064117 0.1423421204090118 0.1151701584458351 0.1394061595201492 0.1717280596494675 0.2189905941486359 0.0762082561850548 0.2775735855102539 0.1424153149127960 0.1971561014652252 0.3548927605152130 0.1220625266432762 0.1707213222980499 0.0824219360947609 0.1908425241708755 0.1176214814186096 0.3389873206615448 0.1607712805271149 0.0786898061633110 0.0960859954357147 0.0571759343147278 0.1866347938776016 0.0699064508080482 0.2448510229587555 0.1937656998634338 0.1223100200295448 0.2212207615375519 0.0829266980290413 0.1674007177352905 0.1565580219030380 0.1939204037189484 0.1904647797346115 0.3004536032676697 0.0577196069061756 0.2214405536651611 0.1031917929649353 0.1360455900430679 0.1375813186168671 0.4813632369041443 0.1053491756320000 -0.0404423698782921 0.1772420108318329 0.4878380894660950 0.8685674071311951 0.1889861673116684 -0.0357211194932461 0.4040859937667847 -0.1558295786380768
-0.2606108784675598 0.0279324986040592 -0.3472352623939514 -0.2637743055820465 -0.1987326443195343 -0.1411052942276001 -0.2004992663860321 -0.2320368885993958 -0.4396109580993652 -0.2329693883657455 0.0376494377851486 -0.3509715199470520 -0.2384194433689117 -0.2064427286386490 -0.2997770309448242 -0.2677087485790253 -0.2669457495212555 -0.3881628215312958 -0.1637073010206223 -0.4474739730358124 -0.3288451731204987 -0.1076811179518700 -0.3299155533313751 -0.3017352521419525 -0.2341184616088867 -0.0703582987189293 -0.2955870628356934 -0.2774693965911865 -0.2615987956523895 -0.3450199663639069 -0.0887338072061539 -0.2205753177404404 -0.1547015756368637 -0.1602598428726196 -0.2166609168052673 -0.2419963479042053 -0.2361803650856018 -0.2931528389453888 -0.2515958547592163 -0.4343376755714417 -0.2774209082126617 -0.1156923174858093 -0.2173886895179749 -0.2432674169540405 -0.3350824117660522 -0.1965029239654541 -0.2743254303932190 -0.4029423594474792 -0.1838770061731339 -0.1390574574470520 -0.0873749405145645 -0.2719393968582153 -0.1258007138967514 -0.2992345690727234 -0.2176280468702316 -0.2180753648281097 -0.1911885440349579 -0.1974184960126877 -0.3370752036571503 -0.2209585607051849 -0.2183003872632980 -0.1527072191238403 -0.2187047898769379 -0.2913644611835480 -0.1845133453607559 -0.2018451243638992 -0.2142703086137772 -0.1431409269571304 -0.2728314697742462 -0.3225191831588745 -0.0908703953027725 -0.1334580183029175 -0.2464532554149628 -0.2210472226142883 -0.4816752076148987 -0.3226187825202942 -0.3743788301944733 -0.2550786435604095 -0.4232581853866577 -0.2345662266016006 -0.4212445020675659 -0.2593059837818146 -0.3525218665599823 -0.2104353159666061 -0.2929659783840179 -0.2542876601219177 -0.1268599629402161 -0.1008259952068329 -0.4183480441570282 -0.4221207499504089 -0.2234562933444977 -0.5261210203170776 -0.3912304341793060 0.0694644749164581 -0.3027081191539764 -0.3645271956920624 -0.1166121140122414 -0.1250744760036469 -0.5384399890899658 -0.3636759817600250
0.1242833212018013 -0.0138821154832840 -0.1340908706188202 -0.0448833517730236 -0.0712474510073662 0.0256222486495972 -0.0215736571699381 -0.1115513518452644 -0.1227829903364182 -0.1623761653900146 0.0236233305186033 0.0333443097770214 -0.1091718748211861 0.0114935273304582 0.1229292228817940 -0.1656724810600281 0.0050699906423688 0.1325059682130814 -0.1193737015128136 -0.0003156270249747 -0.0908428654074669 -0.1321571916341782 -0.0545565858483315 -0.0993497073650360 -0.1097884550690651 0.0894350111484528 -0.0464535132050514 -0.0104628540575504 0.0641084313392639 0.0071717305108905 -0.0449225194752216 -0.0379284583032131 -0.1238481178879738 -0.0507473684847355 0.0253691114485264 0.0123078059405088 -0.0217315945774317 0.0840060412883759 -0.0087603535503149 -0.0101267918944359 -0.1686050593852997 -0.0780091732740402 -0.0012075831182301 -0.1567225754261017 -0.0592398419976234 -0.0625455453991890 0.0563997924327850 0.0760557949542999 -0.1422220170497894 0.1352256238460541 -0.0683515742421150 -0.1581427603960037 -0.0602959357202053 -0.0252573881298304 -0.0648148432374001 0.0912865400314331 0.0954879969358444 0.0381123386323452 0.0406621024012566 0.0585470795631409 -0.1818619519472122 0.0223345980048180 -0.0980648472905159 -0.0422048717737198 -0.1643351763486862 -0.0111816814169288 0.1339348852634430 -0.0706586316227913 -0.1482201665639877 -0.0398485884070396 0.0366100110113621 -0.2363741993904114 -0.0007552997558378 -0.0463213250041008 0.0939198806881905 -0.0794427618384361 0.0476497896015644 0.0337689109146595 -0.2912229895591736 -0.0926546081900597 -0.0694214701652527 -0.0177423693239689 -0.1081350967288017 0.0505041629076004 -0.0890169739723206 0.0655975490808487 0.0246383938938379 -0.1518156677484512 -0.0927130952477455 -0.1674278378486633 -0.0012727701105177 0.0230083260685205 0.1992487162351608 -0.2675015330314636 0.0259405262768269 -0.3676156699657440 0.0325748510658741 0.0378869809210300 -0.0516408085823059 -0.4332276284694672
0.6877263188362122 0.3535318672657013 0.4160004258155823 0.3717256188392639 0.2237997204065323 0.2063403874635696 0.2551079392433167 0.0797334462404251 0.4420282244682312 0.5166860222816467 0.1924646943807602 0.4604736864566803 0.1663979440927505 0.3401335477828979 0.1370290070772171 0.1404667496681213 0.1932708173990250 0.2818212509155273 0.2921875715255737 0.1809610277414322 0.3671714961528778 0.3134415447711945 0.3539840877056122 0.2852075994014740 0.2716329097747803 0.1717739552259445 0.1329301893711090 0.1560110449790955 0.3023350536823273 0.3486267626285553 0.2892116010189056 0.2373543828725815 0.2885691523551941 0.2613728344440460 0.2192227691411972 0.3336548507213593 0.3771688938140869 0.2944730222225189 0.4990877807140350 0.2285448163747787 0.2044011205434799 0.1897632777690887 0.1476499438285828 0.3134019672870636 0.2238686233758926 0.3276934325695038 0.3263041675090790 0.3218279182910919 0.2646335065364838 -0.0066175833344460 0.1596356481313705 0.2544143497943878 0.2246916890144348 0.2134238779544830 0.2824290394783020 0.4236688315868378 0.2806920111179352 0.2863807976245880 0.1875411272048950 0.2526834905147552 0.4348278343677521 0.1064544394612312 0.2166838347911835 0.2917290627956390 0.2528094947338104 0.2448387593030930 0.2946070730686188 0.1470533311367035 0.2459262460470200 0.1470120698213577 0.2461692094802856 0.3021028339862823 0.2428949773311615 0.2188089638948441 0.2198763787746429 0.1114921495318413 0.2612965106964111 0.1389836072921753 0.2124691903591156 0.2896692752838135 0.1985471546649933 0.1200415194034576 0.0807497724890709 0.2641394734382629 0.1144466251134872 0.1635249704122543 0.0275165531784296 0.2092176526784897 0.1476491242647171 0.2663223147392273 0.1512259393930435 -0.0491969250142574 0.2599770128726959 -0.0320090055465698 -0.1702679991722107 0.4132504165172577 0.2407090216875076 -0.0091894073411822 -0.1573847979307175 0.1795330196619034
-0.0336828120052814 -0.0987424030900002 0.2062463909387589 0.2169312834739685 0.1388066262006760 0.1554212570190430 0.0134541830047965 0.0770233348011971 -0.0624897740781307 0.2239668369293213 0.0180807281285524 0.0436620898544788 0.0767677873373032 0.2389583140611649 0.0461412481963634 0.2152126431465149 0.1226950064301491 -0.0459665060043335 0.2130931615829468 0.1353093832731247 0.2058013677597046 0.0194025021046400 0.2329033315181732 0.0912880375981331 0.0906590372323990 0.1131825372576714 0.1908528357744217 0.1088987663388252 0.0073611373081803 0.1731846630573273 -0.0021340812090784 0.1618100255727768 0.0471605099737644 0.1109234094619751 0.0289751291275024 0.1113046631217003 0.0545846708118916 0.0444152057170868 0.1109737008810043 -0.0804017409682274 0.0990540832281113 0.1080797687172890 0.0424409806728363 0.1478587687015533 0.0744083449244499 0.1087794750928879 0.2142984122037888 0.1334759145975113 0.0895641744136810 -0.1160663068294525 0.1375814229249954 0.0458820648491383 0.1123865991830826 0.1540654599666595 0.1290558576583862 0.2203342765569687 0.1474784463644028 0.0829049572348595 0.1532646268606186 -0.0049582598730922 0.0064660417847335 0.2204738259315491 -0.0083644483238459 0.2237741649150848 0.2651754021644592 0.1295233517885208 0.2100279480218887 0.1767861396074295 0.1027415245771408 -0.0644905567169189 0.1395799368619919 0.0800428390502930 0.3994605541229248 0.0976388454437256 0.1262864470481873 0.1843992471694946 -0.0359765104949474 0.4036027491092682 0.0017735799774528 0.2169290482997894 0.0716083869338036 0.1988275349140167 0.0959986820816994 0.2968144118785858 0.0485021360218525 0.0515329502522945 0.1214927434921265 0.0811745226383209 0.2690860927104950 -0.0252478830516338 0.0022512020077556 -0.4498562216758728 0.0021960935555398 0.1247031390666962 0.1583074778318405 -0.5228558182716370 -0.4189143776893616 0.0234231036156416 -0.2388612776994705 0.3423582017421722
0.1801839768886566 0.1076570078730583 0.0880085602402687 0.1957058906555176 0.0305185839533806 0.1235541924834251 0.0713202506303787 0.1678730249404907 0.0397191829979420 -0.1170441061258316 0.1632607877254486 0.1636880338191986 0.0980296283960342 0.1103366762399673 0.2053849697113037 0.0878167524933815 -0.0841414555907249 -0.0399120301008224 0.0561503432691097 0.0904253721237183 0.0645646899938583 0.1940459907054901 0.1703986823558807 0.0222956873476505 -0.0316322557628155 0.1773114651441574 0.1526559889316559 0.1539219766855240 0.0629108995199203 0.0612620040774345 0.1229867711663246 0.1806375235319138 0.0848916396498680 0.0096149658784270 -0.0839459300041199 0.0001984314294532 0.0527359358966351 0.2229987978935242 0.1025832146406174 -0.0020347442477942 -0.1039275452494621 0.1524965763092041 0.1254124641418457 -0.0846654996275902 0.1265656948089600 0.0666096284985542 0.0922746807336807 0.1936571747064590 0.1460718363523483 0.0718916878104210 0.0337237156927586 0.0428754389286041 0.1321424543857574 0.1261274516582489 0.0989704281091690 0.1614631414413452 0.1927727609872818 0.1603473275899887 0.2286790758371353 0.0784358233213425 0.0961450859904289 0.2622450888156891 0.0426207035779953 0.2079977840185165 0.1638575941324234 0.1801496297121048 0.0750486850738525 0.2208293080329895 0.1145785674452782 0.1534269899129868 0.2065442800521851 0.0772175565361977 0.1692262589931488 0.0801274254918098 0.0695376992225647 0.0033947993069887 0.0883437246084213 0.0600280687212944 0.2096442580223083 0.1387440115213394 0.1581526994705200 -0.0119897508993745 0.0707053914666176 0.1506775915622711 0.0182638410478830 -0.1692201942205429 0.0116927064955235 0.0964058414101601 0.0788777694106102 0.1928064376115799 -0.0137779144570231 -0.1116555482149124 -0.0431808456778526 -0.3443180918693542 0.1067581325769424 0.0324717238545418 -0.2530179023742676 0.0628638938069344 0.0940355136990547 -0.0209442209452391
0.0388939306139946 0.1280660480260849 -0.0651891157031059 0.0231729466468096 0.0026916372589767 -0.0906364694237709 0.0303204525262117 -0.1514744758605957 -0.0688789784908295 0.1314403116703033 0.0149881802499294 -0.0580574497580528 -0.0501090772449970 -0.0363481044769287 -0.1020070016384125 0.0143369436264038 -0.1841861754655838 -0.1497462391853333 -0.0490762926638126 0.0764031484723091 -0.1881602257490158 0.0126842763274908 -0.1541052609682083 -0.1773071587085724 -0.1229639351367950 -0.1122534796595573 -0.1287275850772858 -0.1720845550298691 -0.0143273128196597 0.0553051196038723 0.0911393463611603 -0.0038711321540177 0.1392699033021927 -0.2014980912208557 -0.0340962745249271 -0.0274760257452726 -0.0987893640995026 0.0672243013978004 0.0830064117908478 0.1025305539369583 0.0067292591556907 0.0458922907710075 -0.0767265558242798 -0.0445739664137363 -0.0737764611840248 -0.0206795819103718 -0.0366983562707901 0.0195151772350073 0.1359741687774658 -0.0223426334559917 0.0053593334741890 0.0492440685629845 -0.1133313924074173 -0.0490414872765541 -0.0141977090388536 0.0967457816004753 0.0062862257473171 0.0205703377723694 0.1354392766952515 -0.0560002475976944 0.1121802702546120 0.0487238094210625 0.0552404224872589 -0.0753254443407059 -0.0243132449686527 0.0469987541437149 -0.0348043330013752 -0.0289058033376932 -0.0058203288353980 -0.1433157473802567 0.0376145653426647 0.0514215081930161 -0.0102910548448563 -0.0022455716971308 -0.0465107150375843 -0.0880372822284698 -0.0170626193284988 0.0140605261549354 -0.2248241603374481 0.0897536352276802 -0.1751008629798889 0.0463608019053936 -0.1158922091126442 -0.0346652865409851 -0.2271783947944641 -0.0919770821928978 -0.0433020256459713 -0.0534335635602474 -0.1415877193212509 -0.2879713177680969 -0.5165984630584717 -0.5811777114868164 0.1723983883857727 -0.2359410226345062 0.0021292604506016 -0.5205800533294678 0.2064527720212936 -0.0096982894465327 -0.1987786293029785 0.0398005060851574
-0.0486229173839092 -0.1038911789655685 -0.1403607875108719 0.0028728689067066 -0.1864733844995499 0.0216615479439497 -0.0775333121418953 -0.0643248483538628 0.0004975434276275 0.0717531517148018 -0.3009804189205170 -0.0658749043941498 0.0307536832988262 -0.1688045263290405 -0.0566648244857788 -0.3213802576065063 -0.0392480231821537 -0.1842162162065506 -0.1209255754947662 -0.1638121604919434 -0.0820200294256210 -0.1072237491607666 0.0494286864995956 -0.0363511890172958 -0.0663684308528900 0.0169375352561474 -0.0656605362892151 0.0702558085322380 -0.1043583452701569 -0.0669077262282372 -0.2032438218593597 -0.1620641201734543 -0.1617310792207718 -0.1667553782463074 -0.1969136446714401 -0.2166433781385422 -0.0411569848656654 -0.1883326917886734 -0.1506675928831100 -0.1704859435558319 -0.1805035322904587 -0.1167296990752220 -0.1917460113763809 -0.1146078407764435 -0.1158752292394638 -0.1499512046575546 -0.2676800489425659 -0.1673894375562668 -0.1488609164953232 -0.2509647011756897 -0.0297885313630104 -0.0646007135510445 -0.0884551778435707 -0.1105650663375854 -0.0613854639232159 -0.2159710973501205 -0.1522196382284164 -0.3187431097030640 -0.0111347204074264 -0.1587263792753220 -0.1204955205321312 -0.1191502362489700 -0.1374217122793198 -0.0477326251566410 -0.0806165784597397 -0.0656272992491722 -0.2217918038368225 -0.1899109929800034 -0.2414689511060715 -0.2562068998813629 -0.0553517341613770 -0.2276085317134857 -0.1542767286300659 -0.1566560566425323 -0.1332679986953735 0.0129207018762827 -0.1529817432165146 -0.1687091886997223 -0.2759144902229309 -0.2196245640516281 -0.2711621820926666 -0.1399105489253998 -0.3090745508670807 -0.0865873992443085 -0.1189718544483185 -0.1712763309478760 -0.0040207332931459 -0.0598189234733582 -0.1765278875827789 -0.2699729502201080 -0.1461823582649231 -0.0105118220672011 -0.1824939996004105 0.4490784704685211 -0.5379512310028076 0.5424352288246155 -0.0599665977060795 0.0153325349092484 -0.2678647935390472 -0.1458552330732346
0.1981063336133957 -0.0268243346363306 -0.1544786244630814 0.0101921325549483 -0.0625247508287430 0.0884134098887444 -0.0764763429760933 0.0421086698770523 -0.3066447675228119 0.0401444286108017 0.0762475207448006 -0.0744060873985291 0.0020911390893161 -0.0574935451149940 0.0021924593020231 0.0759225636720657 0.0200098287314177 -0.1536155641078949 0.0267284307628870 0.0149146774783731 0.0141526293009520 -0.0821293890476227 -0.1059599593281746 -0.1395772844552994 0.0167219564318657 -0.0592852532863617 0.0527534671127796 -0.1422106027603149 -0.0883614644408226 -0.0514285154640675 -0.0264147389680147 0.0588466338813305 0.0019264876609668 -0.0323634035885334 -0.0477120317518711 -0.0223917383700609 -0.0883856788277626 -0.0506098493933678 0.0026414690073580 0.0769248604774475 -0.0334250293672085 -0.1298610568046570 -0.0002315529563930 -0.0718384236097336 0.0005319474148564 -0.0002446974394843 0.0682415068149567 -0.1185643300414085 -0.0585740730166435 -0.0466399043798447 -0.1348998993635178 -0.1182231977581978 -0.0902378931641579 -0.0614167451858521 -0.1042989268898964 -0.0130704129114747 -0.0824010595679283 0.0714945942163467 -0.1541308760643005 0.0362899340689182 0.0852067843079567 0.0424830503761768 0.0288924183696508 0.0493872873485088 -0.1121102273464203 -0.0871122628450394 -0.0004787547513843 -0.2939878106117249 0.0587151944637299 0.1688839346170425 0.1310595273971558 0.0823057144880295 -0.0074367434717715 0.0622861348092556 0.1005756333470345 -0.0378496572375298 -0.1459301710128784 0.0847929343581200 -0.1218619793653488 -0.0114859584718943 -0.0232178866863251 0.0079583171755075 0.0241655595600605 0.0908629372715950 0.0496994145214558 0.0716163963079453 -0.0087804105132818 -0.2564942836761475 -0.0560357533395290 -0.0592167526483536 0.1950388699769974 -0.0130339292809367 0.1398754715919495 -0.0793427005410194 0.2391863167285919 0.0986471250653267 -0.5222003459930420 -0.0554554611444473 -0.2530584037303925 -0.1638454496860504
0.2873511314392090 0.1143266037106514 0.2410706728696823 0.1364287286996841 0.0900923907756805 0.0022531128488481 0.1604646295309067 0.1014376059174538 0.2109500467777252 0.5058430433273315 0.2505198419094086 0.3059584200382233 0.2606813907623291 0.2233554720878601 0.2524061501026154 0.2061849087476730 0.1409211456775665 0.2737591266632080 0.1574998497962952 0.2826652526855469 0.3856153190135956 0.2145390659570694 0.2575778365135193 0.2780675292015076 0.1474386602640152 0.1010020375251770 0.2178815305233002 0.1491195112466812 0.0081407111138105 0.1727653741836548 0.1950475126504898 0.0733934789896011 0.0727496817708015 0.2461435347795486 0.2690902948379517 0.1765393465757370 0.1347519904375076 0.1816341280937195 0.1163826435804367 0.2091378420591354 0.0336687527596951 0.1663767248392105 0.1475681960582733 0.3114391565322876 0.2704457640647888 0.2035519927740097 0.1621861308813095 0.1387227326631546 0.0254506710916758 0.0471444055438042 0.1340499073266983 -0.0193033441901207 0.0885584503412247 0.3446409106254578 0.2305785715579987 0.2766526043415070 0.2914754450321198 0.3126030862331390 0.1165411248803139 0.1946959644556046 0.1307591348886490 0.1801655292510986 0.2968201041221619 0.2123001664876938 0.2473785579204559 0.1480512320995331 0.2384549826383591 0.3543331921100616 0.3220051229000092 0.2761180400848389 0.2699121236801147 0.2445835918188095 0.3173618018627167 0.3169992566108704 0.1431151032447815 0.1672806739807129 0.2579219937324524 0.3707921802997589 0.4088894426822662 0.2424325644969940 0.1185175627470016 0.2221577614545822 0.3655115962028503 0.1655920296907425 0.2033377885818481 0.1515168547630310 0.2134635001420975 0.2610813975334167 0.4365207850933075 0.1488815546035767 0.4369871318340302 0.3069125413894653 0.2295412719249725 -0.1495477110147476 0.2177740633487701 0.7353828549385071 -0.0997103303670883 0.1370560079813004 0.5291932821273804 0.3617499470710754
0.4489921629428864 0.3478671908378601 0.3526466190814972 0.3067190349102020 0.1195724382996559 0.1898534297943115 0.1444168239831924 0.1710827797651291 0.2853597998619080 0.0772215798497200 0.1301830857992172 -0.0290242433547974 0.0922678187489510 0.1161292344331741 0.0718591883778572 -0.0201957765966654 0.4338167309761047 0.2293231636285782 0.1311912536621094 -0.1431951075792313 0.3696528375148773 0.1407429277896881 0.1794610172510147 0.0338267609477043 0.5243628025054932 -0.0618983805179596 0.2910560667514801 0.0873797014355659 0.1496839821338654 0.0607355050742626 0.2202309668064117 0.2378385514020920 0.6364246606826782 0.2886386215686798 0.4577735662460327 0.5942207574844360 0.5213852524757385 0.2732357680797577 0.1111141145229340 -0.1071744188666344 -0.0458456166088581 -0.0416972152888775 0.0400312244892120 0.1333097517490387 0.1938675791025162 0.4005784988403320 0.5173162817955017 0.3765135109424591 0.0694068893790245 0.0517939999699593 0.0335769020020962 -0.0529306866228580 0.0323637463152409 0.0201769601553679 0.0104170506820083 0.0111302807927132 0.2117848247289658 0.2973553240299225 0.1475234925746918 -0.0984288975596428 0.1803861111402512 0.1363352388143539 0.2099924683570862 0.0848352909088135 0.2166434824466705 0.1475018262863159 0.2230883985757828 -0.0936840176582336 -0.1644406020641327 0.0118225188925862 0.1957171708345413 0.3484568297863007 0.1395637392997742 0.2161661833524704 0.1747977286577225 0.2098403871059418 0.3703040182590485 -0.0148572502657771 0.1878074854612350 -0.1075869426131248 -0.1613893210887909 -0.0220693070441484 0.0871424749493599 0.0194565299898386 0.2061770856380463 -0.0066508837044239 0.2516288161277771 -0.1201475188136101 0.3092225790023804 -0.0164086129516363 -0.4253155589103699 0.3805479705333710 0.0089043751358986 -0.0736534371972084 0.0689504593610764 -0.5373481512069702 0.2133386731147766 0.0677374675869942 -0.0883715450763702 -0.1624183505773544
0.1126292124390602 -0.1866382956504822 -0.0613777562975883 -0.2599528729915619 -0.3731088042259216 -0.0985423326492310 -0.2093135267496109 -0.0414968356490135 -0.2074228972196579 -0.1189280450344086 -0.1856052130460739 -0.1262413710355759 -0.1065816506743431 -0.1712093949317932 -0.0957353562116623 -0.2228035181760788 -0.0815241187810898 -0.0766745209693909 -0.2096106559038162 -0.1412848383188248 -0.2597874104976654 -0.1986635327339172 -0.1537818908691406 -0.1375482529401779 -0.2038193345069885 0.0135953454300761 -0.1457970142364502 -0.0163571126759052 -0.2879842817783356 -0.0396971441805363 -0.2868748009204865 -0.2323262691497803 -0.1326025873422623 -0.2008334398269653 -0.0486295819282532 -0.1987254023551941 -0.1662080734968185 0.0238703675568104 -0.3127694427967072 0.1501410603523254 -0.3581858575344086 -0.1461652368307114 -0.2450745999813080 -0.0559228360652924 -0.2306459397077560 -0.0435047484934330 -0.2396047413349152 -0.1553859710693359 -0.2273287922143936 -0.1205413118004799 -0.1615937054157257 -0.2810647785663605 -0.1487267315387726 -0.2481710463762283 -0.1250574141740799 -0.0713716745376587 -0.1698721349239349 -0.1060126051306725 -0.0653151050209999 -0.1096014380455017 -0.1440242379903793 -0.1100423857569695 -0.3058591187000275 -0.1669817417860031 -0.1827885806560516 -0.1342234760522842 -0.0399590581655502 -0.1970161497592926 -0.1935978531837463 -0.1933746635913849 0.0862295478582382 -0.1876148730516434 -0.1435299068689346 -0.2345529943704605 -0.2075843214988708 -0.2890279293060303 -0.2267063409090042 -0.1842839717864990 -0.1424840390682220 -0.2023736983537674 -0.0369796901941299 0.1325411200523376 -0.2916362285614014 -0.0533632151782513 -0.2904400825500488 -0.2173923403024673 -0.1501246094703674 -0.3359923064708710 -0.3086625337600708 -0.0482408739626408 0.5219767689704895 -0.0600574761629105 -0.0728631392121315 -0.3363862931728363 -0.2755104303359985 -0.0426841527223587 -0.1271611601114273 -0.1322468221187592 -0.5649427175521851 -0.3513697385787964
0.2261443287134171 0.0553284958004951 0.2009614109992981 0.1094555854797363 0.3405739665031433 0.1484635770320892 0.3366591334342957 0.2394959628582001 0.2084867209196091 0.5331139564514160 0.2364603132009506 0.1556392014026642 0.1178166046738625 0.2470672130584717 0.2260937392711639 0.3797129094600677 0.2799552381038666 0.3154416978359222 0.2625358700752258 0.3267031013965607 0.1867825239896774 0.1380601525306702 0.2492419481277466 0.1760134249925613 0.2570805251598358 0.2094999551773071 0.3206478357315063 0.1946322619915009 0.1812644302845001 0.6600628495216370 0.2435257881879807 0.3349865674972534 0.2234169691801071 0.2719742953777313 0.2056487053632736 0.1347309947013855 0.1242105439305305 0.1785881668329239 0.2420143336057663 0.3041220307350159 0.2149871885776520 0.1434576660394669 0.3194610476493835 0.2114590108394623 0.2357242405414581 0.2383141517639160 0.3152212202548981 0.2951698601245880 0.1660319417715073 0.5541148781776428 0.3270354866981506 0.2473562359809875 0.1746287345886230 0.3915976881980896 0.2017868012189865 0.3683114945888519 0.3113511800765991 0.1395308375358582 0.4025689959526062 0.4106554687023163 0.1839426457881927 0.1034184917807579 0.2725170850753784 0.2388030290603638 0.3134759068489075 0.4140151143074036 0.3249219059944153 0.1815611571073532 0.2143913060426712 0.3693335950374603 0.1554318219423294 0.0935451909899712 0.1882679164409637 0.3404915034770966 0.3393356800079346 0.3435826003551483 0.2263541519641876 0.2482547461986542 0.2222272604703903 0.1836184859275818 0.0832487791776657 0.2791697680950165 0.2626043856143951 0.3063642382621765 0.2079684734344482 0.1739578694105148 0.1708336323499680 0.1157413050532341 0.1478189378976822 0.3206484913825989 0.0623461417853832 0.3221575915813446 0.2422033399343491 0.1484653502702713 0.3366219699382782 0.4746042788028717 0.0071158520877361 0.2213549017906189 0.2821088135242462 -0.0413124486804008
-0.0714229419827461 0.1642949879169464 0.0656163543462753 0.2029127627611160 0.0209786929190159 0.1449608206748962 0.1435864120721817 0.2094932049512863 0.1496891081333160 0.2381725460290909 0.0871637314558029 -0.0248995721340179 0.1186407878994942 0.0474365018308163 0.1423528343439102 0.0859068259596825 0.1775332987308502 0.0560560896992683 0.1275892108678818 0.1702247560024261 -0.0862946659326553 0.1006834432482719 0.0205528549849987 0.1994888484477997 0.1630998849868774 0.2707990407943726 0.1410107165575027 0.0824551656842232 0.2831185162067413 0.1476747840642929 0.0373533144593239 0.0132264010608196 0.1543426811695099 0.1388415396213531 0.1568321138620377 0.0456224158406258 0.2997363209724426 -0.4205204248428345 0.0922158062458038 0.3136379718780518 -0.0985617190599442 0.0977801308035851 0.1005022898316383 0.1390568912029266 0.0013377540744841 0.1789354681968689 0.2254208624362946 0.0359825901687145 0.1965668052434921 0.1136744394898415 0.1078525334596634 0.2275024354457855 0.1827581822872162 0.2356869131326675 -0.0234273020178080 -0.0173717830330133 0.2576664686203003 -0.0350735336542130 0.1470933407545090 0.2636423110961914 0.0899110436439514 0.1060061231255531 0.2507915198802948 0.0482938699424267 0.2166557461023331 0.1444107294082642 0.1400803327560425 0.1242416352033615 0.1812532693147659 0.1319028288125992 0.1873467564582825 0.1373079568147659 0.2067066133022308 0.2700958847999573 0.1522731035947800 0.1326086372137070 0.1873219013214111 0.1820133477449417 0.2452877461910248 0.0367182828485966 -0.1766731739044189 0.3559110760688782 0.1678861677646637 0.2928159534931183 0.2330836802721024 0.1693355143070221 -0.0035557611845434 0.1118071228265762 0.3040257692337036 0.1146534457802773 0.6128224730491638 0.3152950108051300 0.3354120552539825 0.4440018534660339 0.2790619730949402 -0.1691247522830963 -0.0811972767114639 0.3937465846538544 0.1888189911842346 -0.0534717068076134
-0.2431011497974396 0.1072295755147934 -0.0491130314767361 0.0492301359772682 -0.0386625602841377 0.0273719802498817 0.1289033740758896 -0.0233044549822807 0.0401020273566246 0.0370611548423767 -0.1064847484230995 0.1207333877682686 -0.1739258319139481 0.0264220684766769 -0.1274314671754837 0.0379183478653431 -0.0621756836771965 0.1881012916564941 -0.0165921580046415 -0.0001980908418773 0.1100143045186996 0.0566340498626232 0.1483872085809708 -0.1052899286150932 0.0654007792472839 0.0555957742035389 0.0813206061720848 0.0200120899826288 -0.1119153946638107 0.3030988276004791 -0.0239122249186039 0.2167918384075165 0.0432321578264236 0.0129063315689564 -0.0097651397809386 0.1410368680953979 -0.0459996499121189 0.0184521153569221 0.1347389519214630 0.1784869581460953 -0.0306519959121943 -0.0838475227355957 0.1023454889655113 -0.0509971529245377 0.0270908456295729 0.0638619735836983 0.0503504797816277 0.1170133501291275 0.0319424718618393 0.0163393709808588 -0.2669751942157745 -0.0085616027936339 -0.0430502556264400 -0.0356036610901356 -0.0213821530342102 0.0390715114772320 0.0604568906128407 0.0377243459224701 0.1816668510437012 0.0364194400608540 0.1477438360452652 0.1158356741070747 0.0369399115443230 -0.0085567142814398 -0.0695730522274971 -0.0332297645509243 0.0440806634724140 0.1709502786397934 0.0362861827015877 0.0449785366654396 0.1301484704017639 0.0569164603948593 -0.0040639555081725 0.0072715892456472 -0.0611705780029297 -0.1794016957283020 0.0052324756979942 -0.1664950996637344 0.0265403687953949 0.0551643855869770 0.1418067961931229 0.1562551707029343 0.0413462482392788 0.0730311200022697 -0.0009395224042237 0.0049260994419456 -0.0374752618372440 0.0162100344896317 -0.1177136152982712 -0.1329633593559265 0.2758275568485260 0.3188737034797668 -0.0302703920751810 0.1071032136678696 0.1409538239240646 0.0523553788661957 0.1625833958387375 -0.3853651881217957 -0.2385086566209793 -0.1953097432851791
0.2339650690555573 0.1227580755949020 0.1434292346239090 -0.0961038768291473 0.0778836086392403 -0.0826858729124069 -0.0451898425817490 0.0656969845294952 -0.0350152738392353 -0.0383901409804821 0.2521946728229523 0.1188363060355186 0.0301225837320089 0.0876329094171524 -0.0880151763558388 0.0341438427567482 0.0684341266751289 0.2485499829053879 -0.0569039881229401 0.1612596660852432 -0.0662490278482437 0.1095990687608719 -0.1050294339656830 -0.0273620281368494 -0.0624399445950985 0.1140330210328102 0.0355551950633526 0.2511708438396454 0.0249903108924627 0.0838843062520027 0.0236798189580441 0.0288784392178059 0.0637071728706360 -0.0035852494183928 -0.0682217180728912 -0.1359111666679382 -0.0054115774109960 0.1974807381629944 -0.0995760634541512 0.0030342182144523 -0.2322611063718796 -0.0449293069541454 -0.0606456585228443 -0.0857052654027939 -0.0243079271167517 -0.0734642297029495 -0.0217179302126169 0.0666626095771790 0.0111114913597703 -0.2103057801723480 -0.2395874112844467 -0.0681659877300262 -0.1694734543561935 0.0829878225922585 0.0629326775670052 0.1197505444288254 0.1364602744579315 0.1774787157773972 0.1032491326332092 -0.0855101868510246 -0.0465497300028801 0.0072288420051336 0.0149085074663162 0.0377549454569817 0.0106620043516159 -0.0070236730389297 0.0460739135742188 -0.0862580463290215 0.0742144212126732 -0.1978978365659714 -0.1012930497527122 -0.1079170852899551 -0.0996384397149086 -0.0751432105898857 -0.0619705542922020 -0.0208128094673157 -0.0313383713364601 -0.0697833523154259 -0.0087438710033894 -0.0473906584084034 -0.1480785757303238 0.0067383018322289 0.0095191625878215 -0.0844684988260269 -0.0087525919079781 -0.0299758706241846 0.0541790835559368 -0.0798671171069145 0.1862317323684692 -0.1711357533931732 -0.3759931027889252 0.0422353968024254 0.2124455422163010 -0.3817743957042694 -0.1107945218682289 -0.6338751316070557 0.0067791128531098 -0.2473258972167969 0.1216959506273270 -0.1049978956580162
0.0365895181894302 0.1620020121335983 0.2185139954090118 0.1168557927012444 0.0569925233721733 0.0074752378277481 -0.0050638471730053 0.0057181506417692 0.0569899342954159 0.0879781097173691 0.1540477871894836 0.0298286285251379 0.0623701252043247 0.1134154945611954 0.0064105619676411 0.1543344855308533 0.0485746935009956 0.0366607643663883 0.0260293036699295 0.0445217713713646 0.0916697159409523 0.0878939926624298 0.0900204256176949 0.0927916690707207 0.1517936140298843 0.0381827279925346 0.1626858562231064 0.0128598054870963 0.0451663434505463 -0.0168959125876427 0.0406313873827457 -0.0239251405000687 0.0288977641612291 0.0888329744338989 0.1427078545093536 0.0799247622489929 0.1085201799869537 0.1500781476497650 -0.0412340089678764 0.1287592798471451 0.3204852938652039 0.1172734200954437 0.1536110639572144 0.2597760856151581 0.1300919055938721 0.2035166919231415 0.0872109085321426 -0.0815382376313210 0.0480559095740318 0.1381049454212189 0.0622548460960388 0.0668520927429199 0.2388785630464554 0.2375806570053101 0.2960206866264343 0.0885984301567078 -0.0013297282857820 0.0407911241054535 -0.0221370626240969 0.0385027527809143 0.0603143386542797 0.0783432424068451 0.2496039867401123 0.3657884299755096 0.2650642693042755 0.0419844202697277 -0.0001657709362917 -0.0478035323321819 -0.0053244256414473 0.0683084875345230 0.1020928695797920 -0.0423015058040619 0.2923995852470398 0.1677193790674210 0.1470209360122681 0.2100204825401306 0.1139036715030670 0.1152440309524536 0.2093546092510223 0.0674253329634666 0.0073758582584560 -0.0723664462566376 -0.0987209156155586 0.2004851102828979 0.0221834871917963 0.0119199128821492 0.0002882136614062 0.0746620967984200 0.1560227423906326 0.1207642331719398 -0.1628559380769730 -0.5391598343849182 0.0519821345806122 -0.3911281228065491 -0.1583198755979538 -0.4220414459705353 -0.0380310155451298 -0.1555959582328796 0.1226801872253418 0.0767739564180374
-0.2309880256652832 -0.1279566884040833 -0.1342884302139282 0.0652995556592941 0.0525447428226471 0.0553819276392460 0.0771199166774750 -0.1224403604865074 0.0637496039271355 0.1226463168859482 -0.0929162129759789 -0.1985381245613098 -0.1310303807258606 0.0224015656858683 -0.0272139906883240 0.1164987534284592 0.0508837103843689 0.1405683606863022 0.0406123474240303 0.1068925485014915 -0.0246009323745966 -0.0497953221201897 -0.0529773719608784 0.1078753396868706 0.0753237530589104 -0.0413657799363136 0.2288279533386230 0.0751354098320007 -0.0966277047991753 0.1271029412746429 -0.0326595194637775 -0.0590935051441193 0.0391895771026611 0.0855544880032539 0.0859181955456734 -0.0300923306494951 -0.1134905964136124 0.2455334961414337 -0.2745116651058197 0.0001359353191219 0.0960380285978317 0.0054051252081990 -0.0866716802120209 0.1728567034006119 -0.1044324636459351 -0.0336047783493996 0.0363438948988914 -0.0921139195561409 0.0851483866572380 -0.0413205511868000 0.0117275631055236 0.1686552911996841 0.0366468802094460 -0.0390430614352226 0.1784828007221222 -0.0550360009074211 0.0025821507442743 -0.0133232139050961 -0.2827726304531097 0.0882021486759186 0.1148339435458183 -0.1455783247947693 0.0310609899461269 0.0116496132686734 -0.0369235761463642 0.0992292463779449 0.0583209507167339 -0.0526491180062294 -0.0857337489724159 -0.1150677055120468 -0.2066382616758347 -0.0703391060233116 -0.1484048217535019 -0.1054088026285172 0.0207416322082281 0.0146956229582429 -0.0331802330911160 0.0461060069501400 -0.1642632931470871 0.0658362582325935 -0.1838456690311432 -0.1981408298015594 0.0890531465411186 -0.0391510203480721 -0.0204984582960606 -0.0344276465475559 0.0352830849587917 -0.0615923777222633 0.0142945572733879 -0.0031767764594406 -0.2322424352169037 -0.1652000546455383 -0.2437049150466919 -0.1924865692853928 0.2089190483093262 -0.4539517462253571 0.1568845957517624 0.2277089208364487 -0.1385353803634644 -0.0553678572177887
0.1792664825916290 -0.1709315478801727 0.0573549084365368 -0.1295612901449203 -0.0844532400369644 0.1958174109458923 -0.1083215847611427 -0.0252490583807230 -0.0137419654056430 0.2073834538459778 0.1130682006478310 0.0960568934679031 -0.0397716239094734 0.0168322399258614 0.0047376872971654 -0.1675799489021301 -0.1046947985887527 -0.0239614881575108 -0.1423884034156799 -0.0332280918955803 0.0408230051398277 0.0837468877434731 -0.0091026592999697 -0.0493134818971157 -0.1993799805641174 0.0457819998264313 -0.1272064745426178 -0.1979545205831528 -0.0045171324163675 0.0674194693565369 0.1403607130050659 -0.0064495517872274 -0.0381628647446632 0.0715684965252876 -0.0656412765383720 -0.0649111196398735 -0.1973942220211029 -0.0616101771593094 -0.3191058337688446 -0.0422973297536373 0.2162097245454788 0.0752613767981529 -0.0426501333713531 0.0642001852393150 -0.0581367239356041 -0.1162169650197029 -0.1429161131381989 -0.1918986737728119 -0.1329541653394699 0.0508287735283375 0.0661561042070389 0.0395235158503056 -0.0914861634373665 0.0728465393185616 -0.0813152343034744 -0.1527989357709885 -0.0909766778349876 0.0131978718563914 -0.2410033047199249 0.0425110049545765 0.0053749103099108 -0.0346314795315266 -0.0550928413867950 0.0043624285608530 -0.0610526762902737 -0.0871997401118279 -0.0388112701475620 0.0865308791399002 0.0443875342607498 0.1607691943645477 -0.0363595858216286 0.2129849642515182 0.0171877853572369 0.0088618537411094 -0.1003173291683197 -0.0576955080032349 -0.1132223904132843 0.1194575801491737 -0.0653214380145073 0.0132405646145344 0.0580817908048630 0.0106475464999676 -0.1689286530017853 -0.0939423665404320 -0.0683559402823448 -0.1478608995676041 0.0688764005899429 0.0487164109945297 0.0324442312121391 0.1898798346519470 0.3049298226833344 0.4218472242355347 -0.0656252875924110 -0.0128901135176420 -0.0040346132591367 0.0608965866267681 -0.0785364657640457 0.2370100617408752 -0.2423225492238998 -0.1130297407507896
0.2594015300273895 -0.0474713593721390 0.1722277104854584 0.1382256597280502 0.2466170191764832 0.2447501122951508 0.4565012156963348 0.2442667782306671 0.1905101835727692 0.1764617413282394 0.0917875617742538 0.0640634074807167 0.1853402853012085 0.0857424587011337 0.2143391370773315 0.0953874439001083 0.2222941815853119 0.1431360989809036 0.1138818264007568 0.1554172188043594 0.2843599021434784 0.1442048251628876 0.0204819049686193 0.1410735696554184 0.1016757115721703 0.1965119242668152 0.0636055022478104 0.0483206547796726 0.0205721929669380 0.1477026045322418 0.2245660871267319 -0.0467639565467834 0.2680251002311707 0.0270015839487314 0.1514844447374344 0.0255904346704483 0.0621946044266224 0.0560172386467457 -0.1004123464226723 0.1744526475667953 0.2168218344449997 0.2335865944623947 0.0053120260126889 0.0327949263155460 0.1592725366353989 0.0927222743630409 0.0788696110248566 0.0075217727571726 0.0994647815823555 -0.0268890727311373 0.2481245398521423 0.0745072513818741 0.0883881449699402 0.0748357027769089 -0.0538934879004955 0.0769971013069153 0.0728199928998947 0.1388070583343506 0.0699235722422600 0.0749056190252304 0.2062060981988907 0.0916354805231094 -0.0341561213135719 -0.0782818943262100 0.0414295122027397 0.0380055271089077 0.0014166227774695 0.0268546622246504 0.1472700536251068 0.1451070606708527 0.2414906471967697 0.1345677971839905 0.0593503564596176 -0.0046771466732025 0.1094484478235245 0.0289738047868013 0.0032519660890102 0.0689451172947884 0.1772927045822144 0.0780754610896111 -0.0289822462946177 -0.2035835832357407 0.0142553495243192 -0.1152736023068428 -0.0733660012483597 0.1605301499366760 0.0569303892552853 0.0221152119338512 -0.1469449549913406 0.1781839132308960 -0.0101527664810419 -0.1606027781963348 -0.0688799172639847 -0.0832995921373367 0.2479505687952042 -0.1538372933864594 0.3888233602046967 0.0823734253644943 0.0500586666166782 -0.0724990516901016
-0.1073679774999619 -0.0624502263963223 -0.1049146726727486 -0.0584679394960403 -0.0122264893725514 -0.0149421179667115 -0.0202693436294794 -0.1193981468677521 -0.0229592826217413 -0.2702129781246185 0.0938567742705345 0.0067971195094287 -0.0431791096925735 0.0081168916076422 0.0240556988865137 0.0613070391118526 -0.0373396798968315 -0.0337714888155460 -0.0883345678448677 -0.0392100885510445 0.0303486101329327 -0.0591592863202095 -0.0225994810461998 0.0588895194232464 0.1082165688276291 0.0777213573455811 0.0724704340100288 -0.1295736879110336 0.0308049526065588 0.0951802283525467 0.0786732509732246 0.0743574649095535 0.0216631498187780 -0.1105251610279083 0.1012507081031799 -0.0487231127917767 0.0368191227316856 -0.2697418630123138 -0.0160767156630754 0.1343503147363663 0.1326042115688324 -0.1793805360794067 -0.0473243445158005 -0.0637763291597366 -0.1600370556116104 0.0196386743336916 -0.0202288236469030 -0.1416579633951187 0.0069929729215801 0.1712781488895416 -0.0215753056108952 0.0845182836055756 -0.1083917096257210 -0.1161947324872017 -0.0238813050091267 -0.1255816221237183 -0.1238152757287025 -0.2286561429500580 -0.1131535917520523 0.0763274058699608 0.0671529099345207 -0.0960470736026764 -0.0503178052604198 -0.1260673701763153 -0.0614806786179543 -0.0220391005277634 -0.0462613627314568 -0.1929196566343307 0.0395448356866837 0.0839825198054314 0.0212595146149397 -0.0344347395002842 -0.0416403822600842 -0.0907706245779991 0.0085812583565712 -0.0640553534030914 -0.1989494562149048 -0.0325426980853081 -0.1757769137620926 0.1624417603015900 0.2023657411336899 0.1135599464178085 0.0009811730124056 0.1020700931549072 -0.1297339648008347 0.0715922638773918 -0.0979279279708862 -0.2559483349323273 -0.2974165976047516 0.0673602372407913 0.1825557202100754 0.8075742125511169 0.2801760137081146 -0.1826994866132736 0.0898133814334869 0.2903060317039490 0.1026801913976669 -0.3415015935897827 -0.2829785048961639 0.2106524705886841
0.2767041027545929 -0.1307544559240341 0.0005352857988328 -0.1266103684902191 0.0946497544646263 -0.0928161889314651 0.0754945054650307 0.1315126419067383 0.1919979304075241 0.0470710173249245 0.0949409380555153 -0.0605853870511055 0.0252888966351748 0.1368684619665146 0.0520288422703743 0.1506173163652420 0.0526598654687405 0.0542174987494946 0.0784496739506721 0.0575296878814697 0.0052802618592978 -0.0644635111093521 0.0892073661088943 -0.0484349690377712 0.2590445280075073 0.0940558910369873 0.0901969894766808 0.0718927532434464 0.1241938471794128 -0.0419484078884125 0.0314672701060772 0.0725402757525444 0.0496233403682709 0.0851210877299309 -0.0359339937567711 0.0180034022778273 0.1494003236293793 0.0055627934634686 0.1345872282981873 0.0158163066953421 0.1475541144609451 0.1154392510652542 0.1845081597566605 0.0406457521021366 0.0936908274888992 0.0095514813438058 0.0151304397732019 0.1138611510396004 0.1284450739622116 0.0049668643623590 0.0816433578729630 0.2270847111940384 0.1402737051248550 0.0506619736552238 0.0610229372978210 -0.0682091638445854 0.0562191270291805 0.0127181485295296 0.0127853341400623 0.1742907613515854 0.1009262204170227 0.1558797210454941 0.0438580214977264 0.1236373335123062 0.0929612219333649 0.1364731788635254 0.0026491601020098 0.0295232757925987 0.2478580921888351 0.0713223814964294 0.1710568964481354 0.1036553829908371 0.1357739120721817 0.0899959802627563 0.1861006170511246 0.1331100612878799 0.2425017803907394 -0.0470920503139496 0.0493211708962917 0.1716684401035309 0.1075761541724205 -0.0153421247377992 0.1267835646867752 -0.0285544358193874 0.0458741597831249 0.0333424247801304 0.0201052501797676 -0.0929461568593979 -0.0230162609368563 0.2590236663818359 0.1094776019454002 -0.2759948670864105 -0.2453573793172836 0.7069490551948547 -0.1676054894924164 0.5347236990928650 -0.2405375391244888 0.0436800606548786 0.0467548146843910 0.0187939666211605
-0.0169558040797710 -0.1558721363544464 -0.1622146815061569 -0.1549376547336578 -0.2135237753391266 -0.1024796590209007 -0.1770173758268356 -0.1283121705055237 -0.1393671184778214 -0.4455543458461761 -0.1030814573168755 -0.1197484061121941 -0.1680833697319031 -0.0956765487790108 0.0253104362636805 -0.1509884744882584 -0.1576368957757950 -0.3136805593967438 -0.1542864739894867 -0.2555755078792572 -0.2355690002441406 -0.2167531996965408 -0.1422300040721893 -0.2174955308437347 -0.1335347294807434 -0.1011067256331444 -0.1394899189472198 -0.3682441711425781 -0.1807639449834824 -0.1153163313865662 -0.1635457128286362 -0.2860057055950165 -0.1499513387680054 -0.1548540294170380 -0.1818058490753174 -0.0640299767255783 -0.2082833051681519 -0.2748970687389374 -0.0402204915881157 -0.3126811683177948 -0.2878816723823547 -0.1234554648399353 -0.0944823622703552 -0.1111483424901962 -0.0609848462045193 -0.1669241189956665 -0.0432042665779591 -0.1459511667490005 -0.1310003697872162 -0.1603786051273346 -0.1614200323820114 -0.0599696747958660 -0.0782786458730698 -0.1397197544574738 -0.2173576503992081 -0.1229566857218742 -0.1441080570220947 -0.3525767326354980 -0.1137369722127914 -0.2235714495182037 -0.1926832348108292 -0.2015514522790909 -0.2432665079832077 -0.2485618591308594 -0.1579238772392273 -0.1540203839540482 -0.0547435730695724 -0.2533643841743469 -0.1298800855875015 -0.0872693434357643 -0.1189977452158928 -0.1343892514705658 -0.0796972438693047 -0.1895967870950699 -0.3527265489101410 -0.1854096204042435 -0.2515141665935516 -0.1616901308298111 -0.0519996061921120 -0.0379725173115730 -0.3536103069782257 0.0712996944785118 -0.1154488846659660 -0.2993307709693909 -0.1952696293592453 -0.3006349205970764 0.0298817902803421 -0.3043883442878723 -0.1817253232002258 -0.0040143341757357 0.2468236833810806 -0.2456780672073364 -0.1606665104627609 0.4729025661945343 -0.3273714780807495 0.2506275177001953 -0.1105912402272224 0.1229831501841545 -0.5436856150627136 0.2775636911392212
0.1847328692674637 0.1036906689405441 0.1542144417762756 0.0910500735044479 0.1092262193560600 0.2348424941301346 0.1147866994142532 0.0607652068138123 0.0764610767364502 -0.4546475410461426 -0.0616306439042091 0.0525298193097115 0.0233178045600653 0.0887619853019714 -0.0011283911298960 0.0577175281941891 0.1849570721387863 0.0967826396226883 0.1465443372726440 -0.0333707332611084 -0.1673597246408463 0.1563579440116882 0.0007011960260570 0.0433217585086823 0.1735848188400269 0.2099949121475220 0.1215316429734230 0.0784003064036369 0.1258067339658737 0.0164079647511244 -0.0777558088302612 -0.0592835955321789 -0.0427826605737209 0.0390114784240723 -0.0689549669623375 -0.0488032735884190 -0.0169608909636736 -0.2098251432180405 0.0584942921996117 -0.0385015308856964 -0.0847306102514267 -0.0908854007720947 -0.0793618336319923 0.0335942283272743 -0.0155961504206061 -0.0296847894787788 0.0408335253596306 -0.0398884639143944 -0.0612425692379475 0.0053516132757068 -0.0370841920375824 -0.1346002370119095 -0.0819090902805328 0.0468421727418900 -0.0344896577298641 0.0016353833489120 0.0333926863968372 -0.0152251878753304 0.1173251718282700 -0.0483984276652336 -0.0108181126415730 0.0118975052610040 -0.0776217058300972 0.0989213362336159 0.1564264893531799 0.0996882244944572 0.0753113180398941 0.1970417946577072 -0.0671346485614777 -0.0857965275645256 0.0479413233697414 -0.0485422760248184 -0.0088575556874275 -0.0224668346345425 -0.0070764343254268 -0.0310563966631889 0.0709187090396881 -0.0825920030474663 0.1842917799949646 0.0453702770173550 -0.0127018233761191 -0.0602967068552971 -0.0372216068208218 0.2080642431974411 0.0451737977564335 -0.0487796142697334 -0.1134192198514938 0.0979574695229530 -0.0306507423520088 0.1374554187059402 -0.2436991184949875 0.2487749159336090 -0.3138192594051361 0.0298146214336157 0.0904203355312347 -0.6235987544059753 -0.1130625829100609 0.1506623625755310 0.4104628264904022 0.3688823282718658
-0.1796091794967651 -0.2034668475389481 -0.1989651620388031 -0.2908143997192383 -0.1485182493925095 -0.2236405014991760 -0.0583561919629574 -0.0437536351382732 0.0517540052533150 -0.2088527232408524 -0.1635221391916275 -0.2301442176103592 -0.0655812174081802 -0.2033323645591736 -0.1239638850092888 -0.1295139640569687 -0.2787290811538696 -0.1582857817411423 -0.0390565954148769 -0.2737451791763306 -0.1360944062471390 -0.0555874444544315 -0.1751896142959595 -0.0269068907946348 -0.1216307803988457 -0.1985685229301453 -0.0478281602263451 -0.1393381506204605 0.0693856105208397 -0.2052623033523560 -0.0317938737571239 -0.0772378444671631 -0.0548600591719151 -0.2431355863809586 0.0407298132777214 -0.1767120212316513 -0.0373422801494598 -0.0607000179588795 -0.0638260766863823 -0.1372315585613251 -0.0958345681428909 -0.1737308204174042 -0.0394552014768124 -0.1334757059812546 -0.2406449466943741 -0.0428721718490124 -0.2354926466941833 -0.1144080683588982 -0.1713926643133163 0.0754296109080315 0.0000107646483229 0.0438351146876812 -0.1957354098558426 -0.0504562370479107 -0.2605939507484436 -0.1416824012994766 -0.2049391418695450 -0.1433032453060150 -0.1296219825744629 0.0788931474089622 -0.1698896586894989 -0.1179302185773849 -0.0912672579288483 -0.2707538008689880 -0.1773550659418106 -0.1078359559178352 -0.0197812188416719 0.0126823130995035 0.0274528283625841 0.0228883698582649 0.0016456445446238 -0.0981058776378632 -0.1487075388431549 -0.2235179394483566 -0.0822032094001770 -0.1227143108844757 0.0317498445510864 -0.0027154900599271 -0.0551653690636158 0.0686813592910767 -0.1247422397136688 -0.0738297924399376 -0.1323674768209457 -0.0381066650152206 -0.2227653712034225 -0.1205188110470772 -0.1291319578886032 0.0398263819515705 -0.2053485959768295 -0.0347942970693111 0.2994542121887207 0.2905951440334320 -0.2585631310939789 -0.5280980467796326 0.1789018064737320 0.0490639619529247 0.1229234710335732 0.0474582128226757 0.0885404646396637 -0.2638918459415436
-0.2259220778942108 0.1109128594398499 0.0022861445322633 0.0110199106857181 0.0433486476540565 0.0277361907064915 0.2040407508611679 0.1618244051933289 0.2394437342882156 0.2315174788236618 0.0140952914953232 -0.1623955219984055 0.0523739047348499 -0.0494693145155907 0.1083272323012352 0.0440820939838886 0.1813902109861374 0.2803011238574982 0.0332178622484207 0.1069238334894180 0.0969764590263367 0.3049644231796265 0.0804977118968964 0.2292678058147430 0.1494183242321014 0.2326536476612091 0.1017247214913368 0.1392303556203842 0.0757039412856102 0.1172506734728813 0.1719738692045212 0.0390217639505863 0.0878802984952927 0.1411904841661453 0.0463703200221062 -0.0412736684083939 0.0253880880773067 0.0385371930897236 0.1222757995128632 -0.0174112934619188 -0.0170125868171453 0.0301768481731415 0.0050867293030024 -0.0193000733852386 0.0068910447880626 0.0459047518670559 0.0258681103587151 0.1957382410764694 0.1960283070802689 -0.0016276598908007 0.0763497650623322 -0.0019818847067654 0.0118942884728312 0.0497093126177788 0.0151458140462637 -0.1653807908296585 0.0916127637028694 0.1601966917514801 0.1716007888317108 0.0583573915064335 0.2099753916263580 0.0528566129505634 0.1720157414674759 0.1448791325092316 -0.0108265690505505 0.1247840896248817 -0.0301802922040224 -0.0551689192652702 0.1790724247694016 0.0053439191542566 0.1059394329786301 0.0956188291311264 0.0956357493996620 0.1801586747169495 0.1016281619668007 -0.0343241170048714 -0.0318744331598282 0.0584678910672665 -0.0987753495573997 0.1431960314512253 0.1226591616868973 0.0475963093340397 0.1163872629404068 0.2385873496532440 0.1531883776187897 0.1227986142039299 0.0232514534145594 -0.1692751944065094 0.1046131625771523 0.1441960483789444 0.3000738620758057 -0.6204567551612854 0.2300917208194733 0.0776537731289864 0.0791611969470978 0.1554873585700989 -0.2299731075763702 0.0182617288082838 -0.2608281373977661 0.2553875744342804
0.1348297297954559 0.2094061970710754 0.1697007864713669 0.0611266419291496 0.0948981046676636 -0.0258333142846823 -0.0880266129970551 -0.0389460735023022 -0.0246721990406513 -0.2315143346786499 0.0838442146778107 -0.0377000346779823 -0.1645451933145523 -0.1051871925592422 -0.1418668776750565 -0.1020859107375145 -0.0758056268095970 0.0301545709371567 0.0075592938810587 -0.0279993880540133 -0.2201305180788040 -0.1370635628700256 -0.1323574632406235 -0.1131082549691200 -0.0811447426676750 -0.0376967489719391 0.0020505334250629 -0.0286740697920322 -0.0360994488000870 0.0279945284128189 -0.1117376014590263 0.0051719453185797 -0.1112288162112236 0.0270890165120363 -0.0179492793977261 0.0113957831636071 0.0050128842703998 0.0677537098526955 0.0012200998608023 -0.0372580587863922 -0.0476000495254993 0.0036710195709020 0.1030301526188850 -0.0053048962727189 -0.0550778582692146 -0.0466060638427734 -0.0612956769764423 0.0530890747904778 0.0495045781135559 -0.2029570043087006 -0.0702749267220497 -0.0413596965372562 -0.0726810246706009 -0.0510788075625896 -0.0025269833859056 -0.0637013539671898 0.0671038404107094 0.1186223477125168 0.2248627841472626 0.0013942373916507 -0.0111558306962252 0.1469248831272125 -0.0676399320363998 0.0377202294766903 -0.0666830912232399 -0.1888911724090576 0.0366342738270760 0.2462652325630188 0.0569874309003353 0.1168911457061768 0.0466305501759052 0.0074686929583549 0.1281981468200684 -0.1079405844211578 -0.0998027026653290 -0.1319131255149841 -0.0032056744676083 -0.1072117760777473 0.2838736176490784 -0.0677047967910767 -0.0607144907116890 0.1253735721111298 -0.0779049694538116 -0.0105801755562425 -0.0172670893371105 -0.1835208833217621 0.0329601354897022 0.0293588917702436 0.0929547399282455 0.2954992651939392 0.0364876165986061 -0.3028895258903503 -0.0876640304923058 -0.1811600178480148 0.1580661088228226 -0.0903286784887314 0.3504273891448975 0.0860767289996147 0.1158315315842628 -0.0831914916634560
-0.1713696718215942 0.3155084848403931 0.0139559200033545 0.0692416504025459 0.0429093912243843 0.1040731891989708 0.0774458050727844 0.1002779155969620 0.1271724998950958 0.0118634747341275 0.0040059410966933 0.0397834591567516 0.1209088861942291 0.1068023145198822 -0.0253519136458635 0.0352940298616886 0.3152676224708557 0.2190641164779663 0.2625299692153931 0.0137063451111317 -0.1429385989904404 0.0225159488618374 -0.0556524470448494 -0.0140770822763443 0.0542327724397182 0.1737392097711563 0.0782437399029732 0.1500868350267410 0.1688649207353592 -0.0083427559584379 -0.0864233970642090 -0.1185422018170357 0.0864785835146904 -0.0348704904317856 0.0098020583391190 -0.0375123210251331 0.1938354820013046 0.0304819382727146 0.0551512949168682 -0.1343381404876709 -0.0915306359529495 0.0377765409648418 -0.0388422571122646 0.1300507485866547 -0.1089760512113571 0.0780687630176544 0.0533870197832584 0.0643045082688332 -0.0628969743847847 -0.1557064056396484 -0.0405788905918598 0.0452474467456341 0.0250367876142263 0.0223732180893421 0.0311958789825439 -0.0259693581610918 0.2804340720176697 0.0066682258620858 0.1044690832495689 -0.0196574293076992 0.0112320352345705 0.0109978439286351 0.1303472220897675 0.1276934444904327 0.0968229323625565 0.2286087274551392 0.0363391898572445 0.2062286883592606 0.0344151444733143 0.0445499382913113 -0.0481608621776104 0.1221359372138977 0.2478230297565460 0.0883944854140282 0.0610428974032402 0.1045582592487335 0.1465032994747162 0.1921336501836777 0.2240271866321564 0.0713431313633919 0.0803115144371986 0.2821085751056671 0.1343381553888321 0.0542190074920654 0.0351600013673306 0.0737774297595024 0.1677522808313370 0.1910733580589294 0.1323286443948746 0.2995660006999969 0.0001156161379186 0.0999881029129028 -0.0867479816079140 0.0232158005237579 -0.1891761124134064 0.2220548838376999 -0.0614097453653812 0.1144165173172951 0.5424383878707886 -0.0300111379474401
0.6027094721794128 0.3145535290241241 0.2024123072624207 0.2955577671527863 0.2051949501037598 0.2880246043205261 0.1890657246112823 0.0600722841918468 0.1612741202116013 -0.4002172052860260 -0.0047519900836051 0.3074790835380554 0.2866382598876953 0.3234167695045471 0.2818298637866974 0.1762832254171371 0.0148703269660473 0.0943216830492020 0.1389942467212677 -0.0669237896800041 0.2402986735105515 0.0352485068142414 0.1301206499338150 0.1681518554687500 0.1548238545656204 0.2805950343608856 0.2027602940797806 0.0133108273148537 0.1176759451627731 -0.2126635164022446 0.0401848182082176 0.1443242877721786 0.1041598543524742 0.1638893634080887 0.2853892445564270 0.2333708107471466 0.1815454512834549 0.1278344839811325 0.3790186643600464 -0.0022471300326288 0.2138757109642029 0.3442029058933258 0.2092672139406204 0.1798375397920609 0.1688829660415649 0.1017609387636185 0.1629867851734161 0.0440501756966114 0.1078058257699013 0.2420637309551239 0.0740174725651741 0.1354764103889465 0.2177027165889740 0.1317707598209381 0.2122684866189957 0.0549658611416817 0.1201284155249596 0.1367975175380707 0.3266039788722992 0.4258338212966919 0.0629090592265129 0.1468870490789413 0.1720422655344009 0.1935217529535294 0.1562324911355972 0.2643938660621643 0.1153527870774269 0.1913891434669495 0.2907733321189880 0.2197977602481842 0.1174585595726967 0.2772172689437866 0.1805348843336105 0.2974436283111572 0.2210051715373993 0.1819345355033875 0.1476708948612213 0.1483844816684723 0.3236653208732605 0.3298678398132324 0.1120739802718163 0.0967343971133232 0.2007663398981094 0.2424940019845963 0.2489715367555618 0.2025837898254395 0.2086134701967239 0.2909125387668610 0.3576988279819489 0.2443951666355133 0.0423318780958652 0.4728668928146362 0.0544837415218353 0.4110391736030579 0.3446155190467834 -0.1383568197488785 0.0677531212568283 0.2054020613431931 0.4730230271816254 0.2038919776678085
0.1491815596818924 -0.1859125047922134 0.0992023944854736 -0.0743306577205658 0.0270581673830748 0.2264952212572098 0.0914654955267906 0.1453230530023575 -0.2167302519083023 0.1175074800848961 -0.0694811567664146 0.0396702960133553 -0.0522240549325943 0.1258984059095383 0.0970133543014526 0.1651263833045959 0.2777989804744720 0.0576111413538456 0.0449404604732990 0.0282049421221018 0.1495910435914993 -0.0546801686286926 0.1452803015708923 -0.0748454108834267 0.1538258194923401 0.1197989508509636 0.0955522134900093 0.1121594086289406 -0.0362155996263027 0.0402601175010204 -0.0708008930087090 0.1079321280121803 -0.0250626783818007 0.0746547952294350 -0.0344967022538185 0.0528545193374157 0.0085789673030376 -0.1185756027698517 0.0949994549155235 0.0192782301455736 -0.0764153972268105 -0.0087816799059510 0.0878125131130219 -0.0716477259993553 -0.0660442560911179 -0.0350967533886433 -0.0098039275035262 0.0824812203645706 0.0113027393817902 -0.0637324526906013 0.0916261151432991 -0.0063073430210352 -0.0290727000683546 -0.0977417826652527 -0.1043352186679840 -0.0642495229840279 -0.0159771442413330 -0.0597497262060642 0.1100828275084496 -0.2077227383852005 0.0718521550297737 0.1750000417232513 0.0475435331463814 0.0815517306327820 -0.0307440701872110 0.0042917947284877 0.0746736153960228 -0.0252879764884710 -0.1537989825010300 -0.0572228468954563 0.1213985010981560 0.1219585835933685 0.1573290675878525 0.0433569923043251 0.0268013961613178 0.0300329979509115 0.0947611927986145 0.0822069495916367 -0.0601390004158020 -0.0897138193249702 -0.0667387992143631 0.0798033922910690 -0.0461451560258865 0.1408928036689758 0.0414885841310024 0.0392351225018501 0.0166458971798420 -0.0246253777295351 -0.0218229033052921 -0.1348672956228256 0.2173713147640228 0.0861038044095039 -0.0065106721594930 0.1803998053073883 -0.0208038538694382 -0.2205972522497177 -0.1012953892350197 0.1626956760883331 -0.1095110923051834 0.0350675545632839
-0.0760373473167419 -0.2342303097248077 0.0422925539314747 -0.0928242132067680 0.0085599916055799 0.0309131536632776 -0.1685008406639099 0.0209107976406813 -0.2693042755126953 0.0345615930855274 -0.1992566883563995 -0.0701063498854637 -0.1098435893654823 0.0323861539363861 0.0310013759881258 -0.0237897913902998 0.0091936588287354 -0.2856278419494629 0.0995844453573227 -0.1919702589511871 -0.0449702478945255 -0.0591340363025665 -0.0700329169631004 -0.0344956330955029 -0.0524765141308308 -0.1844227313995361 -0.0110381292179227 -0.0398570522665977 -0.3182592391967773 -0.0381178781390190 -0.0062719625420868 -0.1525295227766037 -0.1012749969959259 -0.1827180385589600 -0.1156533807516098 -0.1237263903021812 -0.2494208514690399 -0.0703727826476097 -0.1513618975877762 -0.0602418929338455 -0.1370640397071838 -0.0133787058293819 -0.2029380053281784 -0.1238121017813683 -0.0858033820986748 -0.2438549697399139 -0.0631646811962128 -0.2299025356769562 -0.0751967430114746 0.0203451756387949 0.0142139662057161 -0.1094006299972534 -0.0679804980754852 -0.0243222527205944 -0.0696761757135391 -0.0564186275005341 -0.2028898149728775 -0.0850724056363106 -0.1078541278839111 0.1018476709723473 -0.0884707197546959 -0.0795607566833496 -0.1094169542193413 -0.0705019161105156 -0.0276455450803041 -0.0945778712630272 -0.0475585795938969 -0.1426723450422287 -0.0712998658418655 -0.1238128021359444 -0.2786150574684143 -0.1550615876913071 -0.1715454906225204 -0.0768861919641495 -0.1555213481187820 -0.0365400612354279 -0.0228826645761728 -0.0583776608109474 -0.1017747074365616 -0.0138505408540368 -0.0365118347108364 -0.1622847914695740 -0.1359142363071442 -0.2381400167942047 -0.0383586063981056 -0.2419805824756622 -0.0707579702138901 -0.1811619997024536 -0.1329727470874786 -0.1650272458791733 -0.2733673453330994 -0.1792269051074982 -0.0009533921838738 -0.5502201914787292 -0.2490845471620560 0.2485183477401733 -0.0709983929991722 0.0671310648322105 0.0493748076260090 -0.0900936797261238
-0.3989006578922272 -0.0382367819547653 0.0067212255671620 -0.1109161674976349 0.0205286722630262 -0.1461091041564941 -0.0667132288217545 -0.2460044026374817 -0.2816458642482758 -0.3804952204227448 -0.2249688357114792 -0.0787511989474297 -0.1601734161376953 -0.0543995872139931 -0.1857959777116776 -0.1168234869837761 -0.2363447844982147 -0.0412613898515701 0.0750836208462715 -0.3688819706439972 -0.2233060300350189 -0.0601682253181934 -0.2218401730060577 -0.1454373300075531 -0.1355214118957520 -0.2100407630205154 -0.0665055215358734 -0.1032923907041550 0.1716340929269791 -0.1114150956273079 -0.0952799096703529 -0.0537031702697277 -0.1078132241964340 -0.1894789040088654 -0.1486690044403076 -0.1090298071503639 -0.0574294924736023 -0.0811923816800117 -0.0903227999806404 -0.1544165611267090 -0.0418760105967522 0.0117456270381808 -0.0875038281083107 -0.1377868056297302 -0.2009646147489548 -0.2525459229946136 -0.1673478782176971 -0.1800463199615479 0.2629948854446411 -0.2621855437755585 -0.2059798687696457 0.0051285573281348 -0.0062644700519741 -0.1023979932069778 -0.1443235576152802 -0.3197661340236664 -0.3267717361450195 -0.2345859408378601 -0.1673518717288971 0.0657531246542931 -0.1783476322889328 -0.0640322864055634 -0.0915462672710419 -0.1865620911121368 -0.2262897342443466 -0.2279136776924133 -0.1341548562049866 -0.1380217820405960 -0.0668066143989563 -0.1184714511036873 0.0036146461497992 -0.3117526769638062 -0.2711907029151917 -0.2999561131000519 -0.0573694705963135 -0.1677337288856506 -0.1431933790445328 -0.1951873004436493 -0.2338082194328308 -0.1237445250153542 -0.1381064504384995 -0.0349332466721535 -0.2962899804115295 0.0364793203771114 -0.1789618879556656 -0.0051285233348608 0.0354860052466393 0.0662899687886238 -0.0252325851470232 0.0981604382395744 0.3954279720783234 -0.6026647090911865 -0.2392792403697968 0.0465950183570385 -0.2131440341472626 -0.2147214710712433 -0.0796780809760094 0.0564147979021072 0.1196541488170624 0.1228460893034935
-0.2287929952144623 -0.0520982742309570 -0.0502043180167675 -0.0603173486888409 -0.0599120520055294 -0.0897502005100250 -0.0968074426054955 -0.1885920912027359 0.0262829419225454 0.1092984899878502 -0.0037951394915581 0.1320911347866058 0.0752369612455368 0.0547614842653275 0.1586140543222427 0.0485887564718723 0.0496980883181095 -0.0711436197161674 -0.0697327032685280 0.1144697889685631 0.2062210440635681 0.0869458615779877 0.0985021814703941 0.0091155041009188 0.0489415489137173 0.1390756070613861 -0.0857444554567337 0.0400272682309151 0.1085291132330894 -0.0696309581398964 0.1671232283115387 0.1627133488655090 -0.0068662995472550 0.0193004775792360 -0.0101848822087049 -0.0015788377495483 0.0946810543537140 0.0082309031859040 -0.0262771081179380 0.0560958199203014 0.1344619095325470 0.1701858788728714 0.0801058188080788 -0.0639153420925140 0.0604569800198078 0.0098049277439713 -0.0235907658934593 -0.0588159970939159 0.0081711439415812 -0.0128572722896934 0.2756840288639069 0.1333338469266891 0.1367510855197906 0.0294011253863573 0.0036381196696311 0.0606307834386826 0.1170659065246582 -0.0089913681149483 -0.1433282792568207 0.0528285615146160 0.1347702294588089 0.0752251520752907 -0.0138713177293539 0.0836614370346069 -0.0099594844505191 0.0721201151609421 -0.1374139636754990 0.0239085983484983 -0.0528315305709839 0.0051439902745187 0.1528773605823517 0.0805654302239418 0.0985734388232231 0.1005766913294792 0.0931984335184097 0.0859902650117874 0.0608790963888168 0.0414745025336742 0.0003262102836743 0.1126904413104057 0.1644852459430695 -0.0727145299315453 0.0109195690602064 0.1222639903426170 0.0664123296737671 0.0075409756973386 0.0541412457823753 0.0290849562734365 0.0092707965523005 -0.0214964225888252 0.0290391705930233 -0.3676525056362152 -0.2071872949600220 -0.0574726685881615 0.0720425695180893 -0.1044256165623665 -0.5443533658981323 0.2284829765558243 -0.1546594947576523 0.2397266626358032
